1823 128
2483 -0.3297569 0.100899674 -0.13364159 -0.26699778 -0.21551506 -0.35570434 0.23018493 -0.17450601 -0.031903908 0.18789144 -0.19888544 0.40364277 0.097913 0.061752744 0.08426971 0.075562164 -0.38125736 -0.2690789 -0.04402847 -0.26280418 -0.09103339 -0.5178261 0.17064191 -0.010861207 0.18535085 -0.2494771 0.2292516 -0.17962258 0.31446323 -0.2428322 0.19527094 -0.28639108 0.15170173 0.62076664 -0.5705889 0.32682326 0.08398446 0.0031790796 0.5076816 -0.19986139 -0.100377105 -0.14492549 0.051920198 -0.15602309 0.18184175 -0.24616314 -0.21139322 0.3048069 0.15926659 0.5433434 0.4195592 0.03797744 -0.41206607 0.4680555 0.0391589 0.033516854 0.033568136 -0.36856803 0.44535142 0.06711522 -0.7124441 -0.28666666 0.28972208 -0.2700086 -0.051043477 -0.5423362 0.1753769 0.15103072 0.17082949 -0.1443244 -0.16371065 0.08328848 -0.13591656 0.1475426 -0.05926938 0.116374716 -0.4322599 -0.023380022 -0.23005407 0.1258407 -0.091348074 0.076443665 -0.39562845 0.30816245 -0.1042598 -0.18659607 0.114624746 -0.039296083 0.08865005 0.3740764 -0.08917361 0.24771231 -0.29532865 0.1255477 0.10270419 -0.077003814 0.38579747 -0.15863612 0.17052373 -0.12441078 -0.047426865 -0.095480286 -0.18617092 0.14269668 -0.42658415 0.18690188 -0.109197535 -0.48355433 -0.45782498 -0.1553641 -0.060037542 0.03169255 -0.11788128 0.53550035 -0.00023887277 0.1494305 0.2902422 0.09508961 0.0047325687 -0.031769406 0.21213946 -0.25314957 0.1203207 0.3029664 0.26096138 0.037525434 0.34706286 -0.2763972
2852 0.01792688 0.013855217 -0.13014582 -0.23966175 0.03161796 -0.42332074 -0.22607803 0.3734919 -0.115647025 -0.0014536026 -0.31839874 0.12868454 0.2524078 0.08854881 0.33598068 0.07384739 -0.032406222 0.3502522 0.093902774 -0.34979874 0.346791 -0.3058836 0.19283284 0.0014104758 -0.3162078 0.14290908 -0.030863024 -0.09351024 0.073086485 -0.0031286906 -0.14624116 -0.10192456 -0.2618149 -0.26224622 -0.05015388 -0.076788515 0.09400451 -0.3204317 0.35417458 0.33156276 0.6571058 0.14657007 -0.028982932 -0.003276941 0.39169204 0.42421263 0.19786718 0.12825437 -0.047801908 -0.06822777 -0.31766585 0.18633063 0.28063768 -0.46446055 0.4022594 -0.47789708 -0.165348 -0.20249565 0.44611725 -0.28968745 -0.04883659 0.08771149 0.25776282 -0.011080006 0.044070926 0.21265283 -0.24225743 0.35488993 -0.23610684 -0.2755953 0.2845157 -0.48315585 0.2859848 0.29426527 -0.07230833 -0.14371172 -0.022694247 -0.25236678 0.011197133 0.22603764 -0.108171575 -0.06341312 -0.006430091 -0.0852586 -0.094831444 0.20724511 -0.541855 -0.09625361 0.2471003 0.50306326 -0.0677235 0.3785698 0.0748921 -0.414222 -0.027140584 -0.016212458 0.18453272 0.20129941 -0.039928272 -0.15485327 0.45515904 -0.60153526 -0.14783229 -0.09097984 0.24829075 0.1843358 0.46460226 -0.12142603 -0.16650672 -0.155458 -0.35299632 -0.0013726382 -0.03839261 0.52710795 0.48703 0.07222481 -0.05953761 0.39957422 -0.11444939 0.03628413 -0.51690394 -0.25287393 -0.4594419 0.09443422 0.14978217 -0.06398631 0.0042709 -0.39633423
2770 0.3327252 0.31888455 0.053623132 -0.074068785 0.2901571 -0.6495019 0.115128 0.7726814 0.16084006 0.3106525 0.027727839 0.0026880603 0.06502904 -0.006553178 -0.08259222 0.03816244 -0.025029412 0.073522925 -0.2231602 0.113006055 0.026244171 -0.04237097 -0.07548054 -0.34601438 -0.10145737 0.11496471 -0.20572959 -0.07510709 -0.018427977 -0.33348098 -0.12378461 -0.26264527 -0.60939395 -0.01924143 -0.24924189 0.76169294 0.22448924 -0.059968468 0.47664937 -0.10816643 0.16743551 -0.11751832 0.050527737 -0.17983662 0.02627677 -0.418021 0.15268101 -0.14464593 0.52344143 -0.10099722 -0.42413673 -0.055499632 -0.07857689 -0.4443104 -0.023521077 -0.22973381 0.16931233 0.11999899 0.51171935 -0.3704778 0.03121885 0.12935737 0.23600085 -0.3712484 -0.22042954 -0.083029956 0.25003064 -0.21994701 -0.063292064 -0.15782563 0.056911893 -0.28333315 -0.090453625 0.13566685 -0.18754882 0.03982291 -0.04742147 0.10146418 -0.050002404 0.33182174 0.006052583 0.050394002 -0.2277522 0.010577193 0.063430734 0.034567103 -0.46344048 -0.58348584 0.15746713 0.096287206 0.31764713 0.04948756 -0.023529822 -0.026128417 0.17037345 0.23220041 0.20733838 0.04919705 0.19893093 0.0950995 0.32373476 -0.0653291 -0.16864517 0.24079283 0.022903282 -0.020625196 -0.008581298 -0.17509927 -0.12999989 -0.106658965 -0.3397389 0.2153338 -0.2877629 0.58356714 0.2519891 0.0069661504 -0.529235 0.3652176 -0.27791104 -0.018541526 -0.23398638 -0.6313447 0.0047215377 0.39272043 0.0150741795 -0.08094914 -0.12961057 -0.064805016
2887 0.12824892 -0.061971862 0.012750566 -0.23116748 0.059517704 -0.3439784 -0.22303143 0.15249726 -0.12137169 0.097950004 -0.1650847 -0.16268143 0.28760117 0.009749564 0.25412455 -0.14565423 0.1424433 0.17781122 -0.08067851 -0.18642205 0.43767864 -0.36957788 -0.008131687 -0.2615799 -0.2944149 0.08372674 0.070596054 -0.11717835 0.15001352 0.12201475 -0.07720904 -0.3189406 -0.07384774 -0.020788468 -0.16988157 0.31149858 0.34230483 -0.22323449 0.74734163 0.11349199 -0.117012314 0.19486877 0.12546584 -0.012265889 0.03485814 -0.11008132 -0.1307777 0.20460537 0.24605401 -0.07519379 -0.2733504 0.100973904 0.029538896 -0.29705048 0.06302131 0.03008505 -0.046698477 0.1602456 -0.058853652 -0.11630147 0.015254385 -0.2495456 0.23654246 -0.15023012 -0.06854698 0.015139512 0.43727246 -0.40026322 -0.2647902 -0.18360625 -0.35454446 -0.37564182 -0.29834387 0.1609776 -0.41940588 -0.08212217 0.4112443 0.17681862 0.18107717 -0.09678798 -0.17151284 0.24378452 -0.2702208 -0.16305219 -0.30643278 0.031382762 -0.6082145 -0.34389663 0.5556852 0.19012815 0.13226625 -0.2287531 0.015841352 -0.21638809 -0.33749896 0.13830908 0.33416155 -0.09293852 0.24914512 0.34518358 0.010498276 -0.7495817 0.048964713 0.33965772 0.4482894 -0.17422462 0.49478823 -0.3564139 0.022304196 -0.28006563 -0.036718763 -0.030322582 -0.34857035 0.17612277 0.51637906 0.15605246 -0.29536033 0.20904312 -0.2642305 0.79000026 -0.16743822 -0.6628377 -0.030166326 -0.00207258 0.11459058 0.12128384 0.24261639 -0.12902549
2580 -0.305385 -0.11410272 0.31367058 -0.36520222 0.22466658 -0.05016927 0.38171798 0.36258787 0.09064804 0.41666517 -0.0582634 0.36696336 0.278226 -0.42475942 0.029463787 -0.12867738 -0.27078295 -0.12508386 0.70381373 0.2066167 -0.33916378 -0.18878837 0.2648495 -0.5945032 0.48843846 -0.04991872 0.1425998 -0.12469635 -0.15270156 0.23302744 0.3028433 0.050005466 -0.01063636 0.5793885 0.06899535 0.47863266 0.013251588 0.14213027 0.18858048 -0.1736753 0.007660746 0.018681066 0.06259733 0.08234514 0.17560826 -0.07334405 0.20932989 0.1588322 -0.17616083 -0.114056274 -0.050013646 0.65888035 -0.38500476 0.2514126 -0.19578876 -0.06661415 0.08388482 -0.28070524 0.098288886 -0.016237907 0.25831318 -0.15077314 0.25491852 -0.02224514 -0.10115053 -0.49880755 -0.04396194 -0.07089459 0.021883983 -0.1462111 -0.031844314 -0.051835492 -0.23940127 0.7115393 -0.1488876 0.22263134 0.15287916 -0.12353599 -0.13394143 -0.21765485 0.07792395 -0.17108436 -0.22679357 -0.16495337 0.15996079 0.041394535 -0.079665445 0.03596044 0.2630544 -0.074762546 -0.5482924 0.18850382 -0.30439827 -0.28860295 -0.1515644 0.34999987 -0.3920897 -0.27273092 -0.09032616 -0.016253693 0.15517288 0.07332216 0.13957381 0.27042025 0.4481587 -0.03551666 -0.30659238 -0.2923276 0.07129935 -0.22462001 -0.03445418 0.33275425 -0.13520284 0.21872862 0.045006286 0.4204194 -0.47888824 -0.0730522 0.20754033 -0.40695053 -0.13422476 -0.31178883 -0.15465991 -0.21821839 0.5371357 -0.055356737 0.066534035 -0.09919364
2492 -0.34547666 0.3212965 0.1631551 0.022207782 -0.056671545 -0.46755308 -0.041668527 0.092289805 -0.3389406 0.3539862 -0.6360914 0.60259193 -0.15650694 -0.09561318 0.69134855 -0.036349896 -0.008298576 0.11439069 -0.43558633 -0.15886089 0.18479301 -0.21125561 -0.15815783 -0.31947413 -0.36497313 -0.16663639 0.12003374 0.009999091 0.04722661 -0.32094836 -0.13624033 -0.100483954 -0.19981965 0.29801857 -0.3591338 -0.013584687 0.2999423 0.32739145 0.46033782 -0.003389044 -0.06253711 -0.025002593 0.12250916 0.10557027 0.43127307 0.20101178 -0.07452618 -0.18692274 0.29062107 0.109178826 -0.30513954 0.33390468 -0.24907342 -0.116582684 -0.46033376 0.1281042 0.43897155 -0.36658508 0.3895023 -0.11695965 -0.2729161 -0.056666493 0.36705032 -0.2553187 -0.12433696 -0.06698929 0.121226564 -0.028763825 -0.17052296 0.22596718 0.046832412 0.37698087 -0.46044278 0.5802792 -0.0648395 0.17280306 0.26171198 0.13271491 0.15211686 -0.041610137 -0.059802074 -0.1432992 -0.25488982 0.098859936 -0.028727783 0.1347926 -0.7006323 -0.54947966 0.45066467 -0.019289006 0.15385304 -0.34914327 -0.26517004 -0.23959245 0.5616569 0.20918456 0.1521929 -0.116321824 0.099717885 0.48834643 0.066435 -0.2562063 -0.28299642 0.39935043 0.31982943 0.41694206 -0.25995195 -0.4799575 -0.28790006 -0.049508434 -0.14586684 0.03854985 0.2563071 0.6971071 0.42211714 -0.08891598 -0.0128766 -0.3170667 -0.22507273 0.09041816 0.16868299 0.38707706 -0.06297553 -0.36728078 0.11981746 -0.28931755 0.27446592 -0.15216139
2490 -0.5014356 0.13722694 0.16720058 -0.4183193 -0.19425724 0.26111498 -0.058436662 -0.12228835 -0.09957929 -0.09180181 -0.12565847 -0.13015607 -0.083722435 -0.21665834 0.31318048 -0.018020669 -0.20688646 -0.5146868 0.011831736 -0.013268653 0.5638299 -0.4731573 0.28800792 -0.120105125 -0.00831831 -0.12975426 -0.18093179 0.16772303 -0.25471446 -0.11731509 0.19519171 0.096395664 0.04848782 0.22791709 -0.4953105 0.20353627 0.36226547 -0.28087398 -0.08877767 0.16624258 0.47425163 0.0790209 0.3056081 0.19501938 0.360602 0.138884 0.24332944 0.05027571 0.10698919 0.047799375 0.37114084 0.14417168 -0.29874545 0.055986106 0.10627796 0.33443302 -0.028574938 -0.11166228 0.22872917 -0.4496836 0.14225954 0.4640184 -0.026963055 0.12919997 0.36094612 0.18620515 0.24178788 -0.11525961 0.3550244 -0.5502351 0.015415524 -0.33360237 -0.2350824 -0.075963795 0.031770963 0.41455546 -0.28835696 0.35694498 -0.45331934 -0.0004431962 -0.1544144 0.0435033 -0.2778656 -0.19932891 0.049866915 -0.25489348 -0.09584469 0.17324567 -0.5528614 -0.39040145 0.76978093 -0.4644898 -0.23821343 0.28509778 -0.0694997 0.19574188 -0.27963698 0.11617935 -0.2016233 0.032474678 -0.050329205 -0.24171591 0.29780573 -0.09981549 0.8106141 -0.09543198 0.35403338 0.132454 -0.16906139 -0.6567147 0.124941915 0.088667914 0.111244895 0.35579163 0.63209164 0.094952956 -0.38753045 0.094514474 -0.4707892 -0.3475438 -0.6332036 0.2822604 0.6628448 0.503773 0.123749234 0.18901986 0.10012944 -0.1949613
2838 -0.16010745 -0.35364157 0.20698893 0.24896769 -0.03932318 -0.14530796 0.43024886 0.51909715 0.03450688 0.09709353 0.037804965 0.20192194 0.20153214 -0.26710457 0.01406354 0.0684784 -0.05011158 -0.35548407 0.40459126 0.38342187 -0.13692848 -0.46641016 0.1496413 -0.3776785 0.6367711 -0.3273494 0.3027705 -0.34653702 -0.17972952 0.16348825 0.23826383 -0.063809566 -0.1086778 0.54425055 -0.12194848 0.3563083 0.18229279 0.20234022 0.22121118 -0.25878674 0.029391346 0.029723335 -0.015291899 0.12244107 0.094328694 -0.0019898221 0.13205762 -0.041724373 -0.1096752 0.013719306 -0.033861995 0.360604 -0.39396816 -0.044198368 -0.17347014 -0.03855807 0.20321542 -0.05437475 0.11334172 0.258644 0.40606526 0.08546834 0.6453305 -0.024017178 -0.062676154 -0.19506897 -0.027626295 0.021934029 -0.15232177 -0.19844109 0.024515165 -0.08747416 0.14522111 0.7747451 -0.090936996 0.309769 -0.13570271 -0.13204066 -0.5922145 0.04608701 0.19283073 -0.04438642 -0.12684709 -0.43795544 0.018397756 -0.100588255 -0.0055745337 0.050916098 0.020836907 -0.0015842878 -0.34582743 0.22244968 -0.26656216 -0.11752174 -0.2625823 0.2140985 -0.2943109 -0.3119109 0.28022245 -0.099293165 0.13268107 -0.093536645 0.17053005 0.42572457 0.23622799 -0.13319874 -0.028093109 -0.382765 -0.017701225 -0.1498437 -0.07025599 0.26918215 0.022254312 0.40475038 0.16894974 -0.08598907 -0.17324054 0.0008813056 0.10392688 -0.043082323 -0.35717976 -0.24095987 -0.07755654 0.0100749675 0.35540214 0.018909568 0.030534405 0.2689949
2494 -0.17184153 -0.034676656 0.3253582 -0.3307577 -0.005984068 0.31016156 -0.47889182 0.2727187 0.6480857 -0.27069888 -0.003747422 -0.0979268 0.005167805 -0.1830124 -0.067123435 -0.3345854 -0.018542903 -0.20684849 0.08503161 -0.11784228 0.62703526 -0.055674966 -0.06268287 -0.3550755 0.10961183 0.028700508 -0.097684614 0.09627077 0.21841276 0.106357045 -0.16657592 -0.28347063 -0.25053346 0.03797953 0.34911162 0.34051228 0.26457036 0.29333088 -0.22903347 -0.27830002 -0.03478622 0.0437116 -0.3497071 0.073297225 0.24113393 0.26415578 0.18710096 0.2417949 0.238602 0.4968315 0.16422085 0.2575468 -0.066960454 0.019984793 -0.122713946 0.12624507 0.25808176 -0.11962411 0.19995436 -0.6943942 0.059360877 -0.41504493 0.34934473 0.12344452 0.087714136 -0.19578195 0.15233785 0.44706288 0.07855364 0.64210814 -0.23859039 -0.2111217 0.16996062 0.058275085 -0.30830106 0.5552435 0.120666675 -0.15348274 0.05843574 -0.18678664 0.04620317 -0.15574512 -0.16354853 -0.24621856 -0.0798623 -0.37333405 -0.1258551 -0.46410182 0.04079523 0.17948462 0.13020273 -0.014089014 -0.028705183 -0.15340464 0.23889157 -0.09276377 -0.22114716 -0.23797543 -0.082325555 -0.364392 -0.13327271 -0.19073975 0.033238858 0.32338366 0.66365695 0.12696826 0.32987455 -0.24957453 -0.09653608 -0.32191068 -0.19878273 0.43455097 0.096521236 0.3970921 -0.17347002 0.10454513 0.06322146 -0.028942037 0.016470753 -0.16028649 -0.0026413086 -0.23536147 0.11277697 0.25434056 0.6345896 -0.2971308 0.668744 -0.036124166
3013 -0.49897304 -0.11048577 0.57395846 -0.18205877 0.025857229 -0.4916175 0.18914807 0.5078088 -0.10405058 -0.2618611 -0.2817027 0.26167062 -0.059585877 -0.1953182 0.09477362 0.41427708 -0.3782393 -0.3060861 0.5823628 -0.25283462 -0.11500107 -0.5375499 0.0919142 -0.21680525 0.031565074 -0.039144866 0.4212732 0.2752972 0.21614549 0.50815403 0.1474728 -0.17461732 0.018227926 -0.023635745 0.051619075 0.53878504 -0.16273661 -0.085668355 0.15618487 0.074840456 0.18290779 -0.19770995 0.066772506 -0.39922386 0.3879693 0.21569344 0.7305449 -0.059698667 0.2770002 0.32176402 -0.45444995 -0.16304721 -0.3862508 -0.009104933 -0.5824516 -0.017641239 -0.0540661 -0.39228347 0.36049476 -0.32722744 0.28518254 -0.27264714 0.50658774 0.15495642 -0.26456684 0.23552182 0.31677496 0.8430125 0.14727512 -0.10223281 -0.22441554 0.15136266 -0.1443995 -0.07019346 -0.7450098 -0.29114112 -0.58342385 0.20087305 -0.45081726 -0.09933502 -0.25049385 0.0831957 0.13365583 0.01618989 -0.2455706 -0.12809493 0.071813025 0.043580767 0.04132629 0.2840248 0.27727547 -0.123856306 0.018946052 -0.2120216 -0.35791865 -0.32768157 0.40048707 -0.025719902 -0.38499698 0.122186616 -0.016055774 -0.14344725 0.1351989 -0.20168129 0.30653474 0.4276266 0.17190117 -0.007150655 0.04293685 0.45113313 -0.089865185 0.04689458 0.26320288 0.3167717 0.1118833 0.03496626 -0.040847484 0.38687205 0.054782808 0.21454954 -0.2914304 0.14420965 -0.020311885 -0.057444695 0.012122572 -0.14478488 0.17879197 0.26978981
2815 -0.47415927 -0.29008323 0.18492857 -0.37013853 0.14776395 -0.058271933 0.03022487 0.2235593 -0.13359612 0.02917895 -0.019981362 0.19755757 -0.40926185 -0.22211836 -0.21671362 0.052920543 -0.029154763 -0.25291786 0.100412786 -0.06415425 0.4988423 -0.107969634 0.29095688 -0.54554486 0.1941494 -0.20213015 0.038388122 -0.09796629 0.44035864 0.39140013 0.094438955 0.08964512 -0.62881947 -0.09868758 0.1566733 0.43697765 0.48272127 0.33539304 -0.08319528 -0.365671 0.30386913 0.24848792 0.3246582 0.21768178 -0.3251872 0.123557694 0.014657392 0.07390579 0.16852012 -0.20028059 0.05113756 0.0951712 0.47985595 0.048987534 0.38858968 0.18125896 0.20035942 0.5580679 0.423824 -0.099645205 0.16941157 -0.22382677 -0.06212734 -0.033819415 0.05847411 -0.13282467 0.13123983 -0.117672876 -0.29844537 -0.4607828 -0.28499988 -0.086109914 0.10294784 0.06580968 -0.45729026 -0.08979251 0.19973248 -0.20138548 0.16031843 0.19485785 0.44772843 0.18454188 -0.03393357 -0.21094388 0.070781834 -0.28753263 -0.43526593 -0.09898302 -0.12994662 0.04263049 0.00532462 -0.09853172 0.18830505 -0.1545772 0.09005571 0.47803783 0.12516734 -0.08090694 -0.056057435 0.3213265 0.14938521 -0.647336 0.09289698 0.39837933 0.24632266 0.23402041 0.035123285 -0.48580658 -0.14363316 -0.4004465 -0.39961812 0.16509825 0.27013347 0.23753938 0.079921626 0.014248871 -0.35584903 0.24702072 0.350872 -0.0824978 -0.1689522 -0.34682766 0.20065682 0.31391647 0.44296235 -0.040673498 0.36861014 0.33391994
3049 -0.6848195 -0.09793533 -0.10436869 -0.22260906 0.17289717 -0.029755611 -0.23390305 0.14846793 0.20762898 0.13057439 -0.20116971 -0.14426778 0.32393354 -0.1730196 0.6336968 0.03518188 -0.29763377 -0.04040674 0.36566508 -0.17610992 0.36893693 -0.12517774 -0.1598433 -0.25481036 0.1827085 0.2364023 -0.5172529 -0.3044488 -0.21600965 0.44044578 -0.17695604 0.19175826 -0.079172105 -0.4457133 0.21540232 0.0017257305 0.2875521 0.18416648 0.22662975 -0.41093367 0.24602407 0.2889913 0.01517183 -0.34814584 0.11358399 -0.25672808 0.10377735 0.009532865 -0.19455683 -0.22697333 -0.23243573 -0.081419535 -0.2175881 -0.48291928 0.45250675 -0.67266047 -0.44162852 -0.10174661 0.63104767 -0.21738486 -0.07739816 -0.3347189 0.37540677 -0.018492758 0.09110055 0.063764036 -0.2013089 0.09356004 0.047917567 -0.3819912 0.12939933 -0.19790024 0.20091537 0.024892021 -0.11615915 0.019950824 0.102485195 -0.36729535 0.31551397 0.20997997 0.34249857 0.0008376224 -0.010230419 -0.33953223 -0.08214951 -0.18180451 -0.39862996 -0.51915354 -0.14354149 0.29479626 0.1305498 -0.63357466 0.023217997 -0.4222951 -0.4240112 -0.035712652 0.07222264 0.030873155 0.5408138 0.056315783 0.47572452 -0.46688265 -0.25389335 0.021395791 -0.17569438 -0.24112557 0.08862134 -0.15199962 0.12468903 -0.27445915 -0.03908651 -0.31542078 -0.22002913 0.44349197 0.16627377 0.36298567 -0.2794303 -0.1319691 -0.46938255 -0.0023406525 -0.23369986 -0.49981713 0.10956341 0.36378452 -0.024419997 0.0040386496 0.05972293 -0.5405335
2536 -0.028010676 0.58647436 -0.008410486 -0.13621435 -0.41870126 -0.06384408 0.2197503 0.065721825 0.20375647 0.29079494 -0.065428816 0.64190066 0.25886002 -0.2558136 0.6039992 0.27530563 0.062270474 -0.25085863 -0.06703025 -0.18254492 -0.3173929 -0.5775642 0.17211495 -0.17593047 0.29301867 0.076804616 -0.15872271 -0.38935986 -0.26802984 0.059194036 0.5060348 0.049592957 -0.30437547 0.028218526 -0.1961687 0.20597161 -0.22116366 -0.21551414 0.11359691 0.090239964 -0.35771728 0.02035561 -0.022332352 0.0833826 0.592816 0.022709431 -0.09699283 -0.10865476 0.078272164 0.10843422 -0.03113798 0.36207122 -0.46180564 -0.46932572 -0.09012833 0.52017474 0.33686593 0.15115142 0.6933157 -0.039278917 -0.15087666 0.26467067 0.18064758 -0.5187718 0.2992705 -0.010178569 0.22189379 0.038219884 0.25473517 0.21924855 -0.6495765 -0.020816604 0.17690958 0.20549436 0.20329383 0.18134731 -0.15849666 0.28687564 -0.54223245 0.065315165 0.21621835 -0.0023694895 -0.06613701 -0.10363001 -0.59564394 -0.08525493 0.01818384 -0.4775252 -0.32079995 0.2039896 -0.11596777 -0.27739963 -0.42809972 0.061518814 0.07830575 0.12686156 0.12952946 -0.19446856 0.3575716 0.2768235 0.50619316 -0.07260131 -0.00075840746 0.05947381 -0.30624273 0.10352816 0.22862303 -0.261214 -0.15313806 -0.11923141 -0.14798482 0.23694322 -0.01980227 0.10028134 0.35240895 -0.08912891 -1.9072904e-05 0.23667343 0.06440754 -0.11653307 -0.07230314 -0.018455045 0.005171154 0.29212135 0.35432267 0.08616179 0.32843748 0.18032748
2572 0.23202415 -0.26913536 -0.20270342 -0.04196379 0.506508 0.067863934 0.2194311 0.22901931 0.034657903 -0.13656563 -0.15024291 0.09177555 0.34071925 -0.33971885 0.28721657 0.0400217 -0.15398917 -0.25984734 0.15018432 0.33448914 -0.10042464 -0.31582108 0.37473598 -0.4709147 0.6207844 -0.30429494 0.47557727 -0.20197351 -0.014189217 0.21540348 0.38404682 0.06916677 0.10225453 0.20806545 0.057950236 0.23582903 0.23082869 -0.0040964577 -0.09167017 -0.3625317 -0.02347216 0.449726 -0.29738486 0.31902996 0.17827344 0.03193892 0.3413708 0.05308397 0.101239495 0.013909707 -0.010995498 0.39585653 -0.44088295 -0.1600059 -0.24820368 -0.14999549 0.2708828 0.07452688 0.33851394 -0.18612313 0.031380765 0.42423442 0.5306718 0.18574394 -0.3742499 -0.25462696 0.14587736 -0.34772557 -0.24270238 -0.47060895 -0.21695706 0.09708212 0.17503135 0.15621847 -0.09229437 0.5868805 -0.124533676 -0.36151847 -0.14157583 -0.15868269 0.17389983 0.23010352 -0.2605752 -0.59301335 -0.2632257 0.12064448 0.11270593 -0.078829035 0.07065811 -0.07306213 -0.38796544 0.22427358 -0.069306545 -0.2689118 -0.093173616 0.5041304 -0.34151286 -0.4053984 0.15311392 0.35858345 0.29307064 -0.073197335 0.32279798 0.62596023 0.12560426 -0.011677328 0.11307724 -0.13801824 0.24328248 -0.18731059 -0.45325863 0.1348224 0.06929033 0.62833256 0.3000389 -0.087455526 -0.2267957 0.09781976 0.2864275 0.123911925 -0.38193908 -0.056483865 -0.03488228 0.055834237 0.3865824 -0.19156773 0.3553788 0.28257012
2672 -0.15918845 0.2174634 -0.19609018 -0.35362157 -0.08007476 0.0028279377 -0.27403185 0.58387154 -0.09388398 -0.022793097 0.15921144 0.30028033 0.01873876 -0.06642121 -0.31799367 -0.078390464 -0.24912207 -0.05725821 -0.03304702 0.009976988 0.32823414 -0.23885328 -0.03145203 -0.51948005 0.10173066 0.11911509 0.17397264 -0.19558975 0.22810961 0.43231726 0.17558926 0.008847408 0.17599893 0.37690145 0.036370195 0.6775286 0.2858187 0.18915686 -0.43821263 -0.8531944 -0.19687653 0.20674129 -0.22597978 0.10850949 -0.14098951 0.20372047 -0.07619737 0.38754663 0.08897977 -0.05377579 -0.43932372 0.54896784 -0.17336453 -0.28236926 0.30231836 0.28784606 0.058965318 -0.057102792 0.30246517 -0.2951771 0.10534663 -0.5035211 0.23134333 0.071500264 0.12538704 0.026218614 -0.35914093 0.6561099 0.2987966 0.12535276 0.23172696 -0.19497053 0.19562493 -0.18566646 -0.20198806 0.370895 0.12783648 -0.03632255 -0.22813503 0.1693485 0.32429844 0.33527443 -0.1342637 -0.37974852 -0.15413079 -0.3815553 0.0533378 -0.06822441 0.09765319 -0.2782127 -0.23937193 0.14052776 -0.054874398 0.06939376 0.22722426 0.028911706 -0.319656 -0.3684012 -0.14494602 0.047906823 0.35488316 -0.050628774 0.06942302 0.22369893 0.33480418 0.2566532 0.20599663 -0.32096422 0.12168876 -0.2436688 -0.5114306 0.12713684 -0.27012104 0.20943029 0.20065959 -0.25096637 0.07555786 0.058802027 -0.047705576 -0.72449833 -0.3788105 -0.18801835 0.4524289 0.22552368 0.49427488 -0.0628572 0.23367295 0.03256264
2837 -0.23340477 -0.32075483 0.24678892 -0.16956566 0.14262466 -0.015634201 0.2676322 0.659883 0.20739707 0.28583494 -0.11607557 0.07999946 0.033264168 -0.3481544 -0.09238727 -0.010667952 -0.40464067 -0.23293877 0.47982952 0.16767524 -0.37422964 -0.13058199 0.2560865 -0.37360856 0.63334084 -0.2313667 0.29354057 0.01593227 0.010718365 0.27565572 0.37812653 0.0434094 -0.0061845775 0.45003232 -0.15136544 0.25121465 0.25069144 0.21121784 0.343942 -0.20820452 0.15861581 0.035081565 0.09829683 0.20129108 0.18359551 -0.02713315 0.108209305 0.07911146 -0.058936212 0.08898597 -0.107003845 0.5829037 -0.2837919 -0.022770382 -0.15921646 0.10471951 -0.115340985 -0.36701435 0.083791435 0.06232252 0.103564374 0.03855094 0.3145421 -0.22166242 -0.033185277 -0.3652745 -0.036050986 -0.0022496078 0.2034853 -0.25357568 0.07517433 -0.28641093 -0.08786253 0.87283707 -0.1594345 0.18792671 0.011125431 0.123573065 -0.090102956 -0.34892085 0.2363469 -0.19331491 -0.25701398 -0.2392184 -0.30096498 -0.17974903 -0.069182806 -0.055036373 -0.07048498 -0.08048621 -0.6749805 0.23931997 -0.14811124 -0.10393539 -0.2510443 0.17107365 -0.5134928 -0.21378106 0.16796014 -0.075840116 0.07823589 -0.41053578 -0.014229493 0.0010313751 0.27212045 0.16606995 -0.16873534 -0.55449796 -0.23354274 -0.22741558 -0.17057528 0.33228672 0.10834298 0.2746715 0.35100403 -0.09837747 -0.26498118 -0.25200513 0.27176678 0.012878983 -0.23912978 -0.1540115 -0.10378435 -0.16581379 0.32564247 0.014035083 0.13363744 0.27363807
2809 -0.17858282 -0.15693401 0.24789833 -0.21566312 0.052690655 -0.1384451 0.30452988 0.5949415 0.083819106 -0.23545952 0.0377078 0.040470064 -0.015630294 -0.26613167 0.054720413 -0.16316032 0.1708922 0.0138992835 -0.015755286 -0.07850078 0.37079188 -0.27823684 -0.14154185 -0.49277902 0.30441728 0.04299353 0.5425594 0.36712885 0.15564662 0.37031507 0.45823622 -0.21792127 -0.098708324 -0.3353299 -0.06550327 0.6079838 -0.51788974 -0.08651703 0.63696486 -0.2990508 0.4182418 -0.17731456 -0.3237456 0.113360554 -0.49867466 -0.20681767 0.023921061 0.03724852 0.02379007 -0.07151857 -0.14108744 0.379913 0.089808464 0.122267716 0.17662811 -0.13453302 -0.008851738 0.21868889 0.029351426 -0.28561264 0.54594624 -0.38508043 0.66283053 0.12273199 0.2875732 -0.20035806 0.48952982 -0.06698085 0.22775035 -0.07045252 0.2212946 0.22568546 0.17145516 0.49609473 -0.52981865 0.3070455 0.2912486 0.2513679 -0.3318277 0.101380326 0.08367492 0.13569517 0.12615293 -0.23810953 -0.21235296 -0.11604445 0.020250294 0.10869901 -0.122689664 -0.023199659 -0.047961697 -0.1241786 -0.0011320797 -0.37654826 0.18416406 -0.10077976 -0.48851767 -0.103097335 -0.12775189 0.10714309 0.0050085075 -0.20476635 -0.3110209 0.3632018 -0.057033323 0.4093965 0.10480074 -0.22992535 0.17168757 0.08597382 -0.4569533 -0.07921068 0.0872318 0.3214049 -0.07329963 -0.0015153757 -0.098464176 -0.12133454 -0.34226096 -0.12067337 -0.17778343 0.1433048 0.087666765 0.2531449 0.6423387 -0.3901784 0.33259615 -0.1643156
2448 -0.6005284 -0.5230512 0.22761597 -0.10815062 -0.1848752 -0.6162484 0.121033266 -0.16581646 -0.12876177 -0.2603065 -0.297471 -0.1167717 0.04111755 -0.38329262 0.073780745 -0.18577334 0.06854112 0.14392236 -0.36775622 -0.61179584 0.35426354 0.2177001 0.18430011 -0.3272191 0.124004535 -0.03084321 0.012733396 0.16166247 0.33390927 0.466173 0.020496123 -0.13346541 0.36891794 -0.050159894 -0.5816487 0.13827616 0.29167017 -0.11488314 0.7043783 -0.0062284335 0.4037731 0.17083485 -0.34427553 0.17728075 -0.015114553 0.4667539 0.25768027 -0.25548145 0.1697606 0.48254025 -0.017041191 -0.07182632 0.74280846 0.04827978 -0.35993555 0.10199053 -0.07547282 -0.25878498 0.42803565 -0.12146015 0.009658829 -0.3226799 0.16890644 0.16626288 -0.22067165 0.059105344 0.018787447 0.32008412 0.05353352 0.18719843 0.4085895 -0.6390205 0.15049948 0.026170205 -0.73861164 0.13285254 -0.19419177 -0.4407955 -0.23214613 0.038473252 0.48079136 0.113633074 -0.46180752 -0.4700921 -0.8069171 -0.34459776 -0.09998571 0.23213488 -0.04632418 0.06824262 0.07682704 -0.031145195 -0.21717535 -0.032742716 -0.01943369 0.20566078 0.22875108 -0.20529822 0.09029331 -0.3311192 -0.38208055 -0.0035407848 0.19184932 0.22686577 0.6501088 0.13957278 0.46428666 -0.12138821 0.050981287 -0.47504514 0.24081525 0.12561516 -0.10756453 0.00816864 0.61638343 0.37817687 -0.293186 0.28469437 -0.3704032 0.034622964 -0.18135442 -0.20136307 0.15520546 0.31451988 0.27152723 -0.065743 0.09091833 0.19703089
2781 0.17534758 0.15848123 0.22793517 0.021419356 0.137362 -0.018150799 0.0938326 -0.029487938 0.024821218 0.44111747 0.06520313 0.27086508 -0.15791595 -0.03558482 -0.11289103 -0.32106468 -0.06555178 -0.33219507 -0.08740401 0.39279294 -0.24021547 -0.5181274 0.31066367 -0.1761373 0.3970435 -0.42421287 0.35667473 -0.05362321 0.2579054 0.012486522 0.14608222 0.102785766 -0.29803413 -0.109535776 -0.51297927 0.67351115 0.10575181 -0.3238147 0.060054086 -0.6687204 0.001968677 -0.42850685 -0.41828778 0.2514017 0.03602017 -0.13177228 0.21688367 0.5242176 0.19140269 -0.10958325 -0.06744516 0.16116929 -0.49399653 0.13166548 -0.1688358 -0.066839 0.03660763 -0.14990598 0.3452675 -0.2700677 -0.21493195 -0.10812975 0.20960544 -0.17322962 0.08685881 -0.47814828 -0.08854236 -0.028638834 -0.061592758 -0.15306884 0.07154813 -0.08196509 -0.45947456 0.7746117 -0.14972521 0.12983017 -0.04048981 0.092550606 -0.08089495 -0.20554654 0.038418934 0.050997104 -0.15890776 -0.39862606 -0.3070514 -0.0708036 -0.5743313 -0.010970438 0.010708401 -0.18254228 -0.42640015 0.0019362613 -0.05575551 -0.31371164 0.107721426 -0.2032131 -0.12431645 -0.37283587 0.4140311 0.024473593 0.3439508 -0.120830916 0.29124388 0.27706346 0.35190228 0.02051753 0.06711102 0.16951345 -0.14596725 -0.12604626 -0.059722207 -0.01528453 -0.2158128 0.55854917 0.60081446 -0.24248354 -0.2930517 0.1694793 0.43190375 -0.13288964 -0.045549843 -0.22546259 0.281189 0.03570891 0.57506764 -0.19450021 -0.08665533 0.049006872
2579 -0.5095484 -0.06918968 0.25639832 -0.14624014 0.19241127 0.1512237 0.42033315 0.43551606 -0.2916542 0.09256442 -0.086361766 0.047321033 0.0027571646 -0.26206842 -0.39527744 0.16556412 -0.2688512 -0.39283314 0.71098506 -0.29359984 -0.12664944 -0.35081586 0.5479396 -0.14321762 0.45607948 -0.06549832 0.32117206 -0.16272222 0.013253384 0.22338668 0.2678255 -0.10206296 0.024536874 0.19556992 0.2957349 0.41803217 0.22881383 0.05666177 0.016066642 -0.66471857 -0.035531294 -0.031856567 -0.023452772 -0.16750011 0.114472575 -0.0653746 0.038387652 0.11036849 -0.083486855 0.05247832 -0.23778549 0.3563444 -0.2530274 -0.34041396 0.04063339 -0.3535834 0.07811879 0.019432988 0.3690142 0.29532993 0.19791229 0.20651138 0.73345816 0.34544745 -0.51410633 -0.41653618 0.07432939 -0.0581937 0.04819375 -0.16777907 0.18780588 -0.35897774 -0.07514436 0.5467033 0.08317041 0.47624388 0.319612 -0.36136115 -0.21898226 -0.4488089 0.15149507 -0.0789869 -0.12032686 -0.1998603 0.06478772 -0.22638611 -0.19545048 0.0300255 0.27135292 0.049639538 -0.47653782 -0.08894868 -0.36570716 -0.48041657 -0.024082057 0.42940968 -0.21928188 -0.16536032 0.07561017 -0.16120945 0.3537997 -0.05752157 0.20715313 -0.02413313 0.735991 0.22202718 -0.21480274 0.09917574 0.21628754 -0.24283482 -0.2693026 0.04215228 0.14237979 0.27236947 -0.089940794 0.05187997 -0.15838347 -0.25430197 0.315491 -0.002117082 -0.10271045 0.08500624 0.1645242 -0.044269286 0.5935593 0.10533994 0.34721467 0.015331046
3127 -0.3920842 -0.06606764 -0.15134668 -0.24774301 0.33761778 -0.031629317 -0.101783246 0.05122468 -0.024066573 0.023845587 0.21394174 -0.36547297 -0.16552055 -0.2780048 0.3104794 -0.2408161 0.4251392 -0.328041 0.18527007 -0.16185877 -0.27732763 -0.8746069 -0.3028922 -0.08702454 0.6585393 0.08948034 0.29132584 -0.17438783 -0.19623786 0.5025369 0.41682038 -0.5539193 0.54508483 -0.15471709 -0.06717531 0.31083924 0.01395212 0.0018534095 -0.09917506 -0.42176473 0.67882985 -0.003960548 -0.03694694 0.20823915 0.013118001 -0.035541125 0.05873887 -0.008745991 0.22747214 0.38862917 -0.10848378 0.3729042 -0.10459432 -0.13219155 -0.2699258 0.3711268 0.17561725 0.5470901 0.29148436 -0.30860335 0.42014167 0.0042785625 0.50445443 -0.10870762 -0.046861168 0.10565252 0.4359194 -0.0030822372 0.121585004 -0.021337505 0.117996395 -0.14548127 -0.08518058 -0.122873224 0.013491225 0.54080886 -0.1012839 -0.15550774 -0.23794156 -0.22902323 0.12264689 0.019807853 -0.27232298 -0.023145592 -0.20726287 0.029599307 -0.048800863 0.026253613 -0.04140365 -0.25102806 -0.04619521 0.015880255 0.21053554 -0.43232244 -0.03634997 0.069491886 -0.3134861 0.0783248 -0.105588414 0.19007348 0.2791974 0.18958013 -0.10968809 0.39796653 -0.0049360814 -0.018507548 0.07704629 0.12275293 -0.3242245 0.0556098 -0.22140707 0.30682352 0.1365535 0.47929662 0.106969655 -0.41544405 -0.15666439 0.061423503 -0.010239743 -0.053561855 -0.60429305 -0.094015785 0.47743487 0.054984737 -0.050437156 -0.62650007 0.5788229 0.1079872
2657 -0.57883155 -0.25933853 0.21499571 -0.009702071 -0.11590447 -0.109314844 -0.14513668 0.29399002 -0.17783803 -0.3521663 0.3179545 0.07410397 -0.10971671 -0.29084912 0.14327131 -0.14398004 0.03921216 -0.036870554 0.39701802 -0.060412504 0.44307783 -0.45512068 0.069808535 -0.44163063 0.4310572 0.40998864 0.25957248 0.20776984 0.3374703 0.26530108 0.0962099 -0.28274563 -0.18145877 -0.083061375 0.20749426 0.17610706 -0.21227582 0.004635284 0.33870527 -0.45627025 -0.10447265 -0.09516983 0.0030848556 0.24035683 -0.47960404 -0.3203387 0.34044868 -0.007109166 0.1640227 0.13658638 0.03556351 0.31771883 -0.06999581 0.16414317 0.3134493 -0.095259205 0.3529473 0.11786811 0.12451101 -0.1117853 0.32230195 -0.118380114 0.50643015 0.1464959 0.22525606 -0.19547868 0.24225797 0.06171858 -0.050516013 0.033922236 -0.017980764 -0.05187488 0.14706317 0.53600854 -0.39032668 0.196745 0.14383899 0.09869167 -0.30831176 -0.1093043 0.48265308 0.24665 0.0684404 -0.15606156 -0.38365725 -0.435129 -0.3249437 0.011405088 -0.047169227 -0.1048625 0.058804475 0.076788865 -0.081563756 -0.13389938 -0.032787483 -0.14285216 -0.4041079 -0.3020264 -0.2095081 -0.053984363 0.2983753 -0.29323825 -0.1475457 0.4383794 -0.038772065 0.58061117 0.014376605 0.074892975 -0.14881212 0.05285951 -0.25403148 -0.026315331 0.02243549 0.30963454 -0.067485824 0.2929216 -0.34457535 -0.018975576 -0.5555904 -0.038285725 -0.24037337 -0.2589742 -0.14017116 0.023830293 0.45454428 -0.34885657 0.4034626 0.019132266
2671 0.32218507 0.100971155 0.0023393033 -0.30111957 -0.13571516 -0.22686419 0.18652606 0.7228339 0.0061434354 0.47977695 -0.081868626 0.1431335 -0.400755 -0.19926226 0.29449877 -0.43040723 0.008764449 -0.116940506 0.1291239 -0.093770035 0.3287745 -0.19237776 -0.18382823 -0.38272637 0.53816 0.16844659 0.18555243 0.36886054 0.60679024 0.2616138 0.24734318 -0.3431838 0.013990428 0.058075458 0.47008294 0.29247773 0.7374689 -0.2051609 0.1225612 -0.6904085 -0.468392 0.13628668 -0.257489 0.10112047 0.31057596 0.33596084 0.20889722 0.26376316 0.2398512 0.18201528 0.07256892 0.001582533 -0.44471735 -0.30555776 0.004106151 0.2789866 -0.32443127 -0.25022584 0.26435554 -0.1727544 -0.008364617 0.03039927 -0.043111723 0.18412408 -0.07992522 -0.0880146 -0.2880828 0.6439903 -0.13723163 0.47907585 0.028657123 -0.19117871 0.044373177 -0.30229506 -0.8362958 0.5643313 -0.005517286 -0.290673 0.05430279 -0.1968111 -0.35336965 0.213727 0.08043951 0.07609311 -0.19582404 0.05509281 -0.12035541 -0.1339044 0.08882156 -0.1310839 -0.007468133 0.20253007 -0.10225846 -0.09036052 0.26786295 -0.20357731 -0.09594185 -0.28434375 -0.026814187 -0.07757272 0.33162236 -0.14044678 0.07890171 -0.22605969 0.20617256 0.2360854 0.26670825 -0.048179474 0.33411226 -0.57634395 -0.5667324 -0.089022584 -0.21942207 0.12985188 -0.19476476 0.041782707 -0.0653333 -0.13351373 -0.68806475 -0.4782982 -0.1387033 -0.45112345 0.18128665 0.5943767 0.41356707 0.11273718 -0.16228457 0.010743055
2678 -0.4625666 0.3991217 -0.5744754 0.18358591 -0.16379717 -0.18666941 0.1288853 0.08788779 0.02989642 -0.011990444 0.2198261 0.2306296 0.2721263 -0.46945563 0.021807747 -0.007560091 0.14421813 -0.5510649 0.13284707 -0.10747626 0.073702134 -0.40696168 -0.06967452 -0.41711372 0.24364847 0.20040633 0.25428116 -0.15189473 0.24674506 0.05905058 0.36679995 -0.2763392 -0.6928191 -0.30510107 0.113829695 0.3381123 0.22544861 -0.23383984 0.2544103 -0.08476679 0.24247703 0.32426345 0.09944597 0.02813636 0.4749969 0.51087373 0.047003612 -0.13543853 -0.18710606 0.35919017 -0.26048827 0.027815968 -0.45877442 0.032045092 -0.28327957 0.07627875 -0.17692405 0.26693317 0.052355617 -0.024146525 0.23903503 0.38072276 0.3485667 -0.2358405 -0.18265828 0.09940376 0.5274291 0.4098389 0.32841527 -0.10224451 0.27932596 0.18505956 0.09344786 -0.1524622 0.0033412317 0.53289294 -0.2244387 0.014122582 -0.75659335 -0.3645919 0.06556704 0.020953532 -0.14704174 -0.44268706 0.08160353 0.08867217 -0.11575423 0.14741829 -0.17260116 0.34836882 0.33809572 -0.24827294 0.079372264 -0.27070498 0.25043902 0.119436234 -0.103208676 -0.08111886 -0.3659239 -0.26016012 0.119355634 -0.13674839 0.12931913 0.37865862 -0.07711049 -0.26896432 0.5323036 -0.6717061 -0.019178221 0.13699417 -0.11497675 -0.34722644 0.10094001 0.33961916 0.35855883 0.2207345 -0.28937137 -0.16096403 0.13731371 0.32997316 0.094829656 -0.3530106 -0.2412074 0.20217852 0.3368754 -0.28907654 -0.15553343 -0.58994734
2506 -0.3342796 -0.101930425 -0.024421891 -0.12789884 0.07598022 -0.12929757 0.07892005 0.14439493 -0.10394744 -0.07041805 -0.40863982 0.19564499 0.39080393 -0.18111971 0.08336285 -0.056734506 -0.30574536 -0.19279051 0.3451386 -0.17353228 0.06543179 0.1768277 0.37021276 0.24163626 0.0063923215 0.028710429 -0.11304236 0.24132125 0.26845047 -0.27358747 0.10895361 -0.47731665 -0.28233102 0.02592255 0.031084847 0.2799218 0.833984 -0.32575744 -0.09814657 -0.2632073 0.17093664 -0.517893 0.13373283 -0.085295886 0.32967755 0.6212353 0.44401875 0.06910674 0.2426584 -0.23393801 0.07977872 0.40536883 -0.43766114 0.020241316 0.22344567 -0.2928575 0.19674724 -0.4554171 0.43259534 -0.14986481 0.039793383 -0.19928779 0.35910472 0.01454864 0.0935295 0.443679 -0.2902737 0.19824369 0.9279418 -0.040654626 -0.07592347 0.52218705 0.48487753 0.12044581 0.18110861 0.47471645 0.15344077 -0.12894382 -0.2896083 -0.047897227 -0.32538798 0.28931573 0.091628775 -0.1488217 -0.16136555 -0.490136 0.1314787 0.33176017 0.040180057 0.24049875 0.08398612 -0.11618709 -0.3445416 -0.35164568 0.14888784 -0.33203492 0.18368658 -0.31626835 -0.059460152 -0.120883085 0.12763204 -0.6677376 -0.41016778 -0.24813867 0.24889745 -0.022951504 -0.28658685 0.15342684 -0.19097847 -0.008817246 -0.22281635 0.16538891 -0.41591567 0.6466529 0.18376254 -0.14158456 -0.08838984 0.24065608 -0.3440989 -0.15652552 -0.35040155 -0.39959234 0.26069084 0.3564324 -0.0999205 -0.019305978 0.16067451 0.24046953
3633 -0.36514425 -0.13439135 -0.11450709 -0.26812884 0.053748008 -0.7627587 0.09744303 0.19432734 0.27090582 0.016299266 0.047875326 0.0542111 0.008727942 -0.46319878 0.31214723 0.06284342 -0.086471975 0.19875167 -0.117616154 -0.051101957 0.10360481 -0.8352429 -0.23497282 -0.17239313 -0.32658595 0.36485246 -0.06996826 -0.19360721 0.2581491 0.20879635 0.121073544 -0.18431267 -0.43198872 0.33418316 -0.14793827 -0.1675006 -0.13264415 -0.45866328 0.2018193 -0.19206885 -0.33515906 -0.18497443 -0.13162881 0.30999184 0.31168756 -0.17619511 0.23792835 0.04429607 0.26354992 -0.10635498 0.26084167 0.26888558 -0.3534882 0.055177163 -0.15566748 0.058165528 -0.014905725 0.15748516 0.4558262 -0.28661737 0.24244547 -0.02376573 0.43164074 0.22115602 -0.024153374 -0.11952685 0.109938875 0.23938219 0.17437069 0.07797598 -0.037948392 0.052094493 -0.040679738 0.6855631 -0.026195502 0.039509524 0.13755177 0.42456427 -0.44042766 -0.008981526 0.062266484 0.12160355 -0.08644041 0.124342225 -0.117362805 0.1978709 -0.38987297 0.15309758 0.22312747 -0.22740921 -0.054975744 -0.22789074 -0.21143979 0.12795657 0.4006964 -0.52497435 0.21116184 0.07716892 0.22644934 0.2714269 0.117016226 -0.18913652 -0.3887742 -0.1258339 0.09633378 0.13289845 -0.25870955 -0.15149674 0.2794474 0.19364922 -0.3262722 0.14237402 -0.3164171 0.74690545 0.1326023 0.018469863 -0.5140578 -0.43015966 -0.3648662 0.10724113 0.19489796 -0.18324496 0.068455935 0.5207577 0.05916917 -0.06108827 0.3063763 0.12665115
3300 -0.4580996 -0.22882016 -0.20856291 0.09616617 -0.19364916 -0.36499554 -0.01697898 0.32631007 0.07789665 0.2806151 0.05561686 0.40060034 0.3315 -0.4270222 0.46446994 -0.14300245 -0.21178591 -0.079622865 -0.058615148 0.12855966 -0.012023195 0.0058322116 0.07082507 -0.19969392 0.07370431 -0.022162624 -0.23719493 0.09155883 0.08069302 0.39337894 0.39788112 -0.42090097 -0.48061147 0.27621832 0.19565766 -0.025569009 -0.086880885 -0.10753043 0.21602908 -0.12997647 0.58968735 0.1310858 0.35449558 -0.17919764 0.15213244 -0.05412731 0.7130171 0.14445834 0.038401645 -0.16980703 -0.32567427 0.07450036 -0.080500536 -0.057034735 0.07523029 -0.25966555 0.049884804 -0.3310072 0.71912587 -0.11406125 0.031303044 0.23421313 0.40187678 -0.108854555 0.37439445 0.21052708 -0.34153903 0.098813735 -0.19588444 0.25993183 -0.41455442 0.15496628 -0.064420156 0.33071086 -0.40158874 0.28484228 0.040451776 -0.15284197 0.08241113 0.022419326 0.076986946 -0.36262262 -0.20786706 0.06042253 -0.017532691 0.18699409 -0.8682931 -0.301819 -0.040480666 0.22532319 -0.26151875 -0.16228679 -0.6609913 0.15814029 0.13970412 0.5059566 0.24327481 0.066253066 -0.4074544 -0.2849599 0.047294863 -0.066483736 -0.24904604 -0.18503894 -0.029231636 -0.40386367 -0.25810152 0.28299144 0.19780879 -0.14972216 -0.15722556 -0.21921654 -0.38689172 0.72667605 0.24605167 0.13354388 -0.23876451 0.41100582 0.2810537 0.15784614 -0.17779453 -0.31815147 0.033557344 0.07114557 0.091404326 0.040658336 0.19983368 -0.4313511
2615 -1.1395274 -0.0690292 -0.4202496 0.12892565 -0.28866217 -0.34811005 0.4305673 0.093906246 0.07008646 -0.20352325 0.3735754 0.116378106 0.39419982 -0.31200868 0.59723866 0.1437606 -0.23180898 -0.31316596 0.15600349 0.28534994 -0.077713765 -0.34567797 0.37759164 -0.11166754 -0.12894356 -0.078832045 0.1818753 -0.15236627 -0.114242926 0.092070185 0.38179728 0.20182541 -0.13215023 -0.072501756 0.029720198 0.15276669 0.36862066 -0.07580663 0.03316718 -0.07483877 -0.51743007 0.39530864 -0.42853597 0.12065892 0.23864679 0.008164444 0.33232975 -0.20405865 0.35418364 0.15607803 -0.1760291 -0.011470756 -0.24406657 0.01749172 0.32008827 0.30989662 0.3939284 -0.3571487 0.3027202 0.016260521 -0.0035698698 0.0035430929 0.32821047 -0.46102345 0.21299495 0.09823895 0.053913318 0.44633812 -0.03860114 0.012441671 0.13437657 -0.044791132 0.055093743 0.31839618 0.14718089 0.06928192 -0.33572087 0.46468174 0.2030042 -0.24986275 0.119058974 0.01528471 0.010203513 -0.30537364 0.18762214 -0.05076532 0.120692454 -0.42784062 -0.19098902 0.41883123 -0.4102392 -0.16166358 -0.09544608 -0.1395414 -0.28976232 -0.09491015 0.085381344 0.71369386 -0.28737295 -0.05692593 0.21787736 -0.099380605 0.08610893 -0.02480267 0.062038075 -0.29910636 0.23966858 -0.36536354 -0.4328642 -0.3315645 -0.41508892 -0.2758082 -0.101924755 0.89113724 0.5410842 -0.07888338 0.5223516 0.1324409 -0.33481428 0.09478038 -0.023458382 -0.16271555 -0.18250926 0.25139877 -0.29030043 -0.027127333 0.0046032625 -0.1956567
2441 -0.44321287 -0.42811736 -0.05212099 0.16719031 -0.029594759 -0.35671577 0.23825315 0.30883673 -0.10066375 0.16933146 0.06865283 -0.0733468 0.060466867 -0.103697576 0.14876156 0.26533836 0.27759063 -0.5182447 0.17900595 -0.08244525 -0.19572526 0.17873919 -0.3005984 0.22911859 0.41745505 0.0238815 0.6730907 -0.022878997 0.39083433 -0.20429759 0.35476837 0.0931947 -0.023343563 0.53473985 0.11256651 0.46960497 0.113628715 -0.1430653 0.12107293 -0.7141922 0.22589736 0.7626962 -0.08748257 -0.12050788 0.026629442 -0.25967458 0.24481313 -0.27753815 -0.016787317 0.16932076 -0.18980779 0.6132773 0.11588491 0.44381332 -0.25065094 -0.17672014 0.22936742 -0.17772654 0.24256791 -0.3370023 -0.29417413 -0.22222088 0.4727833 0.18982537 -0.43110436 0.090256676 -0.08346144 -0.34813756 0.3196439 -0.5008299 0.7214679 -0.25303417 0.007212016 0.8867351 -0.41477698 0.0993714 -0.5900906 -0.11224509 -0.2296778 -0.08636159 0.028317139 0.0512991 -0.5881436 -0.20662418 -0.78924084 -0.677937 -0.031011894 0.006064549 -0.101922646 0.0029503594 0.097233064 0.035884105 -0.46679485 -0.31901097 0.12249857 0.49283174 -0.21774265 0.09028067 0.057932634 -0.16641307 0.038102724 0.052011326 0.16959475 0.07872332 -0.042273168 0.03349825 0.045780145 -0.25121307 -0.4578816 -0.9061323 -0.14554045 0.35415658 -0.2538955 -0.11791316 0.25203228 0.91153425 -0.17136894 -0.12536822 0.11422927 0.062419288 0.21003367 0.39574903 0.6671938 0.57692635 0.054609004 0.017217716 0.079139836 -0.29816008
2857 -0.13015248 0.45093897 0.0075027263 -0.29474533 0.60381174 -0.22107045 -0.01704015 0.46779254 -0.010222418 0.21718737 -0.32231325 0.5546593 -0.009926999 -0.044972584 0.0034913037 0.46540347 0.40225983 0.42993945 0.31298363 -0.39863905 0.1529958 -0.18893923 0.44303897 -0.15178336 -0.38440973 -0.08237252 -0.20546761 0.5206602 0.007933098 -0.45183575 0.2452428 -0.041557882 -0.25577208 -0.10506494 0.13311225 -0.026753113 -0.06032048 -0.5908179 -0.04150254 -0.16509774 0.5794755 -0.053622235 0.10129316 0.16021845 0.70446306 0.5410006 -0.3730455 -0.095640294 0.0029537631 0.20989619 -0.006603138 0.17246297 -0.15096803 -0.088898815 0.019868188 -0.44561243 -0.026217423 -0.70863676 0.64472514 -0.044795923 0.24686038 -0.21298528 0.37500685 0.38076162 0.31536797 0.037730355 -0.25566357 0.37918463 -0.19455956 -0.27403975 -0.23403476 -0.08974703 -0.124892294 -0.28407776 -0.031153992 -0.4264098 0.07608634 -0.20687662 -0.045593034 -0.15452287 0.0993629 -0.25716913 -0.07820365 0.20848261 -0.13161096 0.2298379 -0.5831435 0.11103032 0.49429426 0.4390829 -0.008538333 0.41882807 -0.22493896 -0.28392088 0.1481633 0.25206968 -0.025921008 0.3472495 0.053957433 -0.05364965 0.467745 -0.395937 0.08470052 -0.06943355 0.5954718 -0.06333325 0.50728804 0.15899098 -0.2904785 -0.36963493 -0.7508597 0.26294094 -0.14860237 0.6186626 0.23100327 0.026495274 -0.0132295815 0.4433644 -0.34614703 0.22388735 -0.32927692 0.17409916 -0.30401602 0.14194183 0.070340455 -0.15006712 -0.49740258 -0.4634497
2738 -0.2553401 0.16911063 0.32542142 -0.19765373 -0.20612454 -0.3055293 0.088013634 0.064978704 0.059829615 -0.25983196 0.085322514 -0.39177847 0.17934342 -0.05829564 0.16498317 -0.06588095 -0.23200391 0.14301853 0.19878511 -0.14212793 0.23261538 -0.3539252 0.2693873 -0.307203 0.14634167 0.11435964 0.2694268 -0.14188692 0.28712133 0.45984438 0.19244428 0.015011193 -0.118721016 0.089843936 -0.02253026 0.5760923 0.6834624 -0.0010062358 0.33019042 0.18676598 0.32231495 0.50075257 -0.0659833 0.5935812 -0.40103135 0.07829553 0.05381626 -0.36886886 0.28954357 0.2573574 -0.10776904 0.31825143 0.767979 -0.112213254 -0.056987174 0.06644736 0.09450068 -0.2539781 0.35944885 0.09851473 -0.5985659 0.014819852 0.46902385 0.24034375 0.095479116 0.22081149 -0.16680738 0.030145288 0.44303474 0.033814386 0.012420977 -0.34614727 -0.12542899 0.030365247 -0.20141192 0.14644684 -0.07035947 -0.23766902 -0.16777216 0.025135636 0.43017286 -0.043711003 -0.08071898 -0.67415786 0.089002006 -0.519054 -0.46891028 -0.31616637 0.3166762 -0.35322326 -0.16129147 -0.0859127 -0.11238352 -0.23294647 0.057676412 -0.06879931 -0.39851016 -0.35581365 0.28632933 0.13562834 0.089721024 0.06470599 -0.08960344 0.1888534 0.24894929 0.12579341 0.2342555 -0.10919293 -0.11174813 -0.43228003 -0.061426733 -0.4568956 0.13491023 -0.19498102 0.28535214 -0.04900849 -0.48007706 0.4436418 0.14052066 0.18218002 0.18858984 -0.3360886 0.18326339 0.39867854 0.7629646 -0.31246102 0.33972996 -0.29014793
2877 -0.09817336 0.16519937 -0.42478183 0.26520866 0.050320085 -0.09525492 0.3841865 -0.20273176 -0.053526666 0.7028277 -0.3119112 0.24971534 0.008193077 0.2048165 0.29313424 -0.50909907 0.20687696 -0.23073481 -0.40843448 -0.13957429 -0.1279475 -0.41559142 0.3250591 -0.21489674 -0.07856807 -0.0020332322 -0.16226938 -0.44605413 -0.0034544177 0.088113084 0.21145417 -0.037298363 -0.22812322 0.32108268 -0.87980837 0.8035427 0.14215775 -0.68291426 0.67558974 -0.07994822 0.11199021 -0.29136947 -0.1022149 -0.19254597 -0.09872937 -0.33469948 -0.27437672 0.2025335 0.31705335 0.3836824 0.23102844 0.21965578 0.0035944995 -0.05859836 -0.2069425 0.31249124 0.114945926 0.060567804 0.24451211 -0.095475525 -0.4087144 -0.032428958 0.30118155 -0.05363407 -0.14978339 -0.009723544 0.21189709 -0.29366887 -0.11959921 -0.2419181 -0.27096838 -0.3005223 0.026260741 0.069342315 -0.19841962 0.457794 -0.14412363 0.045679897 0.31665182 -0.24311446 0.3097088 -0.041069463 -0.42689013 0.17219181 -0.43176442 0.20390964 -0.38177317 -0.08425588 0.0670078 0.13393556 -0.09069411 -0.017001064 -0.32173267 -0.100962415 -0.31728837 0.54009444 0.15834957 0.06627595 0.47980356 0.43089584 0.12997843 0.07798453 0.12407408 0.32859415 0.24783422 -0.19002652 -0.42452696 -0.23777857 -0.10211136 -0.44001523 -0.3312717 -0.03567115 -0.052924648 0.5978284 0.7876029 -0.16226825 0.15724567 -0.21331711 -0.25348404 -0.18198061 0.27089489 -0.20382638 -0.006243743 0.16785708 0.50959814 0.33213037 0.124435514 -0.37321848
3825 -0.28932694 -0.36232126 -0.30761474 -0.50996935 -0.110213384 -0.011984116 -0.08822213 -0.24020934 -0.26351133 -0.06362659 0.21955776 -0.18864055 -0.38418177 -0.29335627 0.42542592 -0.07596726 0.075258195 -0.054913435 0.5335374 -0.042547088 0.25342283 -0.32708663 -0.13576801 -0.36676323 0.060353514 -0.18497539 0.12867539 -0.24552315 -0.055188697 -0.12663065 0.47132835 -0.2188904 0.6549024 0.19121046 0.069426045 0.36389604 -0.43112954 -0.5716351 0.67907125 -0.32362872 -0.36901566 0.3693031 0.29958397 0.18732637 0.25263745 0.28442758 0.26309347 0.015439442 0.23396426 0.3392306 0.24141775 0.44375047 -0.034310248 0.14669995 -0.06007866 0.032834694 -0.19109605 -0.21092239 0.10657201 -0.2103271 0.21980746 -0.23050216 0.5679572 0.13597447 0.20694119 0.02023259 0.1961328 -0.2512127 0.6106443 -0.15636127 0.5445708 0.063013665 0.19182126 0.24847263 0.016818075 -0.26633313 0.089541174 0.46570283 -0.36936033 -0.05287503 0.19788088 -0.16115272 -0.60264564 -0.30054316 0.049070757 -0.07132193 -0.29312927 0.16832252 0.32149175 -0.15596744 0.48273322 -0.015644081 -0.14821331 -0.39573964 0.33522236 -0.60331774 0.29073924 0.13571808 0.46197826 -0.22119558 -0.012841766 0.038524028 -0.3114239 0.46208844 0.26902583 0.39940757 -0.13888535 0.3905018 -0.4119574 -0.40509024 -0.28576025 0.4108506 0.24119832 0.4098302 0.58857703 0.48000738 -0.39257532 -0.01830469 -0.06549602 0.15817481 -0.025239212 0.3178998 0.45160982 0.13376704 0.18408276 -0.56622493 0.23714852 0.27766913
2669 -0.15070628 0.14817232 0.2708424 -0.53011453 0.011224105 0.1400411 0.05811766 0.3200678 -0.03815244 0.08128895 -0.37278125 0.05424811 0.10355886 -0.0015213321 0.034337744 -0.38496342 -0.30257517 -0.0910845 0.12170398 0.14300479 0.5752105 -0.07926868 -0.060574036 -0.44986644 0.5988667 0.37690464 0.0011398796 0.021319333 0.75865436 0.22492199 0.28763995 -0.25261074 -0.22950777 0.23188244 0.011105752 0.29121417 0.22156218 0.13235438 0.045621235 -0.34658363 -0.16068923 0.37366027 -0.092941314 0.28496572 0.22836971 -0.09135897 -0.022473715 0.34373084 0.10653215 0.25431925 -0.46486577 0.34371915 0.06726522 -0.22092724 -0.14872755 0.612614 -0.33170524 0.29611966 0.53433436 -0.26291952 -0.22758047 -0.18869703 0.30848777 0.008288342 0.12338939 -0.087988324 -0.20282057 0.5378634 0.03317257 0.18303259 -0.071096756 0.09148553 0.095818765 -0.26400343 -0.012383535 0.38088197 0.22771013 -0.17317541 0.18037944 0.25782013 -0.19469951 0.041271035 0.34014973 -0.5158608 -0.15732883 -0.39237884 0.041137666 -0.21234708 0.056900047 0.10463315 0.110553026 0.019553829 -0.3111879 -0.19599049 -0.024740404 -0.22908486 -0.4312645 -0.22048993 0.077648394 -0.27977315 -0.0173543 -0.15800673 -0.16945533 0.4487025 0.7901773 -0.19358744 -0.03926529 -0.347706 -0.07778225 -0.64841986 -0.05978947 -0.005604009 -0.23921324 0.46195957 -0.039797436 0.13386999 0.18169436 0.097072534 0.32633534 -0.15711401 -0.40019786 -0.061723303 0.30483994 0.040788297 0.28938535 -0.36519706 0.18340963 -0.20594497
3634 -0.2405538 -0.0901877 -0.054634217 -0.16321953 0.24188696 -0.7843863 0.08887925 0.20575944 0.30594334 -0.0016491497 0.03609311 0.05757926 0.045185294 -0.44673076 0.27279657 0.005870681 -0.103175625 0.3068108 -0.05395413 -0.047306962 0.06788875 -0.8727748 -0.2909417 -0.24778876 -0.30186057 0.1404577 0.04686143 -0.13177505 0.30329293 0.21620041 0.17603526 -0.351541 -0.41686395 0.38966295 -0.09141901 -0.019805701 -0.3207238 -0.39126384 0.1889799 -0.0018960126 -0.3670494 -0.09963844 -0.062000524 0.3373735 0.3952278 -0.25168362 0.4198027 0.0528038 0.3431565 0.0358601 0.061474048 0.22386345 -0.46153745 0.0876542 -0.1274163 0.13391605 0.008404471 0.11882784 0.26158383 -0.22701354 0.2061264 0.044546664 0.32619587 0.21073197 0.13459991 -0.087476045 0.09212501 0.4063422 0.27576184 0.18858673 0.05091139 0.098509565 -0.0823314 0.5966708 0.091220915 0.032898292 0.29598022 0.47140494 -0.52098876 -0.035227932 0.30193976 0.17735663 -0.10108249 0.06745134 0.083344735 0.22524744 -0.41666403 -0.061008617 0.16155615 -0.16188285 0.115893476 -0.045105428 -0.35692906 -0.040153213 0.14992982 -0.5177682 0.27238843 0.12853196 0.22946179 0.17347966 0.15106882 -0.33356172 -0.4034895 0.024210285 -0.051231686 0.2177361 -0.23594908 0.18385059 0.18955626 0.24620599 -0.36477494 0.12659325 -0.31211722 0.8197239 0.3513035 0.118953906 -0.45397577 -0.24613644 -0.34021577 0.06946094 0.11451069 -0.015568198 0.11504213 0.29836947 -0.060760938 0.04270294 0.16511895 -0.0318971
609 -0.40870282 0.33961585 -0.21477899 -0.118528485 0.16687474 0.1924682 -0.26854777 0.2438201 0.2595172 0.21276528 -0.30327287 -0.06339123 0.017030237 -0.029210888 0.4556451 -0.41928667 0.24017271 0.46315122 0.39048278 -0.42467645 0.4012085 -0.27093387 -0.14426343 -0.2565217 -0.13600023 0.6129449 -0.63183 -0.273181 0.0054252935 -0.05777407 0.10753402 -0.23358533 -0.038959328 -0.2310216 -0.2312538 0.30986404 0.041336548 -0.114662014 -0.105755046 -0.48211148 0.113734834 -0.26324293 -0.014009673 -0.25978047 0.07337433 0.26378283 0.4928309 -0.27481467 -0.24853387 0.06856238 -0.50282943 0.19529012 0.02913187 -0.60093063 0.45083198 -0.2511603 -0.3341746 -0.10000699 0.36874434 -0.032200754 -0.2541551 0.3697761 0.39050877 0.1468976 0.039699595 0.15655941 -0.35328463 -0.02676918 -0.1142713 -0.25870025 -0.010784302 -0.1368779 -0.37994447 0.3114776 -0.32079083 0.1275277 -0.20063439 -0.37663278 -0.094471306 0.0940362 -0.14479129 0.02914998 -0.083988585 -0.137662 0.31285477 -0.014275171 -0.3313402 -0.3597004 0.006958949 0.7107168 0.31275344 -0.08880642 -0.12777388 -0.24526349 0.22009845 0.25814497 0.36824512 0.1046476 -0.3670342 0.3699251 0.6938669 -0.5610585 -0.2303174 0.05258271 0.121125214 -0.23013319 0.33432767 -0.026977586 -0.27452308 0.1607462 -0.15863575 -0.2950713 -0.51504797 0.23242898 0.17875159 0.6022734 -0.29540735 -0.036576785 -0.30624247 0.04081071 -0.3087437 -0.49413925 0.17877741 0.27648377 0.21392871 -0.030337501 0.045657013 -0.23633066
2841 -0.74566036 -0.811362 -0.30322576 0.086325094 -0.19614239 -0.04066576 0.014810738 0.2436436 0.19880392 0.5027425 0.07701438 0.007190066 -0.20721072 -0.82641196 -0.2489534 -0.004602578 -0.28047857 -0.19844596 0.42797378 0.06494506 -0.14062826 0.2662737 0.025331575 -0.13678886 0.41869107 -0.07570098 0.4087401 0.15679193 0.10739893 0.34999353 0.32654208 -0.12611744 -0.45123914 0.29287186 -0.05219016 0.36048162 0.2904264 -0.07084209 0.17661954 -0.5624827 -0.073603354 0.4927943 -0.64616674 -0.10257436 0.016617538 0.3122153 0.33859718 0.2449366 0.3131399 -0.14580415 -0.19446084 -0.15097812 -0.41957414 -0.38803995 0.28887835 -0.18623784 0.21418484 -0.27168858 0.4060983 0.16958582 0.124441855 -0.3086181 0.37485772 0.7428407 0.20118214 -0.051915783 -0.21359764 -0.096459806 0.07722618 -0.3490343 0.24232575 -0.021471143 0.05607403 0.36223462 -0.31402513 0.074877895 -0.11355157 -0.06018276 -0.30404964 0.14952163 0.12990537 0.19096643 -0.025751675 -0.48574224 -0.144816 0.009689369 -0.11394666 0.22387858 0.011083532 -0.13445486 -0.47163358 0.1259346 -0.45177093 -0.23423092 -0.16093792 0.41850102 -0.29137608 -0.2616124 0.36184984 0.4831467 0.22027498 -0.35043204 -0.5483543 -0.03332258 0.0983768 0.07623623 0.26756793 0.2196474 -0.063316256 -0.13548264 -0.18537977 -0.05616952 -0.29706445 0.24542093 0.6017358 -0.21992157 -0.13174205 0.29471356 0.12255232 -0.24622817 -0.11892238 0.004121368 -0.18408754 -0.122197494 0.17517412 -0.2938736 -0.07337056 -0.09077691
2502 0.0061179376 0.40610075 0.17555135 -0.41961572 -0.15624021 -0.2728762 -0.20697 -0.05569065 0.028151926 0.15666896 0.20151877 -0.12010419 0.09162877 -0.34140188 0.10066301 0.27438793 -0.09272231 0.19902201 -0.42139795 0.024763832 0.27395597 -0.504509 0.10674629 -0.08727121 -0.30145112 0.53025347 0.15815546 -0.118674524 0.08837354 0.16518901 0.019213261 -0.5157061 -0.26038045 0.2257708 -0.27072185 0.35386202 -0.06957665 -0.061571006 0.34360266 -0.115332484 0.10188937 -0.16945148 -0.3309883 0.20793366 0.25734177 0.043619424 -0.32626802 0.07630177 -0.015551133 0.2746528 0.10502065 0.251156 0.03250258 0.18240872 0.25136724 0.37104338 0.29024342 -0.4011179 0.4571671 -0.031929255 -0.43758142 -0.2840782 0.18687205 0.30038202 -0.12766485 0.20753023 0.5381909 -0.3549586 -0.34655836 0.14229724 -0.15903302 0.024179177 -0.47378135 -0.0052999416 -0.37352267 0.2577754 0.1749395 0.11099784 -0.16422924 -0.14497669 0.34351492 0.14709505 -0.0058873575 0.031526186 0.10177265 -0.32851356 -0.3868864 -0.22604942 0.07249038 0.048066225 -0.56764895 -0.33167922 0.07324494 -0.54814166 0.4226041 -0.07739834 0.5264902 -0.0028242022 0.15458588 0.3750689 -0.2742465 -0.41917828 0.004062766 -0.27803776 0.3933665 -0.07656294 0.12364983 -0.77035385 0.17864968 -0.5508611 -0.45285842 0.13710777 0.14369522 0.27619085 0.0047246404 -0.05732323 -0.22460711 -0.26223773 -0.27967212 0.09005507 0.03646436 -0.003083606 0.061622187 0.46494472 0.5293517 -0.21220724 0.6401847 0.16651325
2607 -0.6136331 0.1922224 0.6042879 -0.4036968 0.13555475 -0.2125632 0.047524896 0.14415073 0.015692474 -0.19838627 -0.47163886 0.027982445 0.17054418 0.122652546 -0.05503723 -0.5183286 0.26698577 -0.06799182 0.37400955 0.17320834 -0.3655265 0.23564617 0.20429881 -0.13934578 0.0634931 0.30940652 0.2532922 0.1404881 0.30935678 0.020511657 0.47267714 0.11733502 -0.80554545 0.17220846 0.2907569 -0.02086063 0.63335246 -0.09989683 -0.1382128 0.09977487 0.027778216 -0.39081454 0.070038624 -0.19633912 0.21869634 1.0439122 0.3030751 0.08999087 0.11982294 -0.31438047 -0.27892348 0.005713946 -0.21758296 -0.34275252 0.41664806 -0.044020448 0.044115473 -0.1686909 0.14796701 -0.15719205 0.27164757 0.045103036 0.4883529 -0.35620797 0.15225138 0.3822085 -0.2864343 -0.022591595 0.43599927 0.11523126 -0.38401935 0.20853432 0.5719432 0.1882043 -0.0072219116 0.37692198 -0.13807449 0.009015407 -0.09728822 -0.079976425 -0.06973308 -0.1020916 -0.14488418 -0.28930268 0.0056396946 -0.39332098 0.15432598 -0.08905122 -0.25438327 0.14489162 0.3041513 -0.16740514 -0.13829193 0.20137505 -0.11201814 -0.2806951 0.16190952 0.045136224 -0.14378203 -0.112642206 -0.18369685 -0.14045857 -0.26853034 -0.21954158 0.092002764 0.18379816 0.10635607 -0.17377643 -0.17089568 -0.51772565 -0.1767936 0.42048588 0.011831221 0.6203104 0.800562 0.13868824 0.038948458 -0.016643733 -0.32010874 -0.3952064 -0.63151914 -0.091641724 0.26877424 0.32253972 0.26532277 0.00240985 -0.061067753 -0.1523757
2541 -0.59735787 0.7444235 -0.23288776 -0.4928657 -0.62121546 -0.6417045 0.34752145 -0.2038784 0.348467 0.27549994 -0.3062216 -0.63906646 0.21142991 0.17252801 0.6322371 -0.15373561 -0.11499911 0.06685173 0.101624295 -0.18455505 0.24945495 -0.031055672 0.43018082 0.19368233 -0.2294296 -0.3528168 -0.0365801 0.10443287 0.42930815 0.07020369 0.07736182 -0.32765788 0.15751785 -0.23795848 0.36379206 0.29160804 0.057703603 0.3031008 0.024485163 -0.3836263 -0.45170456 0.14660719 -0.26997092 -0.29869127 0.41088688 -0.02874062 -0.8679494 0.075697124 0.38035688 0.44032302 0.25632775 0.24990717 -0.82429034 0.37274256 0.19891623 -0.31016645 0.08828206 -0.5575647 0.23793241 -0.10176266 0.29371613 -0.002653889 0.07429011 -0.115741074 0.084847 0.36744097 0.46180922 -0.17270935 0.47200674 -0.14935917 -0.42888165 0.21788335 0.018220033 0.45203725 -0.98380816 0.115865044 1.8322815e-05 0.23971212 0.0081432955 -0.101347186 0.034322843 -0.093155935 -0.26366875 0.22991696 -0.15932423 -0.14957201 0.16156554 -0.065311566 0.033984687 0.20462078 -0.086010315 0.104501314 -0.43387026 -0.3077517 -0.24378246 0.4511809 -0.12151968 -0.119338416 0.11566484 -0.124687046 0.4682714 0.11465073 0.20820434 0.068083666 -0.17769538 0.28151217 -0.076644994 -0.8535283 0.19301224 0.2066937 -0.15867266 0.08657284 0.15818319 0.3162921 0.15388468 0.19008751 0.01712976 0.07361759 0.13775806 0.015528682 -0.5318181 -0.04047675 0.25583863 0.057656206 -0.6387347 0.2279926 0.21850081 -0.29042733
3543 -0.17060994 0.084090546 0.10284039 -0.38793758 -0.02891969 0.015593662 -0.31430787 0.9338951 0.3724269 -0.0822161 -0.24159044 0.2578114 -0.0650524 -0.056464 0.30317557 -0.17023663 -0.33939698 0.10273042 0.22131304 -0.22741461 0.119052954 -0.3713342 -0.26716447 -0.03836178 0.086873986 0.1298126 -0.1496879 0.0033789072 0.4061669 0.19049992 0.06411476 -0.2191832 -0.0050898097 0.25734606 0.20549352 -0.048131183 0.1581925 -0.41207838 0.03266454 -0.07552209 -0.38125184 -0.42031208 0.06746153 -0.072092086 -0.15102296 -0.19598612 0.5129281 -0.25989634 -0.10303561 0.36157784 -0.017698444 0.45905787 -0.371083 0.14607374 0.02067994 0.12153062 0.28635693 -0.053455625 0.13590017 -0.51360464 0.23054203 -0.20490745 0.029600237 0.34956282 -0.078480974 0.07494611 -0.055457402 0.38218364 0.42901832 0.04694586 0.15156657 -0.50914496 0.37946463 0.14122617 -0.5207106 0.34845036 0.10123766 0.35289446 -0.67933303 0.15637852 0.55442214 -0.07055672 -0.21082348 0.16023506 0.16955289 0.41384596 -0.0012705426 0.22609994 0.0047037965 -0.16050792 0.40201482 -0.079861864 -0.38201684 0.08080737 -0.43291178 -0.17914613 -0.25543693 -0.40249142 -0.23133022 -0.17715715 -0.03615757 -0.066013925 -0.5395996 0.12623739 0.36914977 0.6338306 0.22784525 0.0919417 -0.14180435 -0.038995802 -0.27633834 0.3976621 -0.1309942 1.0259829 0.14032423 -0.15537769 -0.16037516 0.15056463 -0.49209845 -0.093996584 -0.03578373 -0.14167336 0.023024015 0.32595408 0.17511244 -0.19466104 0.1859933 -0.25096944
2733 -0.5247988 0.16884114 0.2900707 -0.49569097 -0.08041712 -0.118346326 0.078054555 0.51061964 -0.24154203 0.06515428 -0.14035763 0.16677758 0.07490696 -0.44937524 0.0275213 -0.2935173 -0.25652954 0.17507464 0.56274945 -0.008162627 0.36356083 -0.43683273 0.42867318 -0.6148351 0.34850597 0.19245887 0.25429633 -0.008081765 -0.06493408 0.58049816 0.45518103 0.03841151 -0.09694527 -0.12063878 0.082073234 0.5593963 0.43037337 0.05044391 -0.09354973 -0.09355813 0.1356038 0.4765633 0.18144935 0.3401987 -0.2157594 -0.3277448 0.009611052 -0.15897937 0.18489066 -0.0455837 0.004892211 0.115766816 0.010518857 -0.055237312 -0.18313481 0.30599672 0.19130522 -0.09594571 0.19960427 -0.055101093 0.08558692 -0.0034203448 0.7444771 0.042680353 -0.042448815 -0.14650011 0.24501058 -0.36943853 0.104196064 -0.123893335 0.2717887 -0.21174891 0.033828884 0.11431082 -0.029253975 0.23383725 0.035061665 -0.1872515 -0.087404236 0.09886302 0.29928732 0.17138271 0.009502073 -0.6366555 -0.07106401 -0.2829934 -0.207201 -0.29986194 0.039299615 -0.53039384 -0.1987057 0.34285864 -0.32572362 -0.4884916 0.08268453 0.14921118 -0.43944553 -0.44454002 0.06727397 0.0796252 0.20136593 -0.26291853 0.008413262 0.29406834 0.02937161 0.14921564 -0.31545815 -0.02345024 -0.24105564 -0.41471505 -0.09930201 0.25013068 0.07706344 0.12703207 0.02473766 -0.21316724 -0.2573565 0.1945482 0.16327506 0.10650288 -0.030621624 -0.07017335 0.20532835 -0.23097178 0.51400286 -0.4875376 0.21796396 0.06475859
2755 -0.5558061 -0.35860237 -0.35609803 -0.5317765 0.082765676 0.05418139 0.1780037 0.35188696 -0.41931975 0.4933072 -0.12680106 0.15458387 0.124983706 -0.7530249 -0.13991508 -0.059083443 0.12300874 -0.28335354 -0.17814684 -0.37444344 0.20586286 -0.01703093 -0.13068585 -0.2873665 0.5120927 -0.1852095 0.45765588 0.26340187 0.91813594 0.13977812 -0.21140487 -0.45210615 -0.38118097 0.12314583 0.08702268 0.6405443 0.7215221 0.2525613 0.29672185 -0.021558583 0.3010046 0.27818513 -0.38783687 -0.06725499 -0.2886209 0.17108029 0.13326108 -0.2816271 -0.20872422 -0.022378653 0.16927662 0.059738446 -0.42609003 -0.45868063 0.019917449 0.09957756 0.37162846 -0.36495227 -0.37997878 -0.20404132 0.11647168 -0.025447594 -0.003279232 0.25362805 0.07669567 -0.36149657 -0.092968844 0.06325812 -0.058615647 -0.6766675 -0.18267284 0.21478595 -0.3008352 0.40187562 -0.21778823 0.3310392 -0.17334849 0.13815954 0.14386202 0.35209844 0.17803667 -0.19623487 0.19372807 -0.2375976 -0.523332 0.34333843 -1.0652384 -0.00075238076 0.3848267 0.64417636 0.12717952 0.23854469 -0.027738716 -0.5141864 0.22865227 0.07611725 -0.046324328 0.024517318 0.030328276 -0.10389613 -0.20032619 -0.36290455 0.27090132 0.2749599 0.023628509 0.21214506 0.28336024 -0.020314114 -0.39788544 0.021255435 -0.21662375 0.38038734 -0.12504663 0.071152896 0.04034499 -0.29672927 -0.2729799 0.86302334 0.48319414 -0.34118557 -0.11287838 -0.11258803 0.1973251 0.021969773 0.010938145 0.085772246 -0.09655263 0.006763171
2516 -0.61430484 0.7409542 0.44401863 -0.18674123 -0.49045315 -0.26921672 0.62061065 0.12483807 0.31632072 0.31362203 0.19740681 0.2717494 0.78097886 -0.26338333 -0.07275933 -0.4081482 -0.2515468 -0.46407863 -0.14632025 0.32829553 -0.24122448 -0.66736734 0.2942194 0.023299064 0.29135153 -0.12866291 -0.48018295 0.1936697 0.2645855 0.35578987 -0.042625085 0.21503578 0.01666488 0.080378115 0.07449099 0.03508991 0.31113583 -0.12450707 0.33339947 -0.37335414 0.4194703 0.018727152 0.07942203 -0.057889644 0.063116625 -0.009940167 -0.3920398 0.4931303 -0.042350776 0.5690603 -0.3520688 0.10508384 -0.022842932 0.623702 -0.074325085 -0.81685185 0.63991517 -0.22203316 0.14139101 -0.07548254 0.30821747 -0.19245645 0.62359613 0.30227557 0.47237834 0.16737337 -0.20575929 -0.18503635 0.21059227 0.05566259 0.35112447 0.5781513 -0.10533085 0.0056484016 -0.23434453 0.34364805 -0.20958062 -0.023337744 0.18663828 -0.47506285 0.19367576 0.16428678 -0.038998254 -0.20028959 -0.3370742 0.033469997 -0.13487238 -0.173344 0.76115555 0.3119214 -0.14170317 -0.83157164 -0.07242329 0.06373269 -0.5141731 0.21772738 0.5930639 -0.1696462 0.0454186 0.08658438 0.035496872 -0.47678465 0.12489507 0.13403071 0.07532272 0.26411462 0.19649056 0.014735627 -0.08759977 0.4590931 -0.45077968 0.5077623 -0.03175701 0.5028403 0.07108339 0.6345924 0.030761555 0.1892524 0.78153235 -0.31288916 -0.17380626 0.09842721 -0.11890269 -0.050848622 -1.0734082 0.116791956 0.3183963 0.049641337
2617 -0.3199419 0.34898007 0.42679742 -0.100468315 0.48243758 0.14064115 -0.35579708 0.20989126 0.2079423 0.14020543 -0.33198863 0.11548887 0.24847281 0.011325798 0.07155122 -0.34214985 -0.2072128 -0.19098008 0.017197583 -0.08561315 0.25856787 -0.08095923 0.41232422 -0.2734888 0.053184725 0.501137 0.069109865 0.110018365 0.072408944 -0.2453111 0.6342871 -0.02630416 -0.5834079 0.40155336 -0.41250905 0.15500423 0.011906831 -0.07553969 -0.06899491 0.32100245 -0.42777157 0.4333676 -0.07331758 -0.11873322 -0.024671085 0.011217264 -0.3308316 0.12141572 0.6621611 -0.041759174 0.09529564 -0.0062282295 -0.5000289 -0.070597716 -0.0012393179 -0.26952425 0.24023013 -0.49412036 0.41968 -0.12042765 0.03618542 0.115080185 0.12476467 -0.026749922 0.35047784 0.53529453 -0.29408333 0.07614917 0.49415496 0.04586336 0.03043587 0.036353227 0.27359536 0.6598699 -0.28221855 0.699605 -0.046970937 0.14562589 -0.47589505 -0.47653604 -0.68177485 -0.052380465 -0.2046182 -0.0148830805 -0.31319565 0.106437504 -0.38956723 0.06449673 0.2015391 -0.092005186 0.1508485 -0.10383028 -0.3172452 0.38687465 -0.30352157 -0.10131303 0.2657311 0.1882013 -0.1756001 -0.48934537 0.24996826 0.042881206 -0.004988403 0.15313497 0.1983012 0.21230954 0.0052846917 -0.087744586 -0.015095623 -0.60852695 -0.08223534 0.21975492 -0.21373408 0.32094604 -0.02361806 0.052625984 0.21146028 0.4803375 -0.23214497 -0.41746938 -0.33279425 -0.30399677 0.3726827 0.35100827 -0.29685265 0.21535231 0.5704959 0.11035841
2683 -0.29932442 0.562608 -0.22117612 -0.3162677 0.18130717 -0.049708366 -0.12489254 0.0861651 -0.18794599 0.1816543 0.58224297 -0.34809607 -0.20072223 -0.5113923 0.6263904 -0.08967155 -0.17358035 6.1418796e-05 0.11007574 -0.50628984 0.18045214 -0.039272945 -0.12206667 -0.28289962 -0.1274073 0.04312701 0.3520111 0.31235972 -0.013484499 0.14561005 0.26689178 -0.17811401 0.24569102 0.19388573 0.0777426 -0.16544558 0.4128662 0.40616682 0.011318268 -0.3839846 0.037854727 0.22439405 -0.23488127 0.39141232 -0.26398194 -0.08021299 0.21897407 0.5963409 0.08497323 0.20831406 -0.07791677 0.03767617 -0.34384328 0.14131005 0.2667132 0.23398493 0.09709545 -0.38916874 0.08593231 0.0762712 0.17304802 -0.0579188 0.2754455 0.2680909 -0.12099116 0.59116274 0.7907682 0.2359257 0.42677674 0.114334114 0.074241556 -0.09425638 -0.05657589 0.6918677 -0.4488358 0.24477257 -0.30905545 0.07503227 -0.36175233 0.08822867 0.5057039 0.2211701 -0.0255014 -0.12446587 -0.07038961 -0.15975505 -0.3001821 -0.079495795 0.09293042 -0.023733888 0.14393647 -0.005999901 0.12283974 -0.2623775 -0.23605517 -0.50441015 0.3582547 0.017581923 -0.19588964 -0.12787828 0.2814967 0.011070554 0.0011097534 0.20836088 0.25869435 0.41075924 -0.07833873 -0.60308856 0.15460904 0.043760307 0.022325197 0.0062264525 -0.30831546 0.7373846 0.103170305 -0.0064617777 -0.12909037 -0.3497527 -0.14696153 -0.08240067 0.19649051 -0.6521961 -0.22037774 0.62000495 -0.0489311 -0.33066782 0.059453808 0.480447
2604 -0.83744 0.03507829 0.09725374 -0.26020283 0.14074548 -0.28323305 -0.32732788 0.45518643 0.038717303 -0.17971513 -0.5485374 0.23397069 0.21705227 -0.098685026 -0.10059217 -0.0079385135 -0.031821564 -0.29316786 -0.16012412 0.18689446 -0.052422594 0.26064953 0.39106756 0.1458255 -0.054068066 0.023994127 -0.06940448 -0.0036821337 0.36014852 -0.19618513 0.3526748 -0.240832 -0.38050747 0.01995133 0.14555423 0.15340744 0.6621114 -0.041112386 -0.36346996 -0.091194704 0.1595106 -0.38977665 0.2241167 -0.10238029 0.042645223 0.939759 0.5143526 -0.016403565 0.3059345 -0.10043798 0.09061391 0.13292854 -0.38347325 -0.3266768 0.4004835 0.013859774 -0.1099201 -0.41220623 0.42112723 -0.24722986 0.23082736 -0.4306679 0.55760336 0.14544113 0.07945225 0.6914946 -0.39222822 0.027167583 0.44870663 0.114011206 -0.5025703 0.3551977 0.4217385 0.40987074 -0.0041700345 0.5922168 -0.0043392656 0.04560447 -0.024241256 -0.2075491 -0.3108223 -0.08574178 -0.13054013 -0.28734455 -0.041389175 -0.08411833 0.29859897 0.11800889 -0.1809598 0.30988938 0.00038772612 -0.07945218 -0.14457807 -0.29533154 -0.21763013 -0.44527277 -0.08321081 -0.5068968 -0.017934067 -0.061095305 0.08303052 -0.4064019 -0.3649103 -0.097927466 0.30166945 0.18777955 0.090780854 -0.09930711 -0.11300412 -0.39334244 -0.029589785 0.122862734 -0.29363492 0.20068322 0.42360455 0.04681506 0.052945904 0.35015252 -0.3802924 -0.11241648 -0.3652528 -0.38004023 0.30861545 0.37144646 -0.41245434 -0.4238806 0.32882765 -0.04952575
2466 0.14336492 0.32557604 0.10515409 -0.6591201 0.14985721 -0.46324098 -0.09003278 -0.4556233 0.16543753 0.212287 -0.39468843 0.49988723 0.076180525 -0.009504268 0.38757074 -0.44169337 -0.26219246 -0.5019699 0.14989647 0.02497657 -0.006356624 -0.48286134 0.11409605 0.030021554 -0.053610314 0.37440482 -0.2701997 -0.20673762 -0.07056898 -0.059018694 0.2729608 -0.4224826 -0.47566447 0.41034675 -0.32877973 0.25998378 -0.21910782 0.3957 0.44828805 0.09485835 0.32354113 0.054669898 -0.041592777 -0.463008 -0.139775 0.33886275 -0.5380524 0.26872835 0.9482154 0.38466236 -0.13048728 0.09815577 -0.26963657 0.14056689 0.3258761 -0.18605511 0.21408784 -0.21266349 0.2954744 -0.15170006 -0.097649306 0.20563161 0.32488084 -0.020525107 -0.18632935 0.19803791 0.3387074 0.30190152 0.70554864 0.5145551 0.37321553 0.11483819 0.05619911 0.3796894 -0.61302423 0.3549073 0.16215432 0.106987484 -0.15248293 -0.3862373 -0.22292875 0.050867062 0.3239136 -0.4721992 -0.008426734 0.18006642 -0.23119983 0.23766139 -0.1332496 0.23087482 -0.23317415 -0.16849548 -0.59661144 0.49698213 -0.23325817 0.17461433 0.19733289 0.3995611 -0.18339987 -0.39136234 0.35884622 0.23877591 0.28755188 -0.28913102 -0.49490446 0.41674337 0.19198507 -0.23617631 0.17659299 -0.1581691 -0.07863811 0.31685373 0.002470336 0.56655973 0.25979182 -0.31085253 -0.083122864 0.6356798 0.4294286 0.3197689 -0.22214472 -0.07590623 0.74511564 0.08596833 -0.5294018 0.62683576 0.08945238 -0.09158035
2914 -0.4843497 -0.16729051 0.2760322 -0.47681823 0.45080587 0.19046988 0.0019798563 -0.039377477 -0.25945613 0.399398 0.028902965 0.02969706 -0.1774029 -0.19188331 0.33917812 -0.042190894 -0.54934806 0.3209709 0.371868 -0.28512898 0.51569086 -0.4627525 -0.2344944 0.047639683 -0.13912393 -0.059734564 -0.25764537 -0.2359686 0.09107902 -0.017822511 0.22818331 -0.26335493 0.11565473 -0.17870952 0.45272183 -0.22326419 0.12944487 0.042753164 0.26530942 -0.6018931 0.09939082 -0.053212814 0.3338574 0.020061605 -0.17916292 -0.024944745 0.07261962 -0.2792563 -0.0076369373 0.0812978 -0.67799926 -0.028586986 0.07539797 0.056084834 0.2661298 0.07116407 0.2253941 0.28732678 0.30232275 -0.11382462 0.23914792 0.42539772 0.052182853 0.3453154 0.15228443 -0.439259 0.56083816 -0.20935018 0.02545278 -0.0055088275 -0.07579548 -0.07303075 -0.531619 -0.04215659 -0.35292947 -0.07644774 0.23822097 0.06874681 -0.073177144 0.37611988 0.12795627 0.28891274 -0.27736157 -0.20575145 -0.09636172 0.16445348 -0.19935764 -0.06390347 -0.38051465 0.08789655 0.27459905 -0.28675097 -0.5276738 -0.18368584 0.26334563 -0.32532948 0.22607778 -0.28517458 0.21406183 0.03831148 0.064301886 -0.2569176 0.101913415 0.55219 0.15529445 0.4851299 0.19590773 0.0059606787 -0.11915803 0.08731108 -0.5758093 0.23728788 0.075260594 0.56837946 0.5451565 0.26221114 -0.58854795 0.19075046 -0.10480056 0.20338702 -0.275731 -1.0920572 -0.023550885 0.47032788 0.022700608 -0.29983371 0.14890365 -0.13238269
2735 -0.110360116 0.33655655 -0.08180743 -0.15484163 0.16370118 -0.018182354 -0.21716017 0.23411585 0.025385194 0.17483452 -0.36682874 0.41550395 -0.34509906 -0.33563298 -0.08581593 0.18034153 -0.09958955 0.061153267 0.1371676 0.3859211 0.1617876 -0.4834892 0.18129662 -0.22852126 0.08798074 0.38802302 0.3604883 -0.29175788 0.07945287 0.40909845 0.28492245 -0.02969016 -0.18895985 0.13535735 -0.39938632 0.61048263 0.6611283 -0.0032545042 0.34287435 -0.5928025 0.16514252 -0.12581769 -0.3036613 0.47613394 0.31107575 -0.19567662 -0.14519036 0.029235993 0.5140364 0.22461426 0.001539587 0.36413914 -0.17045903 0.18712111 -0.11306723 0.27471825 0.12612228 -0.2228757 0.13921253 0.103738286 0.16017614 -0.047515903 0.13352032 -0.15519115 -0.11463595 0.07429024 0.40084392 -0.13956559 0.04526013 0.22224562 -0.15686703 -0.19798945 -0.40734044 0.059183937 -0.47438258 0.15038523 0.25413066 -0.10277056 0.31725615 -0.1318682 0.36006287 0.10318458 -0.19177927 -0.33857778 0.057715353 -0.6101471 -0.32504788 -0.09170587 0.13557756 -0.12649383 -0.38600644 -0.16854921 -0.09635029 -0.30350837 0.3400764 0.26428238 -0.47065136 -0.0745956 0.064443335 0.12512663 -0.052542485 -0.19856937 -0.0042281332 0.39158994 0.17803665 -0.048560686 0.07480201 -0.28101212 0.25596043 -0.34195077 -0.19411273 -0.34732863 0.027097397 0.23410372 0.015353494 -0.08508735 -0.14673974 0.119166225 0.3939388 -0.10747339 -0.3791011 0.006543242 -0.07510271 -0.0058968524 0.41393653 -0.51604664 0.6767187 0.11599029
2923 -0.32926193 0.06380192 -0.13700785 0.02199717 0.10735884 -0.4411905 -0.34962755 0.11647447 0.022501478 0.36212754 0.39072037 0.12982261 -0.23009235 -0.3021815 0.3650918 0.1361381 0.121952616 0.5082901 0.07171067 -0.41506323 0.70420235 -0.2522098 -0.34840637 -0.22241059 0.26833028 0.34292272 0.22499302 0.2456409 -0.059277453 0.38801378 0.014925038 0.007822478 -0.11495256 0.09595595 0.22181185 -0.07334839 0.3321975 0.100586556 0.111985885 -0.17231919 0.32153523 -0.29994175 -0.16409907 0.51247746 -0.116767876 -0.09638661 0.0925782 0.28259706 0.12361168 0.040358655 -0.24975991 0.44718528 -0.27267417 -0.39011887 0.6099474 0.08658808 0.12309401 -0.06403094 0.43748096 0.12820148 0.19839326 0.09110717 0.19691674 0.30229047 -0.23916814 0.07926312 0.56664985 0.051851317 0.5223568 -0.018343875 -0.047896374 -0.3126234 -0.16405627 0.33342436 -0.34705925 0.15775405 0.023320459 0.004457624 -0.13247083 -0.050637625 0.23210822 0.41149795 0.0047620027 -0.24003643 0.104687 -0.08635137 -0.23490594 -0.33210376 -0.037461758 -0.10208851 0.45608413 0.19007355 0.1860189 -0.2466493 -0.037208106 -0.40733784 0.40360117 -0.07936693 0.14041619 -0.281182 0.1963807 -0.18697307 -0.06750046 -0.11263951 0.31158718 0.48700902 0.19756375 -0.31012452 -0.028439678 -0.19653398 -0.32241562 -0.11052847 -0.24994893 0.7397928 0.15573205 0.1687387 -0.22768624 0.014177983 0.05757046 -0.09621622 0.07159235 -0.7326859 0.1871366 0.42314848 0.26650754 0.058003735 -0.25866386 0.17871545
2957 0.1905023 0.4883172 0.17272386 0.17438546 -0.18016426 -0.09616861 -0.12538391 0.43141678 -0.14280629 0.59206164 -0.61373776 0.7608485 -0.14223571 -0.2170881 0.2891572 -0.47934785 0.14173585 0.04161547 -0.14363182 -0.024993341 0.17601568 0.17283693 0.5656212 -0.37882575 -0.0015176148 -0.067237794 -0.5269072 0.00060438266 0.22326688 -0.36231384 0.4676952 -0.21681245 0.23913781 0.124101184 -0.13021143 0.27721176 0.012771967 0.2205307 0.50473535 0.46428227 -0.3144506 0.025303941 0.039775282 0.2905002 0.1324728 0.1839794 -0.23660576 -0.0733591 0.12961754 0.2202435 0.15564579 0.6443006 0.050142065 -0.2537573 -0.3564817 -0.3031583 -0.2095662 0.20570736 0.6131973 -0.20625333 -0.19915551 -0.031898674 -0.02990299 0.2174866 0.49297944 -0.004460959 0.35433567 -0.34160057 0.15851718 -0.21831024 0.036146782 -0.59359074 0.01860705 0.13728893 -0.6455924 -0.043680906 0.30850503 -0.16332819 0.09398424 -0.40466467 -0.34446484 0.18425128 -0.042007197 -0.108798586 0.07623995 -0.15899932 -0.22787724 0.09062811 0.38346994 0.70758104 0.29420424 -0.10326387 -0.39998087 -0.11408441 0.047418114 0.20315734 0.17175075 -0.04110959 0.16051394 -0.052241273 0.24502367 -0.1833251 -0.03676835 -0.15297462 0.10831793 -0.46746677 -0.003536209 -0.2948481 -0.3765182 -0.1283125 -0.36594805 -0.15508406 -0.183737 0.48819974 0.70534396 -0.27756113 -0.22186476 0.06758537 0.364488 -0.004719968 -0.013442305 -0.09374527 0.09225451 0.3816543 0.027002191 0.35535416 0.7308477 0.22843604
2842 -0.7161797 0.3913687 -0.06579616 -0.38031617 0.058870167 0.058456063 0.2934926 0.03427039 -0.037898716 -0.4284887 0.11760642 0.0065715555 0.06239173 -0.87831604 0.11471547 -0.21550141 -0.097442366 -0.42024493 -0.112401746 0.16508995 -0.32930622 -0.60237104 -0.22165036 -0.2648653 0.10464441 0.041462544 0.30617923 -0.39649796 0.13088459 0.43884254 0.14935769 -0.45264086 0.17885442 -0.056717046 -0.28111777 0.2843737 0.28567433 0.1908843 0.10020249 -0.13155441 0.21739793 -0.1958936 -0.122447535 0.37513024 -0.015169551 0.42106837 0.2013772 -0.04395439 0.21703696 0.38844347 -0.43167603 0.18520999 -0.7374507 0.01124472 0.20721476 0.21166293 -0.084314704 0.6675054 0.34935278 0.027414998 0.36477596 -0.34480193 0.4634937 -0.11302644 0.28623945 -0.1817909 0.102954574 -0.014067916 -0.038207646 -0.14017256 0.33035126 -0.3959628 0.37234914 0.63099515 -0.39283437 0.16633487 0.14316738 0.060938466 -0.12111439 -0.07632388 -0.1210949 0.40586743 -0.10606609 -0.11292285 0.33507273 -0.09981373 -0.4484391 0.21518369 0.1437656 -0.5275011 -0.09491095 -0.11518583 0.24379824 0.32474235 -0.24858963 0.104065344 -0.116035655 0.0006718926 0.15651362 0.23488523 0.46464851 0.3343092 -0.0086526135 0.061921526 0.14453949 -0.037362553 -0.22883737 -0.43572223 -0.14517255 -0.1614796 -0.2695415 0.2649165 0.09054196 0.37665385 0.23711844 -0.31427342 0.08849994 0.15003014 0.29181522 0.13528194 -0.17852327 0.08666653 0.22451949 -0.10241023 0.47686252 -0.59511495 0.16463207 0.38644576
3149 -0.10271842 -0.17027861 0.16285372 -0.55776954 0.028793829 -0.036050815 0.04688376 0.2846509 0.23710601 0.4366442 0.027950348 0.5218518 0.12853287 -0.13034394 -0.010520698 -0.010986235 -0.15469314 -0.13160387 0.16215198 -0.19963841 -0.67679524 -0.112576835 0.12921976 0.09283825 0.09319697 0.25016263 -0.15753637 -0.22687057 -0.0655045 -0.10301114 0.37085506 -0.22205508 -0.75613743 0.33910182 -0.19585729 0.42311424 -0.007357242 0.047365494 0.057710376 0.06507698 -0.42561188 -0.27520263 0.12095597 0.17099698 0.29908 -0.026890568 0.46895996 0.30616632 0.4429369 0.19494796 -0.3360466 0.28604338 -0.47903782 0.15440647 -0.4141963 0.061680272 0.49367598 -0.23058075 0.91368085 -0.19575049 0.17350498 0.14861959 -0.18467683 -0.41592553 0.42698428 -0.0069903373 -0.15586911 -0.19136128 0.3224244 0.295128 0.05198509 0.13530156 0.1052042 0.17627273 -0.47720712 0.06227113 0.051615383 0.19296193 -0.11337528 0.23198447 -0.092597745 -0.08085403 0.006633596 0.39516667 -0.05809228 -0.1142539 -0.28009346 -0.42478037 0.16715619 0.09937985 -0.072924346 -0.10773582 -0.5999401 0.01634659 0.10042079 0.37918675 0.016139932 0.15032122 0.16361791 -0.37627164 0.14739168 -0.23439561 -0.4004988 -0.009535558 0.26111192 -0.01581971 0.008661871 -0.11155351 -0.22705492 -0.28478214 -0.17447144 0.18594493 -0.018009173 0.5383769 0.62921834 -0.36240935 -0.02954163 0.13913083 -0.00049450377 0.018052185 -0.36805516 -0.01573659 0.026225857 0.24746613 0.051832546 0.2520925 -0.28782666 0.089172594
2694 -0.38270146 -0.20758785 0.07191712 -0.044011965 -0.39098462 -0.16834438 -0.0444582 0.49873158 0.050297752 -0.09603887 0.20751584 0.093279906 -0.35693026 -0.43108764 0.14159508 -0.08143422 0.009648117 -0.32254845 0.4285978 -0.42127344 0.13589123 -0.20202842 0.05893128 -0.06875974 0.24789825 0.15708677 0.4094047 0.06991814 0.20041247 0.2680658 0.5417047 -0.16536187 -0.0020457008 -0.054934774 0.4144628 0.11394573 -0.44074872 0.17401592 0.4996201 -0.46097553 0.16440654 -0.008176406 -0.12367354 0.22927865 -0.4890011 -0.17101249 0.40557817 -0.24769464 0.47580987 -0.14864914 -0.17444657 0.4740827 -0.2414037 0.36383313 0.4102907 -0.029135631 0.35234866 -0.021400295 0.017711774 -0.36029017 0.39554256 -0.35065913 0.60520434 0.18238431 0.20285995 -0.60157365 0.46818432 0.06995181 -0.20215453 0.044810057 -0.03967762 -0.07702712 -0.1518653 0.30513275 -0.504044 0.030266719 0.051214784 0.0465498 -0.33132565 -0.28981522 0.3576646 0.105082236 0.089723766 -0.20022292 -0.3266489 -0.12583683 -0.3839402 0.16912854 -0.3072979 -0.33110285 0.23012356 -0.01199174 0.13869931 -0.2844474 0.13714005 0.06834887 -0.20400847 -0.09232324 -0.25189734 0.2745418 0.05385045 0.050887473 0.19339153 -0.041854285 -0.16784865 0.68156946 0.074904695 0.22245573 0.11550969 0.0021185537 -0.4871252 -0.009918906 -0.27320078 0.8202517 0.059460618 0.3289872 -0.45225024 -0.0028332472 -0.6385117 -0.17494948 0.2243779 -0.18065012 -0.070340395 0.3371323 0.29903683 -0.50900805 0.26249936 -0.116721965
2619 -0.6084456 -0.12324168 -0.039630666 -0.90908635 0.4160043 -0.5759699 0.427892 0.131799 0.24950334 0.043604866 0.32566586 0.16076681 -0.18284898 -0.27067098 0.35184616 -0.7097857 0.05262561 -0.52844024 0.31217334 0.13100816 -0.41540733 -0.28579354 0.17498109 0.4518137 0.43690997 -0.12533382 -0.34143475 0.1514829 -0.11617131 0.0091585275 0.6463275 0.02405483 -0.45220447 -0.19579741 -0.19480693 0.20475303 0.6005214 -0.2958936 0.19326505 0.24572492 0.06696243 0.1985521 0.10785004 0.096255615 -0.21219589 0.5972851 0.036528893 0.23958533 0.41479823 0.19978842 -0.2146635 -0.12068538 -0.351402 0.057709735 0.12210565 0.09739135 0.27674502 -0.22592102 0.09276477 -0.3019768 -0.13180934 0.14962868 0.27155632 -0.041968044 0.30787432 0.08198273 0.11678533 0.24613969 0.23210405 0.13664383 -0.24933602 -0.008728155 0.14992367 -0.1464049 -0.048217017 -0.08549776 -0.52068436 0.42006028 -0.11603164 0.17625083 0.2350189 -0.1896174 0.022312395 -0.009625818 -0.0041028764 -0.016278962 -0.2623257 0.20467336 -0.09110906 0.06957326 -0.013154017 -0.32025963 0.011230344 0.42896602 -0.06480409 0.5007203 -0.18559247 0.18523352 -0.46409446 0.00472675 0.33200887 0.29093328 0.019040197 -0.4045543 0.431261 0.2503521 0.35154417 -0.38499606 0.03146099 -0.4587089 0.26263702 0.38523176 0.4208993 0.64942575 0.6516451 -0.115468316 -0.0512236 -0.10287769 -0.032257296 -0.06942538 -0.24657717 -0.33163124 -0.05415745 0.27744445 -0.36650014 -0.3274517 -0.0152294645 0.011414948
2992 0.18078658 0.034330305 -0.05674744 -0.123365 -0.020858401 -0.30603638 0.016738737 0.16200697 -0.23983589 0.48867416 0.39578536 -0.11239943 0.16453218 -0.18565841 0.018393042 -0.31288612 -0.17018801 0.15291095 -0.045362864 -0.24556105 0.7876265 -0.12910588 -0.10368685 0.008409057 0.07073936 0.41146773 0.34765112 0.53824216 0.013709272 0.51348174 0.23061831 -0.04669524 -0.332185 0.22863628 -0.08862909 -0.15624212 0.40224242 0.23108643 0.066762894 -0.67716056 0.60736006 -0.28338006 0.042987444 0.4266885 -0.2770834 -0.24097773 0.1259181 0.08324043 -0.048064638 -0.02322089 -0.30625302 0.35975215 -0.24922507 -0.17793126 0.1273629 -0.12607686 0.58590746 -0.11146499 0.41683158 -0.16427708 0.115027085 -0.24735612 0.44192865 0.25333977 -0.049348947 -0.22130789 0.6880765 0.21091059 0.16063643 -0.20340261 0.085271075 -0.29959467 0.09007943 0.023130856 -0.4485795 0.44313475 0.15225154 0.14556985 -0.057068683 -0.38376245 0.03544061 0.15303257 -0.13602786 -0.5510178 0.26541618 0.26359594 0.08533581 0.124189205 0.045852307 0.07025816 0.20393577 0.13562639 0.037338134 -0.0557988 0.04527777 -0.4068092 0.3220454 0.04261458 -0.045795333 -0.12866081 0.23939507 -0.284237 -0.3010986 0.102807395 0.76195735 0.44768903 0.18716426 -0.5226026 0.1998708 -0.40328008 -0.036473114 -0.15508135 -0.38809004 0.34527233 0.07598883 0.034116317 -0.4910537 -0.11153911 -0.2679543 -0.046643745 -0.13906325 -0.35579324 0.23680353 0.4804909 0.44529536 -0.24066211 -0.24110729 0.19930597
3072 -0.38025042 0.28500354 0.2878854 -0.7451762 0.11268845 0.26887202 0.01581583 0.63428855 0.13501987 0.21541618 -0.13951604 0.5409406 -0.18640512 0.12807989 -0.43020254 0.03835667 -0.3535479 -0.42811158 0.0047986954 -0.16508624 -0.46130407 -0.40369713 0.101129964 -0.03084828 0.27433866 0.44826424 0.11254043 0.42533255 -0.2758498 -0.31619367 0.68129915 -0.004604272 -0.57266635 0.5669135 -0.15223831 -0.15249531 0.23230179 -0.3674644 0.004505909 0.216099 0.24761441 0.22362424 0.36144236 -0.18447551 0.19085966 0.036279287 0.43533182 0.028430352 0.49714515 0.20040202 0.039351434 -0.0056944215 -0.4552495 -0.060015973 -0.3761005 -0.27777445 0.532027 -0.15405764 0.4152404 -0.10552362 0.36295065 0.36414886 0.122740865 0.1537865 0.3784262 0.17940739 -0.20735347 0.21129581 0.26511392 0.033966612 0.08697528 -0.22984804 -0.046655435 0.04309358 -0.24413988 0.35080835 0.1931428 0.010068847 -0.36804977 -0.2294717 0.027006503 -0.039669566 -0.5837718 0.1325934 -0.26085868 0.13658898 -0.042853553 0.34696737 -0.10309604 -0.022897748 0.002143096 -0.13135171 -0.43849114 -0.3473138 -0.027546672 0.09216307 0.014371451 0.1856669 0.090823136 -0.07267518 0.040575854 0.13758115 0.23961376 -0.07300735 -0.048408672 -0.014273154 0.4858813 -0.019341381 0.25508222 -0.5404462 -0.11615654 0.10760658 -0.019910531 0.7261203 0.06564565 0.124123216 0.09200495 0.16576396 0.08703482 -0.16892451 -0.20987837 0.08695199 0.43941575 0.46460664 -0.20289437 0.10116295 0.7878644 -0.1352138
2552 -0.19601266 0.5695545 0.17825137 0.31197542 0.28397048 -0.495995 -0.12534946 -0.2156889 0.14578831 -0.37622765 -0.4728589 -0.21551663 0.49734083 0.226443 0.16528867 0.23458856 -0.12905127 -0.36801118 0.61468387 0.12227475 0.25984627 0.08498465 0.15084271 -0.4648941 0.3642252 0.47499803 0.112584 -0.09407559 0.033718437 0.03340922 -0.16751072 -0.2390602 -0.4343044 0.12165921 -0.17362277 0.3252049 0.4341874 0.18574685 0.36099535 -0.48766413 0.077784464 0.13198231 -0.29177034 -0.3473361 0.96341074 0.4021394 0.14002362 0.012039371 0.1384887 0.18480615 0.042265758 0.16722411 -0.31271896 -0.31091872 -0.01931403 -0.10824873 -0.24055037 -0.24271746 0.007394159 0.10903228 0.24078365 0.20341493 0.15327749 -0.044764988 0.47825158 0.05217917 -0.03221518 0.51973325 0.44524896 -0.116038784 0.094561 0.33573955 0.40685454 -0.1853083 -0.72309923 0.29198232 -0.13493009 0.4792552 0.100406274 -0.4048521 -0.55592644 0.17568374 -0.50893 0.02007837 0.19523342 0.088381484 -0.17185923 0.25427508 -0.075668335 -0.020779466 -0.03764126 -0.057018153 -0.5322798 0.058000464 -0.22946995 0.21509407 -0.43046424 -0.053579945 -0.3172177 -0.16564299 0.44098046 -0.1954137 0.16811438 -0.15230194 0.085011184 0.11915725 0.0914562 -0.3021291 0.12820055 0.08731942 -0.42178267 -0.3394565 0.22758932 0.2745627 0.30736983 -0.062056724 -0.10230635 0.15080418 -0.23118526 -0.09379457 -0.5059587 -0.10099147 0.46119645 0.59149927 -0.14189859 -0.067922466 0.5817238 -0.007840967
2475 -0.49315044 0.51749325 0.43015015 0.5185797 0.42884412 0.0836487 -0.06630751 -0.11631448 -0.042338673 -0.06957033 0.08168957 -0.22672321 0.31132463 -0.22207218 0.744963 -0.19282572 0.28345737 -0.94605285 0.28733233 -0.6420364 0.30312213 0.11037265 -0.20635672 -0.38485062 0.20038287 0.23618487 -0.026995525 -0.38702366 0.23382118 0.078334495 -0.07261514 0.10192792 -0.5783714 0.07134504 -0.25220585 0.1906903 0.67885363 -0.4863814 -0.23094955 -0.07768082 0.0041982057 -0.1237924 -0.24167293 -0.014725139 0.5452356 0.12093495 -0.04179219 0.14655468 -0.1958456 -0.017452274 -0.06843255 0.07866669 -0.4279029 -0.080271 0.22429098 -0.012820985 0.051397644 -0.5241892 -0.042811148 -0.11853516 0.14143327 0.092247315 0.2650115 -0.33982942 0.40903884 0.16607207 -0.36699268 0.5214991 0.2262356 0.15029077 0.23991561 0.15064563 0.18981676 -0.41341674 -0.35822183 0.48377123 0.06534524 0.2847823 -0.49735788 -0.37495106 -0.58847433 0.40882045 -0.28842884 -0.06162334 -0.20170999 -0.25735757 0.07989271 0.19173224 0.048695818 -0.051186424 0.23318619 -0.17642345 -0.5025271 0.14868654 -0.634204 -0.00028096867 -0.25201106 0.13529392 -0.52903044 0.120950714 0.36433303 -0.52201164 0.51209164 0.23161401 0.40198746 -0.10472208 0.20961252 -0.23354144 0.0017302105 -0.75544155 -0.23530887 0.008227741 0.6067048 0.0538179 0.43503723 -0.17107366 -0.20347917 -0.2974698 0.17318246 -0.42024997 -0.51632935 -0.46790838 0.13133244 0.5245717 -0.22727294 -0.08448149 0.24744412 0.050407123
2631 -0.50663185 -0.038296588 0.032236777 -0.41917554 0.2775626 -0.4454427 0.2594727 0.11671364 0.58318603 0.40104184 0.36810347 -0.12546417 -0.4160631 -0.2163593 0.14748886 -0.5229768 -0.00609592 0.07364002 0.15385507 -0.2915986 -0.12639554 -0.7512288 -0.43299273 -0.16310753 0.25689986 0.024574753 -0.22432007 0.5188421 -0.05710279 0.24056263 0.120855115 -0.11372507 -0.6313756 0.19961067 0.097249776 0.28937566 -0.009133212 0.37864178 0.099471435 -0.0020686828 0.5254363 0.20836759 0.41441727 0.33680508 -0.30446166 0.2524073 -0.2981185 0.08657243 -0.029513825 0.26244453 -0.20252502 0.5817601 0.08315727 -0.2809531 0.6082554 0.5015709 0.18272448 0.14691593 0.11503104 -0.19061731 -0.24324037 0.034026254 0.4650043 0.19372314 0.021108804 -0.008944773 0.42768434 0.35025507 0.008078508 -0.4608572 0.10780217 -0.09577881 -0.071485475 -0.5857979 -0.42116752 -0.3581427 -0.16392794 -0.07418293 0.3588564 -0.1931248 0.21362577 0.37830973 -0.107735045 -0.45151183 0.16587462 -0.09073051 -0.16784829 0.2838469 0.21719316 0.50803554 -0.047324304 -0.3330714 0.13687934 -0.1248022 0.04619583 -0.22916262 0.68027246 -0.09995479 -0.013342192 -0.22787714 0.15779658 0.06307623 0.5265197 -0.28405085 0.4930624 0.43451056 0.072622985 -0.8794101 -0.084705874 0.11017712 -0.21817961 0.10733654 -0.6051765 0.33380735 0.33466566 0.26035753 -0.29133624 -0.04713359 0.17407027 -0.58666307 -0.35675406 -0.6440336 -0.24025714 -0.0024864785 -0.034660563 -0.22231282 -0.012809693 0.06266168
3309 -0.18121438 -0.059291974 -0.23276608 -0.03804999 -0.46931314 0.048041042 0.26735565 -0.051425688 0.12269295 0.49111766 0.042858034 0.6641216 0.250282 -0.16256082 0.14313757 -0.19856054 0.030320918 -0.015981162 0.05338506 -0.5127922 -0.44432652 -0.3016781 0.17566645 -0.19346265 -0.04600538 -0.14386955 0.10514583 -0.124509014 0.08499 -0.10076654 0.318423 -0.32436213 -0.542008 0.17297614 -0.28438726 0.13138242 -0.04318567 0.30294573 0.3585515 -0.08957125 -0.10236673 0.06506335 0.018825408 0.22699618 0.59284395 -0.055437416 0.33823115 0.45633322 0.1957041 0.21602622 0.19494586 0.16844943 -0.28941727 0.20356356 -0.19726914 0.12776561 0.0016390099 0.000761964 0.68455076 -0.23887697 -0.1486956 0.0682731 0.11227571 -0.1476435 0.6499594 -0.04317964 -0.17142363 0.39994067 0.22428203 -0.4651783 -0.20549975 0.09179497 -0.37124243 0.39703164 -0.45193532 -0.010773494 -0.052254267 0.14137034 -0.43930706 -0.10279298 0.22941834 -0.60342366 -0.2204047 0.086002 -0.30965307 -0.29100275 -0.2345927 0.05334623 0.28261992 -0.14661683 -0.049437355 0.22262403 -0.8592949 0.317472 0.27137628 -0.40876713 0.060247995 0.47932208 0.48977667 -0.3342099 -0.0058767344 -0.3766843 -0.072292246 0.30298024 -0.030914856 0.121725045 -0.0152684 0.065178454 0.13084029 -0.12071507 -0.38189307 0.34131265 0.22683744 0.59254074 -0.08126343 -0.030637681 0.0654074 0.121782176 0.2647151 -0.18911642 -0.29057324 -0.181144 0.061758824 0.10740674 0.01379142 0.31086257 0.01991983 0.1449535
2915 -0.30784014 -0.042712245 -0.01436751 -0.40132722 0.5983892 -0.004765124 0.022403171 0.24436754 -0.015334344 0.33356366 -0.09816527 -0.20870109 0.057214774 -0.7354242 0.1705647 0.14844757 -0.112089604 0.3604628 -0.55639076 -0.3069858 0.092871144 0.075757034 -0.0834047 0.0007299671 0.21592316 0.31211 0.28376806 -0.8234169 0.34727237 -0.17573045 0.44376343 0.15886031 -0.4541928 0.04255921 0.41475412 0.2872847 0.37701106 -0.20251074 0.2948537 0.12080464 0.26181555 -0.060395963 0.18584202 0.23416817 -0.029162442 0.23370376 -0.13793609 0.2172673 0.6409383 -0.22880544 -0.25501928 -0.3433369 -0.5282298 -0.2024283 -0.10840824 -0.029147454 -0.024686845 -0.42842984 0.44393855 0.034908917 -0.066078864 0.5715669 0.39929804 -0.04425566 0.1171436 -0.25061318 -0.20928523 0.03509604 -0.35242495 0.20737515 -0.09041273 -0.42466363 0.0015059954 -0.07353341 -0.3924576 0.17782831 -0.22220212 0.18012963 0.1563769 -0.28309947 -0.1852234 0.38389826 0.23116739 -0.1709649 0.011096771 -0.41527477 -0.092134975 -0.5781485 0.0151335215 0.26683825 0.41713327 -0.14217342 -0.32383618 0.51004386 -0.28976297 0.8589414 0.09707255 0.71062577 0.5185087 -0.27060884 0.07680057 -0.624336 -0.18915021 -0.13738553 0.5878663 -0.14699586 0.077378586 -0.32793835 -0.45738748 0.29659754 0.067529 0.67672664 -0.101023994 0.58863825 0.22825597 -0.44632965 -0.13771833 0.15498784 -0.363619 0.15926766 -0.50676143 -0.08464162 0.10813918 0.34118715 0.42478177 -0.40661663 0.058635686 0.17867336
2608 -0.18327738 -0.19979168 -0.4803146 9.8902696e-05 -0.3140561 0.18114199 0.10786754 0.1759868 -0.093504936 -0.25154865 -0.056104887 -0.056944486 -0.015673293 -0.23489207 0.3827088 -0.2951152 -0.16625583 -0.56364393 -0.0026720993 -0.07222118 0.17916694 -0.65679926 0.4009662 -0.054584835 0.21734434 -0.004266352 0.602326 -0.5776021 -0.2894586 0.3692831 1.014924 -0.38110796 0.09421162 -0.23304152 -0.51022834 0.32168487 0.35856676 -0.29976466 0.5199646 0.108433925 -0.058055498 -0.15457444 0.26630425 0.11709716 0.6353768 0.30430976 0.13700347 0.5655818 -0.17540364 0.25429556 0.38719934 0.15392141 -0.14655547 -0.07308351 -0.09063512 0.3490782 0.65432197 0.14845447 0.17799878 -0.18665282 0.41772416 -0.24190341 0.2904963 -0.36102444 0.25935513 -0.17692834 0.40496415 0.03666773 0.4120532 0.37437785 0.14950405 0.05589265 0.049019754 0.30084428 -0.00021404072 -0.16197811 -0.27194402 0.29142866 -0.16838472 0.23729965 0.52078134 -0.046399977 -0.1640175 -0.47683835 -0.46996057 0.13498078 0.47327295 -0.57849663 -0.27048495 0.13344543 -0.0804692 -0.57656705 0.0020622239 0.0507751 0.15563895 0.2575605 0.13549559 0.1324822 -0.0824909 0.21810955 0.5381703 -0.20434187 0.49133608 0.13119805 -0.08550071 -0.47707415 0.041589987 0.030000022 -0.32951173 -0.14131631 -0.27907443 0.017220786 0.42601186 0.25691137 0.15439959 -0.026554925 0.29803273 0.3008297 -0.2190961 -0.060657557 -0.065643355 -0.16596013 0.14775403 0.41761667 -0.076491736 -0.3763342 0.044701725 -0.22041358
3722 -0.83808124 0.7606975 -0.07124431 -0.17522216 0.30773994 -0.41513246 0.44525266 0.16550292 -0.20362 0.40049082 -0.08126985 0.012071807 0.19674666 -0.21379718 -0.15407531 -0.04601839 -0.66687727 -0.6614978 0.06407078 0.20609917 -0.23407853 -0.6994131 -0.16037434 -0.057952404 0.50249887 0.053200256 0.59537905 -0.21457948 0.022348698 -0.084855966 0.99025196 0.31769568 -0.29062226 0.2856888 -0.12032602 0.02344871 0.31764963 0.51150906 0.5466635 -0.48295745 0.22722031 -0.46908987 0.20273298 -0.77054805 0.63194865 0.084130764 -0.36260268 0.6194875 0.08481894 0.84519213 -0.038436193 0.27936873 0.12041889 0.48638713 0.07864416 -0.2022671 0.38078117 0.12425327 -0.30497628 -0.21228583 -0.15026878 -0.4548402 0.052835852 -0.03796441 0.2804981 0.14895192 0.11375695 -9.988278e-05 0.42473292 0.1346748 0.009577742 0.33239824 0.07339704 -0.29243714 -0.339958 0.45609632 -0.2707791 -0.064919524 0.24161062 -0.1563106 -0.23334965 -0.46768066 0.04616297 -0.30966905 -0.5825928 0.028762167 -0.356096 0.26818767 0.37691772 -0.015765851 -0.21139143 -0.12912507 -0.2544353 -0.21059828 -0.26411837 0.3007732 -0.14594583 -0.022509616 0.0028678083 -0.015840858 -0.07212143 -0.061539117 -0.20749514 -0.032937095 0.23212658 -0.24843006 -0.22420263 0.44909018 -0.6659132 0.18345572 -0.80747116 1.0777946 -0.038358618 -0.07401542 0.19583675 0.42493168 -0.08075379 -0.02880351 0.10175621 0.10452709 0.28782484 -0.056991093 0.15586688 0.34035313 -0.3735895 0.29438016 -0.084082045 -0.07053162
2556 0.034371912 0.22317547 -0.04922021 -0.21390688 -0.032545224 -0.37036183 0.22200252 -0.12705445 -0.078165166 0.7142708 -0.56107605 0.5069738 0.0204664 -0.1190069 -0.0006259994 -0.019172702 0.124618866 -0.024348706 -0.19462174 -0.7702542 -0.17255493 -0.6151571 0.2633079 -0.060025003 0.28232554 0.4022099 -0.24339575 -0.08682615 0.075674824 -0.30576554 0.55636245 0.17619704 -0.51758635 0.43260512 -0.10988967 0.12392008 0.23803867 0.38789904 -0.12527087 0.2773284 0.0799004 0.14745906 -0.18101296 -0.38835922 0.39544642 -0.18641731 -0.4756649 0.06484617 0.7733234 -0.014576136 -0.2254854 0.28897563 -0.280619 -0.46875176 0.19302498 -0.035126425 0.21808447 -0.35112712 0.28803778 -0.60185766 -0.1328342 0.28482127 -0.10897067 0.1628238 0.3641647 0.055588536 0.044545244 0.09253795 0.2611728 -0.30171406 0.35365763 0.18097167 0.47458896 -0.11978246 -0.6811307 0.113703504 0.5063767 0.27338293 -0.18841597 -0.23087421 -0.08045029 -0.54529977 0.1984402 -0.09837941 -0.3375967 -0.41977105 -0.08802329 -0.15468885 0.10585277 0.052876744 -0.09444895 -0.09944912 -0.1367701 -0.3976577 0.09368986 0.15987284 0.36103973 0.03943196 -0.30117622 -0.1868599 0.26151618 -0.37230045 0.077146016 0.086955644 0.029385494 -0.43720075 0.07462716 -0.23179206 0.31693769 -0.24942857 -0.16011211 0.073015735 0.37367696 0.7335471 0.36291525 -0.20291875 -0.08845298 0.29002237 -0.34571424 0.27287117 -0.20746274 -0.28435814 0.6569649 0.16087 -0.31970015 0.035703674 -0.05333512 -0.2561083
2946 0.034995336 0.69609284 0.38425538 -0.20849036 -0.51277053 -0.18745849 -0.0313603 0.13006185 -0.15142584 0.8434533 -0.1599554 0.336166 0.48675478 -0.22212686 0.009528709 0.14741161 -0.028304929 -0.46360958 -0.33394942 0.11721007 -0.08174159 -0.3654103 0.06245211 -0.45748082 0.5140349 -0.108162 -0.07901491 0.0027951628 0.34923288 0.46237013 0.19755588 -0.0018920432 0.6298643 0.36291227 -0.39834422 0.7670809 0.23937866 -0.37175316 0.7389453 -0.2683793 -0.11609531 -0.109676905 -0.21059372 0.10074161 0.24703498 0.13830473 -0.114317805 0.0072517893 0.3886341 0.21689284 0.25287998 0.19359809 -0.2058561 0.42667466 0.12208587 0.3736731 0.53970087 0.025181262 0.2532947 -0.16200227 -0.37192053 -0.04616293 0.16496089 -0.13608764 -0.3080598 -0.083818585 0.2618164 -0.22332557 -0.0022049155 -0.43113273 -0.23794177 -0.32207862 0.12176934 -0.10395673 0.20241353 0.044537667 -0.26255766 0.052390046 -0.10631494 0.24575265 0.30935785 0.22657624 -0.40285984 -0.1689899 -0.28873459 0.1867134 -0.23952058 -0.09819681 0.30429736 0.38149393 -0.6151592 -0.3608615 -0.32697332 -0.105841294 -0.22283933 0.30446643 0.32145834 0.14622198 0.1024482 0.22821538 0.42892778 0.11200797 -0.2841119 0.48476776 -0.20055103 0.053779982 -0.041715555 -0.3723647 -0.41654447 -0.3010456 -0.27067506 0.4934621 -0.123251565 0.26872578 -0.07601333 0.18241923 -0.004724634 -0.17966849 -0.15596877 0.015659679 0.30930054 -0.34895253 0.23301356 0.13349529 0.20592435 -0.01147756 0.23609504 -0.027784262
