1764 128
3722 -0.5962842 0.046730824 0.15132304 -0.15114507 -0.09591867 0.034866873 0.059341528 0.317584 0.11697629 -0.335775 0.34358636 0.16093554 0.40659252 -0.18258029 -0.8776265 0.47839853 0.41430327 0.16718507 0.10678609 -0.41161698 -0.047730222 0.011491514 -0.0018836207 -0.02977689 0.23097579 -0.063843764 -0.115652144 0.5634318 0.08758301 -0.06249337 0.37407568 -0.19800618 -0.19847125 -0.27634564 -0.14833765 -0.0057903277 -0.008529798 -0.57843155 -0.15261671 0.38374832 0.3255935 0.120072156 0.50156146 0.029919786 -0.0825068 0.11411906 -0.13057147 0.054156303 0.3122369 -0.4843183 -0.07347113 0.28021824 0.48943624 0.26265308 -0.118425764 -0.21804585 0.24927048 -0.005996717 -0.41253328 -0.7448392 -0.40552902 -0.14903013 0.081639305 0.213288 0.30022028 -0.17460358 -0.12263867 -0.3173251 0.2993542 -0.5524121 -0.11118732 -0.27403337 0.038207445 0.11221368 -0.3385333 -0.002148389 -0.38540488 0.16063662 0.31900632 -0.046033185 0.30656973 0.117499724 0.14601018 -0.2997604 -0.44507286 -0.02292133 0.16857885 0.3647623 0.21756062 -0.23055649 -0.013060435 -0.2609907 -0.018638534 0.16802177 0.48702788 0.25398198 -0.0060484125 0.079917915 -0.4146156 0.40495428 0.27182657 -0.104668796 0.54030144 0.16453457 0.02946844 -0.058149274 -0.34809062 -0.23202746 0.38723743 0.3363546 -0.0860119 -0.33970603 -0.055279266 0.40856656 0.29309303 0.07449558 -0.40064606 0.059444305 0.42907473 -0.39088887 -0.36951688 0.29433015 0.017638301 -0.27015883 -0.1574149 -0.36947018 -0.32836217 -0.14996472
2113 -0.6465105 -0.47455114 -0.060772043 -0.46390587 0.22525035 -0.35073584 0.021229956 0.5643965 0.17692651 0.3279402 0.1762217 0.027949778 0.44953218 -0.08644222 -0.14681213 0.25982282 -0.31555092 -0.20635608 0.19115716 0.12578472 -0.12655614 -0.16835949 -0.5453127 0.082287095 -0.48686403 -0.0870425 -0.65506667 0.20659198 -0.5800962 0.1809558 0.26608285 -0.40778145 -0.18206914 -0.083648354 -0.38788617 -0.035028286 0.032590244 0.01286668 -0.05034036 0.23070918 0.20851259 -0.095393956 0.12549673 0.2591457 0.40667447 -0.10130582 0.32904053 -0.062764764 0.19311178 -0.16394955 0.59106404 0.5422236 0.3936061 0.14807545 -0.0043432103 0.4103574 0.23467128 0.18972707 0.36081123 -0.078120925 0.49386007 0.34294775 0.03674285 -0.19176891 0.07159382 -0.16216733 -0.35889345 -0.11506357 -0.46837518 -0.25079784 -0.029451903 -0.0953812 0.372131 -0.32981735 -0.11951734 0.55789524 0.37129167 -0.11806885 -0.11862776 -0.28689113 0.07747647 0.40196416 -0.30348152 -0.29224792 0.20680687 -0.23792171 0.2614433 0.4690845 -0.038949512 0.31221554 -0.24127528 -0.2062518 -0.16830105 0.091920994 -0.0087101 -0.43666172 0.41658282 0.007759603 0.38363773 -0.11214357 -0.438107 -0.047321208 -0.03826357 0.3626161 0.0048176576 0.4104343 0.16157244 -0.6514359 -0.31833863 -0.22144976 0.0048597935 -0.15600902 0.16826463 0.14779234 0.13117121 -0.20811611 -0.21926963 0.17933813 -0.08419495 -0.26581314 -0.2299026 -0.12778531 -0.23396476 0.20132604 0.15771127 0.3590195 0.54516196 -0.19704713
812 -0.58707184 -0.3460816 -0.30215648 -0.1733672 0.21422908 -0.29700333 -0.08605056 0.66868204 0.24243918 0.14562911 0.11602793 0.28258595 0.46765625 0.03180377 -0.09606568 0.08620891 -0.044701636 -0.08370449 -0.2787205 0.17708197 -0.13548881 -0.09935346 -0.6731137 -0.03066088 0.25432187 0.055037744 -0.43335918 -0.055540275 -0.69175726 -0.040410034 0.26079318 0.017269233 -0.041666698 0.0525178 -0.6593879 -0.36475232 -0.004281954 0.17710479 0.019040849 0.04588202 0.32473513 -0.011464704 0.19111006 -0.07141872 0.08097346 -0.0012769551 0.34380022 -0.243693 0.5616205 -0.10473305 0.42321885 0.24006075 0.3806671 -0.06391157 -0.28915745 0.13364595 0.13404807 0.310632 0.12834784 -0.14736788 0.68080497 0.23295413 0.2924134 0.00943963 -0.65519595 0.24620178 0.025055343 -0.19643484 -0.3328745 0.043662168 -0.19947039 -0.48386917 0.2810741 -0.043938737 -0.2228662 0.45639217 0.4863004 -0.15088314 0.2755487 -0.18997088 0.04345909 0.17273451 -0.2383072 -0.17956701 0.42873886 -0.2249782 0.48450568 0.16902766 -0.13279706 0.3741587 -0.045491863 -0.3287312 -0.10246258 -0.017470162 0.0026543331 -0.5700823 0.4290242 -0.07401459 0.35150576 0.032318253 -0.51743186 0.2236002 0.2684832 0.20110126 -0.05706472 0.38830778 0.13326411 -0.44528705 0.057765976 -0.36916098 -0.040808734 -0.41247872 -0.160509 0.053384475 -0.0015717561 -0.26367152 -0.18623376 -0.091498956 -0.12724362 0.063934654 -0.2673108 -0.070710674 -0.5775884 0.029569354 0.17649323 0.16898753 0.5608646 -0.14911574
2214 -0.34011367 -0.47598568 0.2124418 -0.28694335 0.44641164 -0.076712966 0.5114316 -0.092916094 0.265203 0.058372963 -0.40006182 -0.061936084 0.7880654 -0.019757684 -0.29253715 0.101696566 -0.85398394 0.16150607 -0.53975606 0.58453685 0.10751541 -0.25796026 -0.11814733 -0.39030173 -0.12351555 -0.29985815 -0.24061714 0.12135227 -0.49419004 -0.08309109 0.3277163 -0.42102087 -0.11221535 -0.26216513 -0.5016551 0.5030726 0.047867373 -0.25841877 0.31526992 0.76120865 -0.056919426 -0.27478597 0.27855137 -0.20440534 -0.13019343 -0.2712692 -0.0805348 0.13289662 0.12828398 0.29924437 0.021533297 0.3332128 0.53561187 0.47517878 -0.08704605 -0.13294913 -0.35093987 0.23128276 -0.1681708 -0.20596874 0.23864289 0.15521178 0.44155106 -0.04097182 0.09167875 -0.13975917 -0.54855394 -0.34212077 -0.17411827 -0.68998057 0.051959805 -0.033021815 0.16964713 -0.4242933 -0.29002255 0.7842747 -0.64021486 -0.36393765 0.43025592 -0.60663486 0.12181619 0.3728213 -0.5320557 0.23803629 -0.8170118 0.41379875 0.17651838 0.12886181 0.009798081 0.30576405 -1.0035244 -0.08563672 -0.55421793 -0.03574891 0.51513404 -0.19912013 0.31642947 -0.11586423 0.13885868 0.069240235 -0.12423109 0.16686882 -0.48762035 0.100936264 -0.47336534 0.07796721 0.014827634 -0.8023167 -0.46662736 -0.17546901 -0.34977466 -0.40267155 -0.025027068 0.13513525 -0.050481793 -0.8635565 0.058838625 0.16319367 -0.30989465 -0.11778556 -0.15471703 0.5129507 -0.2809266 0.0226516 -0.09144619 0.2263224 0.4392112 -0.27642742
2112 -0.6102356 -0.24064498 -0.025863962 -0.21790403 0.13019201 -0.41753972 -0.10166965 0.8032766 0.33207116 0.22030856 0.22493853 0.12758388 0.45110574 -0.26820427 -0.19194151 0.26371297 -0.6531965 -0.27141547 -0.06984535 0.0680125 -0.05144951 0.12271147 -0.4134137 0.03749016 0.116600506 -0.08913205 -0.511774 0.09482859 -0.5019753 -0.052630212 0.4211789 -0.22914168 -0.26057625 -0.008369291 -0.2240949 -0.36021873 -0.20296216 0.048875242 0.22499898 0.039956618 0.33757815 -0.10718064 0.1556866 -0.13209455 0.34145796 -0.112466656 0.029120157 -0.24354853 0.31662276 -0.007751748 0.42476946 0.52387434 0.46078628 0.037157238 -0.4008655 0.4177214 0.35730025 0.44995555 0.03687075 -0.22042096 0.6052421 0.19478762 0.25673434 -0.20325372 -0.3301916 0.15702707 0.003482152 -0.3561475 -0.5502175 -0.42168722 0.028432185 -0.20037693 0.08139475 -0.09084994 -0.05261053 0.27835947 0.3783152 0.014564559 0.09017074 0.14352165 -0.22167644 0.123024724 -0.43372485 0.04221307 0.22315492 0.03244245 0.45933372 0.47899637 0.073588364 0.18587472 -0.33610436 -0.3122029 -0.12397936 -0.20366684 0.03077804 -0.3792532 0.32409087 0.3778929 0.29451868 -0.10795143 -0.36115333 0.26015106 0.06217042 0.1572625 0.1059832 0.30330756 0.22235714 -0.66340375 0.14166848 -0.079682484 0.07908859 -0.29167008 0.21363193 -0.067987464 0.34437627 -0.034202393 -0.1963968 0.009678357 -0.4292994 -0.11938518 0.0012514675 0.062903464 -0.052140318 0.21005 0.3047356 0.027634056 0.2171141 -0.26953182
1711 -0.9476082 -0.04781084 0.02551743 -0.5365573 0.059732266 -0.6324046 0.2534299 0.13113262 0.6175852 0.14325246 0.5347378 -0.2721184 0.44806093 0.034531668 -0.062667035 0.33828354 -0.42847198 0.17029642 0.068456 -0.3918031 0.538847 -0.39315894 -0.38560107 -0.28302422 -0.8527118 -0.44991812 -0.12856637 0.022358378 0.039737877 0.1203121 0.022142341 -0.040785212 0.08110417 -0.36337376 -0.25733697 -0.47704175 -0.5476213 0.1088079 0.058356427 0.22197431 0.10930188 -0.1692541 0.16020927 -0.12571527 -0.057287283 -0.34461227 -0.1555619 -0.08590944 0.8585471 -0.84106636 -0.52522576 -0.31448823 0.7308486 0.5073121 0.1226772 0.072958596 -0.36620098 0.53979313 -0.061017893 -0.034453403 0.04668364 0.23830001 0.11439307 0.19096585 -0.46587136 -0.5183807 -0.113648325 -0.30462903 0.06307844 0.15469208 0.2862596 -0.20164451 0.27784306 -0.19832247 -0.25753576 -0.1769208 -0.65790856 0.10689479 0.94988817 -0.20319222 0.16303632 0.15465118 0.14945726 0.57502073 -0.6341481 0.22387725 -0.35616314 -0.090744324 -0.6694925 -0.19622637 -0.38971308 0.14342433 0.37487924 -0.3997095 -0.11420335 -0.6459411 0.30760136 -0.26971984 0.19608639 0.40539235 0.020538248 -0.063304536 -0.6308741 0.8256571 0.15592046 -0.39425716 -0.21801485 -0.12603597 0.1260382 -0.3608808 -0.3007945 -0.19526194 0.061804038 0.95266604 0.7471335 -0.5108186 -0.7867455 0.1696609 -0.2669749 0.032977212 0.13486427 0.3931297 -0.009467409 0.1244311 -0.038651634 0.26481342 0.06801461 -0.4612209
1705 -0.7561755 -0.20192905 -0.5869611 -0.24912058 0.036379557 -0.49090677 0.6732221 -0.04588285 0.27749535 0.1393295 0.1372396 -0.010150209 0.7343383 0.25262377 -0.56458974 0.47178617 -0.18148005 0.13466325 0.45284495 -0.16232058 0.28706613 -0.33155036 -0.45837817 -0.014947356 -0.25596294 -0.22236808 -0.45478192 0.2379441 0.044923387 -0.26243764 0.07063464 -0.06460197 0.36968318 -0.83825636 -0.17310466 0.022532348 -0.29569274 0.16348541 -0.36764935 0.55186826 -0.43151298 -0.31164402 0.15152371 0.23840748 0.036235493 -0.3607307 -0.16784693 0.00014282398 0.61556685 -0.87290746 -0.60570526 -0.3816776 0.46509615 0.8336897 0.20825985 -0.06112047 -0.09530406 0.33903226 0.007158832 0.2235916 0.21812277 0.33892888 0.17216592 -0.090588644 -0.27283666 -0.39349988 -0.14327307 -0.030166144 -0.2767235 0.37465233 -0.23252395 -0.16556296 -0.0051061166 0.06168324 0.0863163 -0.044761933 -0.6500331 0.21461599 0.65436035 -0.3929893 -0.030495336 0.052167963 -0.16907023 0.15274714 -0.66316974 0.1624543 -0.38910392 -0.3540671 -0.69589615 -0.17884573 -0.09703213 -0.020810988 0.22918439 0.044019904 0.36281654 -0.76407975 0.6691865 0.042540185 0.102389865 0.6009492 -0.07366109 -0.3407128 -0.91551536 0.6161842 -0.24571443 -0.5297252 -0.34880072 0.02161581 0.04521138 0.09540246 -0.07355324 -0.3630331 0.60834944 0.70546407 0.5402893 -0.7633155 -0.8007977 0.22754568 -0.039948195 0.201456 0.055566214 -0.121202 -0.0121756075 0.02290618 0.09186359 0.3903578 0.48822835 -0.16241364
1201 -0.83444875 -0.60133684 0.25709426 -0.034793407 0.72011834 -0.39493778 -0.0027138242 0.1922017 -0.25665715 -0.21181937 0.3957543 -0.16939242 0.56129164 0.25175476 -0.958385 0.5131678 -0.29539362 0.109860405 -0.077646516 -0.27889627 -0.54293233 0.4745941 0.013629353 -0.4368398 -0.43747178 -0.02602873 0.03866011 0.46834394 -0.17626396 0.15011339 -0.056841254 -0.4441431 0.20673974 -0.45706782 -0.68173337 -0.08213667 0.07657658 -0.34318182 -0.03617677 0.24539685 0.2500216 -0.16134721 0.35022405 -0.48472407 -0.3936451 -0.26583984 -0.034419917 0.16900945 0.7852823 -0.21787779 0.09655585 0.18222779 -0.01129929 -0.11822859 -0.3010158 -0.4373896 0.3403776 -0.04895249 0.17523015 0.4498518 0.45071808 0.5092002 0.05956233 0.7286255 -0.30999878 -0.54815495 -0.28525534 -0.040111072 -0.82830215 0.4640531 0.099110566 -0.14204538 0.22217794 -0.47038445 -0.46577626 -0.17529081 -0.4062515 0.3155165 0.570743 0.07029506 -0.005586642 0.23219818 -0.44655746 -0.06990902 -0.6980165 0.26722658 0.24825668 0.5561318 -0.16297393 0.08002405 -0.12413491 -0.29190087 -0.15019855 0.2859249 0.15374279 0.22456864 0.5244987 0.05894376 0.7431467 0.21283871 -0.80395967 0.1596286 -0.77727157 0.6584892 -0.26828018 0.12566574 0.28004864 0.7353992 0.38520712 -0.49194503 -0.20741545 -0.8646297 -0.23090091 0.7370106 0.15514444 -0.43014207 0.17280339 0.027111512 0.2749453 -0.10736895 -0.3540603 0.40391955 -0.7531053 -0.847486 -0.31440976 -0.033969134 -0.02298397 -1.3722177
2102 -0.6814978 -0.46722767 -0.29555345 -0.23198786 0.061612677 -0.4262163 0.03705465 0.615473 0.14075767 0.30959857 0.12113557 -0.083840564 0.17107497 -0.10262142 0.38556015 -0.06915072 -0.23099262 0.088266045 0.24978645 0.3663629 -0.16630454 -0.12346686 -0.6498138 -0.085063726 -0.0041510407 -0.008299455 -0.23241709 0.075963944 -0.63678 0.13280427 0.00013675953 -0.19336993 -0.30908817 0.028612074 -0.43405035 -0.5654398 -0.23052412 -0.014159882 0.45092288 -0.35480708 0.28149855 -0.31724685 0.15189573 0.013895495 0.016883582 -0.09050055 0.39281034 -0.13723177 0.39669135 -0.12721322 0.18807985 -0.0214754 0.3752411 -0.08479092 0.005353768 0.6796802 0.17791373 0.5974727 0.23456903 -0.2240076 0.5966177 0.19250715 0.08933404 -0.20874539 -0.14567205 0.49361446 -0.20966394 -0.21389434 -0.40696514 -0.50661504 -0.3385131 -0.5700891 -0.061422594 0.1141559 -0.38393444 0.13844304 0.12706189 -0.07773596 0.13244422 -0.16375786 -0.08184408 0.039958786 -0.25798377 -0.2954038 0.4780119 -0.08600454 0.21200483 0.45179465 -0.27685317 0.14582592 -0.12758894 -0.008951998 0.005963516 0.016129851 0.1918724 -0.35436946 0.37641707 0.24413054 0.1354903 -0.020188482 -0.0703184 0.23804669 -0.120277405 0.105511986 -0.17395769 0.4564231 0.10054305 -0.34618872 0.036036912 -0.3048827 -0.331344 -0.5283535 0.4574871 0.25631407 0.3508405 0.19293354 -0.099999666 0.08090546 -0.09755158 -0.02382121 -0.49574736 -0.43286073 -0.46191478 -0.062091753 -0.06640351 -0.071298346 0.61728716 -0.16546956
2211 -1.0598662 -0.53464925 0.15578057 -0.29849815 0.3243282 -0.1809664 0.16839209 0.12469055 0.0828685 0.46471658 -0.2657482 0.2979086 0.729618 -0.04609517 -0.21511358 0.32453933 -0.63585794 -0.18434083 0.27137795 0.535684 0.018078549 -0.53768086 -0.19162354 -0.10322689 -0.5121243 -0.17844123 -0.2685481 -0.025213737 -0.5313116 0.002683743 0.5263964 -0.4773167 -0.18488988 0.16908054 -0.38681576 0.21107392 -0.022699563 -0.11851081 0.19994451 0.38691512 0.12716234 -0.008638837 0.26956767 -0.20282546 -0.20045935 -0.3274151 -0.12342749 0.15316641 0.2614951 0.11041871 -0.06860512 0.4681073 0.4795399 0.37969977 -0.2114348 -0.015475973 -0.24180818 0.38850662 -0.14059825 -0.4180976 -0.10655783 0.2284264 0.29357532 0.21294038 0.1541426 -0.20132223 -0.68615496 -0.48286155 -0.37615448 -0.26092246 0.20596632 0.02158011 0.3037028 -0.5637827 -0.32414156 0.6307604 -0.33729395 0.0074293455 0.13024732 -0.45905146 -0.09445901 0.2672155 -0.5294078 -0.03084617 -0.3024997 0.029069705 0.1481479 0.41386902 0.05904276 0.43172657 -0.62359345 -0.5759597 -0.40005913 -0.14417993 0.18145195 0.09666151 0.48997498 0.16032286 0.37695754 0.13078544 -0.48343375 -0.0007572139 -0.2238382 0.28610042 -0.25722662 0.4747734 -0.17283055 -0.27360833 -0.5725118 0.2031609 0.082353 -0.20594032 0.24498612 -0.13784127 -0.12658495 -0.8888946 0.019976728 -0.009078874 -0.3032284 -0.30032867 -0.009458195 0.33652285 0.2459529 0.21718284 0.1763634 0.22579269 0.34496158 0.091450445
2110 -0.97633004 -0.16500235 -0.18239759 -0.46404535 0.15713058 -0.24010153 -0.02054697 0.55012906 0.31745633 0.25512213 0.26431823 0.07396043 0.32592294 -0.13948713 -0.07112668 0.03379925 -0.23504683 -0.24232665 -0.07237308 0.13156852 -0.32261482 -0.08492173 -0.56148326 -0.0022339236 -0.0069557745 -0.44534352 -0.40483502 0.102426656 -0.68795055 -0.09447856 -0.01668931 -0.39509106 -0.24753734 0.13038157 -0.36524573 -0.37877297 0.33963066 -0.17434125 0.2838762 -0.01801899 0.4473939 -0.30801567 0.034179106 -0.05355343 0.3369349 -0.11613329 0.32042116 -0.15546998 0.28914788 -0.38155857 0.20591809 0.009858533 0.5244883 0.02406481 -0.21174668 0.3744575 0.5155331 0.53687686 -0.06478032 -0.14260882 0.53665507 0.024290163 0.09414195 0.1006246 -0.3026108 0.19016795 -0.35527527 0.12358102 -0.41574216 -0.22137815 -0.07086836 -0.11328447 0.1378019 0.010133346 -0.19106649 0.33827797 0.3022656 -0.04689285 0.10469766 0.1053147 -0.066014946 0.12647507 -0.2475454 -0.03504353 0.3004682 -0.5298488 0.55344504 0.4828618 -0.2561078 0.29223928 -0.2126955 -0.3881209 -0.09568483 -0.48508638 0.13502909 -0.3579006 0.6616294 0.105329335 0.57515156 -0.054518275 -0.26659837 -0.02849665 0.13986771 -0.013990455 0.15428513 0.3739496 0.29189104 -0.42013586 -0.032617074 0.041351482 0.18224362 -0.37999406 0.39316127 0.06835623 0.20420547 -0.13093351 -0.21796016 -0.019736683 -0.24120721 -0.19041938 -0.1413517 -0.20603089 -0.25558376 0.12931582 0.17321928 0.08197188 0.41392195 0.08750087
601 -0.7120522 -0.033285473 -0.46639463 -0.4348937 0.06478538 0.41988343 0.013185362 0.5637425 -0.09106803 -0.18777096 -0.0759449 0.35139456 0.04186679 -0.14116584 0.14542967 -0.4058557 0.33388993 0.7538106 0.16953908 -0.2849978 0.35035074 -0.49065036 -0.50025624 -0.22710976 -0.38258892 -0.6873628 0.08475347 0.78948265 0.034290247 -0.2759445 0.26948208 0.057826918 0.1591939 -0.6103672 -0.47902176 -0.08546178 -0.5875856 -0.21080855 0.18599255 0.61347747 0.25743216 0.37534156 -0.08447718 -0.5748574 -0.38468042 -0.43284103 -0.41261646 -0.08801882 -0.13436364 -0.16137666 0.30783033 -0.027956286 0.34502178 0.4052906 -0.36461878 -0.28574473 -0.46060878 0.35955986 -0.16002855 -0.1895828 0.59421444 -0.23274913 0.3846255 0.15280584 -0.055558678 -0.029667398 -0.19660056 0.2755981 -0.31589195 -0.08583543 0.015998242 0.010751368 0.027607337 0.03594568 -0.66995865 -0.0361449 -0.11704885 0.0026075952 0.19722043 -0.27771696 0.21776362 -0.16185765 0.039345585 -0.7767908 -0.17952207 0.536151 0.25912234 0.33741075 -0.55624974 0.12521067 -0.6852758 0.028483037 -0.013664202 -0.5245437 0.18918909 -0.1274398 0.55900973 0.6178862 0.37480018 0.21845731 -0.3341514 -0.19209388 -0.45701864 0.70475775 -0.12159266 0.09086297 -0.30790722 -0.08696861 0.6750791 -0.505912 -0.19950221 0.13271345 0.10054765 0.7528925 -0.092456475 -0.29208097 0.02374458 0.3529202 0.47851077 0.14608148 -0.8669439 -0.25039977 -0.38098568 -0.546403 -0.23774655 -0.03394609 0.77536124 -0.23626147
2309 -0.4468727 -0.2569008 0.16007291 -0.41763246 0.37699556 -0.18290855 0.6116047 -0.033183925 -0.16419919 0.55909896 -0.2136245 0.05303227 0.76898164 -0.08934619 -0.4094042 0.12599352 -0.782501 0.10220928 -0.02601364 0.2641952 0.27613065 -0.23806448 -0.4483887 -0.3001205 -0.09699448 -0.3901689 -0.06355112 -0.078465044 -0.7112723 -0.1694299 0.07197277 -0.49063617 -0.55189234 0.33243856 -0.3220757 0.6645267 -0.048698574 0.06050283 0.27154052 0.69607306 0.28881717 -0.09485626 0.33394423 -0.11758999 -0.11942574 -0.30698022 -0.10509805 0.40401852 0.28176138 0.17691377 0.039033514 0.4091039 0.7980509 0.15415636 0.029317444 0.043774653 0.2242474 0.38547412 -0.3476616 -0.31253055 -0.083327286 0.34547502 0.3998753 0.22246948 -0.19562964 -0.54455686 -0.72170466 -0.67550534 -0.14223787 -0.5646481 -0.051996168 -0.06403543 0.38019228 -0.38268185 -0.1844692 0.23184024 -0.29140973 0.061147623 0.04909288 -0.14544792 -0.20212936 -0.01266428 -0.4556722 -0.13165043 -0.19641754 0.6021531 0.3488154 0.19908963 0.074128255 0.113235205 -0.9279677 -0.3941734 -0.5437094 -0.020681437 0.39026895 -0.030001083 -0.1667433 -0.12472102 0.13884018 0.21331508 -0.05175295 0.2792973 -0.49736142 0.2947222 -0.022110727 -0.03176662 -0.17529735 -0.34874076 -0.23442231 0.17360929 0.052903887 -0.11279747 0.078219146 0.45452675 0.12629652 -0.72684705 0.17108564 0.053012263 -0.06751503 0.16218312 0.23378591 0.6139012 -0.5200716 -0.025691984 0.28980657 0.50849545 0.55619746 -0.27781337
1513 -0.7376014 -0.169218 -0.09233845 -0.23592551 -0.04478267 -0.26592588 0.10689196 0.78794587 0.49747825 0.041305732 0.2886312 0.25880188 0.17314577 -0.07724838 0.01707587 0.6179753 -0.10455892 -0.37007472 -0.041883387 -0.05744268 0.02697631 0.15901552 -0.36475766 -0.07355035 0.11316944 -0.25183764 -0.113040656 0.06903107 -0.894574 0.12740183 -0.030893894 -0.39719862 -0.20445994 -0.023220582 -0.4064459 -0.10695835 -0.20915534 0.31082317 -0.2759321 0.16371171 0.34296992 0.09165223 0.12096783 -0.00048036547 0.20195735 -0.070576675 -0.009171819 -0.21918416 0.117714204 -0.044501632 -0.039991055 -0.009059607 0.47356224 0.2955161 -0.3649828 0.33347642 0.22272772 0.70619035 0.090448305 -0.6040358 0.4302956 0.2923801 0.0060863686 -0.15241948 -0.38594216 -0.2733179 -0.17307697 -0.1938158 -0.38782474 0.042239904 -0.45974454 -0.40264454 0.21616201 -0.02748892 0.20989093 0.24428335 0.59892976 -0.010149371 0.24343151 -0.15100662 -0.21962166 0.24693398 -0.21882074 -0.15650277 0.14667495 -0.16476361 0.25878644 0.4533126 -0.09502894 0.1050063 -0.1271276 -0.25305045 0.045532998 -0.035398677 -0.106786765 -0.5209966 0.29439744 0.46888027 0.03855133 -0.28462282 -0.33349127 -0.28691393 0.19970377 0.011672346 0.25095433 0.40744957 0.31925344 -0.31220987 0.24658988 -0.5444301 0.091271445 -0.30445087 0.068546906 -0.14772594 -0.044721503 -0.021927103 0.03404937 0.3590449 -0.08988258 0.112825856 0.034223467 -0.25949663 -0.22130959 0.0069814944 -0.10220915 0.052089393 0.7380748 -0.17061707
1512 -0.31185722 -0.19028176 -0.27146634 0.036781386 -0.16709843 -0.06969659 -0.10783828 0.64468527 0.6622373 0.018845342 0.20822583 0.15578233 -0.010176655 -0.10610838 -0.14014022 0.6163709 -0.0539096 -0.30140853 -0.05793269 -0.09221766 -0.054041907 0.10693197 -0.33086818 -0.09595522 0.072481595 -0.2938025 -0.17937046 0.21676528 -0.7863837 -0.13705832 -0.14730623 -0.2706552 0.09973805 -0.18447559 -0.08196299 -0.011480781 -0.42663664 0.1816584 -0.40532294 0.5349878 0.17860605 -0.19977304 0.2081927 -0.04222007 0.0136681525 -0.15746863 0.34326154 -0.27464098 0.36224833 -0.103459015 0.31466833 0.29502803 0.6125309 0.34637114 -0.106979124 0.32673573 0.19876376 0.17449781 0.17660405 -0.4870492 0.50720334 0.2807036 -0.021832928 0.3690595 -0.36032903 -0.33322677 -0.2947497 -0.39985946 -0.47045425 0.029927684 -0.17351063 -0.46174854 0.49822858 -0.4641567 -0.002349094 0.25694856 0.4938424 0.2518313 0.21051095 -0.13144371 0.008859405 -0.15086764 -0.76398647 0.13393389 0.2336999 0.30791765 0.2502769 0.4260684 -0.18274921 -0.14638492 0.0379236 -0.021409942 -0.29612693 -0.22865798 0.21567985 -0.44329354 -0.07669477 0.3520078 0.1720827 -0.1200683 -0.059965644 -0.2496155 0.6939679 -0.15955147 0.15360336 0.19225001 0.24108914 -0.3978814 0.38295397 -0.1339506 -0.15365495 -0.6241362 -0.17656991 -0.21461812 0.14623123 0.14175263 -0.3540422 0.42812666 -0.04064113 0.0041857106 -0.08048456 0.13319053 -0.16055249 0.13371453 0.030728646 0.22205673 0.59900695 -0.097029656
1502 -0.35736713 0.104855075 -0.15840234 -0.09514822 -0.14412734 -0.13866927 0.007228228 0.84327954 0.6149796 0.09663284 0.26393062 -0.11694963 -0.007929144 -0.43590063 -0.4110398 0.77478707 0.033921905 0.03645951 -0.043408845 -0.352047 -0.16845693 0.16142295 -0.09938915 0.12718765 0.18759753 0.05815886 -0.27669513 0.34560087 -0.6232215 -0.18921365 0.3125109 -0.47777808 0.41267145 -0.10146001 -0.3549135 -0.40045866 -0.31701377 0.061151717 -0.44950128 0.38598523 0.2838453 -0.14002548 0.009196059 -0.11784957 0.066941984 -0.2641007 0.015997866 -0.6461925 0.32304075 0.17023002 0.07610343 0.15236717 0.11061209 0.5702102 -0.17043312 0.5866586 0.00028998597 0.28591555 0.13458444 -0.62731403 0.5327885 0.37850302 -0.08645664 0.3438104 -0.37737477 -0.3033893 0.1250841 -0.07043528 0.08868511 -0.10919204 -0.047128588 -0.25223002 -0.18252069 -0.16997847 -0.06259282 0.42235026 0.36882758 0.25735298 0.2655262 0.18834363 -0.18107374 -0.0745868 -0.7420565 0.29169604 -0.1047506 0.37683576 0.22372897 0.36750728 0.17945789 -0.44783688 -0.088075384 0.11641436 0.18927823 -0.14057705 0.013375657 -0.00636196 -0.04318395 0.53147733 0.013871408 0.100337036 0.05244228 -0.17269191 0.6732247 -0.042815834 -0.18511926 0.062150445 -0.12013707 -0.27291852 0.54001445 -0.21575722 -0.33510473 -0.46431044 0.23883823 0.04440854 0.3081027 -0.2781266 -0.3812144 0.2040606 0.25808504 0.11067117 -0.0087641105 0.15511537 -0.15433542 -0.52168155 -0.13924372 -0.029498335 0.13148202 -0.18003501
1804 -0.22988632 -0.4410796 -0.079038404 -0.6343059 -0.03689479 0.1303646 0.3683807 -0.18392557 -0.0062200273 0.70914584 0.5770074 0.05054815 0.44259617 0.17758538 -0.8070917 0.5215067 -0.11497568 0.3217836 -0.21201828 -0.23376137 -0.1472005 -0.3629467 0.11491429 0.063772805 -0.20168643 -0.1514433 -0.30326435 0.25325552 0.023974739 0.31308138 -0.34576902 -0.36222866 -0.19831261 -0.15462796 -0.55181015 -0.0436437 -0.1289922 0.17502353 0.01784605 0.2722401 0.5295979 -0.05719008 -0.26974007 0.26234135 0.06591727 0.35776585 -0.36311188 0.41513586 0.45656037 0.20690466 -0.17641222 0.04936011 0.32549447 0.764769 -0.21996078 0.02307256 0.026798096 0.12625718 0.09535861 0.3094757 0.12039447 -0.06387643 0.43983784 0.3811271 -0.59979504 -0.3906703 -0.72231054 -0.27943757 0.106667824 -0.745901 0.040455718 -0.95791364 0.09034475 0.15580355 -0.079645775 0.20225501 -0.4215412 -0.10245119 0.55241466 -0.22901335 -0.026954597 -0.03595574 -0.055099487 -0.28626195 -0.31802738 0.7209457 0.50887835 0.47859097 -0.12847902 0.20011552 -1.0291584 -0.50314695 -0.76070523 -0.025024522 0.70086163 -0.13528843 -0.1787817 -0.24963126 0.0743366 0.1485967 0.32438064 -0.2580266 -0.6536697 0.47524253 0.059585955 0.4848061 -0.61195415 -0.29193574 0.19679962 0.11036243 0.8441181 0.02644847 0.7577889 0.48590314 0.52105564 -0.56617767 -0.09970731 -0.028032808 -0.6410751 -0.017916692 0.007942821 0.10627579 -0.72506565 -0.12597722 -0.38339883 0.36142474 0.13468516 -0.4494934
2010 -1.0797524 0.17401288 -0.12198422 -0.2120223 0.5752098 0.15828255 0.23071283 0.1315435 -0.3734662 -0.58736926 0.11271245 0.26045033 0.41207045 0.2213675 -0.12752074 0.4667375 0.16901305 0.38030216 0.14229448 -0.19517373 -0.8248119 -0.47320256 -0.6110059 -0.5043753 -0.28085163 0.25700256 0.19872864 0.5444554 0.0075707943 -0.8535757 -0.41316363 -0.3103528 0.20661497 -0.48410457 -0.10152288 -0.05882986 -0.43829253 0.0920174 -0.11535941 0.61683434 0.20767918 -0.12161079 -0.16674773 0.2021133 0.6795658 -0.33874053 0.23150158 0.060949326 0.36862335 -0.21879521 -0.38441214 -0.3068866 -0.2862167 0.18425308 0.046771586 -0.07946804 0.5052595 0.30962887 -0.00086156715 0.15458988 0.5936465 0.0009660986 0.17789608 0.1717617 0.07432891 -0.7485232 -0.48566294 -0.3104867 -0.6880086 -0.27977058 -0.10285914 -0.55477804 -0.50635463 0.47512293 -0.7306212 0.48930487 0.043394573 0.51606584 0.90555024 -0.071722426 0.33068147 -0.1928245 -0.5134911 -0.103690416 -0.62299365 -0.16658577 -0.07774555 -0.0180924 -0.28500295 -0.13389915 -0.5845303 -0.13270085 0.07067166 -0.17723584 -0.05741186 -0.087499164 0.40050507 -0.4481546 0.45374355 0.19820364 0.3337527 -0.13092557 -0.0681051 0.62456286 0.2282936 -0.09706525 -0.8403464 -0.14414318 -0.06649529 0.4068513 0.22668624 -0.53913516 0.22314273 0.33994573 -0.21559729 -0.2949782 -0.4922801 -0.039183483 -0.41014928 0.31968874 -0.06617395 -0.1253531 -0.677819 -0.38176146 0.29584193 0.34493437 0.43646133 -0.40565157
1501 -0.37958667 0.32761016 -0.03269793 0.36799482 -0.06780826 -0.25740957 -0.05591433 0.56853807 0.4600588 0.027830044 0.039591033 -0.099739306 0.023867028 0.19173378 -0.46127734 0.7607103 -0.003006605 -0.15029278 -0.1390427 -0.10350079 -0.40064096 0.29163334 0.30168375 0.09552524 0.25751343 -0.44207424 -0.39752397 0.20960304 -0.6094171 -0.27936754 0.22870228 -0.35112283 0.4639635 0.07016712 -0.36741114 -0.10424952 -0.5542492 0.3385355 -0.5091705 0.64723843 0.15461999 -0.2555331 0.17904343 -0.17103052 0.15607567 -0.36434963 -0.14727873 -0.5407662 0.18472303 -0.14864439 -0.26243803 0.116386764 0.28513178 0.25796443 -0.32838568 0.23155014 -0.03628253 0.27172512 -0.20370129 -0.5785656 0.19461724 0.22439072 0.055730112 0.29665896 -0.32837206 -0.4165987 0.04190486 -0.17416757 -0.1561437 0.015213652 -0.15574668 -0.121023156 0.32745868 -0.49233958 -0.059245884 0.80975044 0.59064096 0.2810622 0.47215685 -0.14364886 0.037264306 -0.064830214 -0.62648135 0.10741746 0.02216956 0.31611755 -0.21165791 0.4005967 0.113911845 -0.2854111 -0.27655095 -0.15868518 -0.060071096 -0.111986734 -0.021840755 -0.36680084 -0.27962393 0.6287899 0.11806497 -0.110716954 -0.060472805 -0.40109047 0.42817494 0.1013962 -0.17711835 0.25018337 0.050995488 -0.3673248 0.379114 -0.44002482 -0.19756243 -0.48902413 0.28511956 0.20015396 0.1500611 0.10718983 -0.26329306 0.013612912 0.2815121 -0.056555927 -0.14591686 0.12334869 -0.38738874 -0.3496107 -0.102153175 -0.0034986304 0.42432332 0.07861046
2633 -0.85389686 0.021968499 0.107818976 -0.42914155 0.3797662 -0.57566196 -0.050023545 0.16334938 0.58728784 -0.35957086 0.4449301 -0.3477883 0.3271269 0.17415093 -0.37413928 0.2749542 -0.19280724 0.6338004 -0.20184074 -0.040453147 0.03382228 -0.3460098 -0.43236077 -0.14880948 -1.2628886 -0.3814329 -0.2596874 0.2403203 -0.053437304 0.09230086 0.0820119 -0.1892156 0.47017452 -0.3175597 -0.18286024 -0.37980363 -0.483593 0.19523533 0.58372104 -0.13878947 0.5239218 0.1736394 0.46707076 0.12510619 0.016980847 -0.13050343 0.07676662 -0.29348785 0.7316735 -0.16013336 -0.43231854 -0.2745739 0.38080758 0.17518185 -0.074360065 0.103225164 -0.7355084 0.46658725 -0.17457628 -0.25835598 0.39277008 0.34336177 0.37352273 0.05324557 -0.15613936 -0.3337683 -0.13789192 -0.8695333 0.02752706 -0.43712953 0.25852507 -0.27152464 0.28546494 -0.36060554 -0.34693274 -0.20682909 -0.15355037 -0.14213021 0.40618402 -0.49678966 -0.2693849 -0.18286936 0.47176126 0.6772708 -0.2867699 0.33915207 -0.3615854 -0.13770601 -0.52568036 -0.06916183 -0.054014206 -0.22711186 0.46523944 -0.58919585 -0.0016576287 -0.22960664 0.81604904 -0.2985977 0.15506199 0.6304428 0.17238452 -0.3503652 -0.23972271 0.87822646 0.4701872 -0.21667762 -0.1479705 0.13683063 0.11897071 -0.47360364 0.26717874 -0.23978628 -0.3667625 0.6380783 0.9394952 -0.59050715 -0.36183438 -0.030921927 0.07915376 -0.2567879 -0.1475594 0.31625807 -0.59560865 0.27203384 0.029568529 0.09579314 0.06749001 -0.5984406
1909 -0.75091815 -0.16510266 0.016385484 0.31066415 0.4504481 0.045236684 0.61803246 0.96173984 0.5297547 0.3532165 0.52297944 -0.34659576 0.27286702 -0.23455362 -0.6328674 0.09702915 -0.8285381 0.66028786 -0.3317537 0.16244449 -0.2709653 0.124289796 -0.6621181 -0.6249968 -0.15156223 -0.23493849 -0.40670392 0.14112628 -0.15675585 0.07167597 0.25325257 -0.14333983 -0.0077248635 -0.514039 -0.47888818 0.35178414 0.41848537 0.17933463 0.37856796 0.09743305 0.31914005 -0.39130408 -0.07239997 0.2015786 -0.12771739 0.17220968 0.29249144 -0.38761318 -0.44018608 -0.40402514 -0.35306093 0.25118002 0.32300937 0.4118044 -0.380375 -0.13980593 0.18288851 -0.47426665 -0.3284535 0.34168187 0.3334226 -0.52171487 0.5030918 -0.18889558 0.20454493 -0.0073785717 -0.20152633 -0.65655047 -0.6469315 -0.5149326 -0.16470672 -0.23941599 -0.47292957 -0.60092086 -0.19958232 0.23219907 -0.06370519 0.3558505 0.6951461 0.42542583 0.22580735 0.1048369 -0.48872492 0.28226337 -0.24164955 0.17259143 0.33105224 0.6529128 -0.600209 -0.34580937 -0.25055242 -0.74991316 0.13876471 -0.31925535 -0.13116644 -0.6522299 0.019776396 0.5083937 0.35739297 0.3495023 0.11256189 -0.07434891 -0.7665761 0.33195794 -0.4801824 -0.068812706 -0.03596151 -0.06302153 1.0414541 -0.6612189 -0.13517217 -0.36840156 0.10839601 0.51748794 0.55133516 0.35326937 -0.30341265 -0.051708307 -0.0866258 0.24646568 -0.37990245 -0.168098 -0.09131022 0.1519925 -0.3026882 -0.5495579 -0.29244813 -0.3780024
1803 -0.20448746 -0.469388 -0.114988156 -0.26257363 0.21052079 0.31868777 0.62960947 -0.27192992 -0.06042848 0.5560712 0.16374032 -0.23566622 0.28254414 0.4415127 -0.6284328 -0.037367478 0.08002545 0.4077231 0.13550799 -0.6215021 -0.1672549 -0.39942652 -0.23197497 -0.38950285 -0.3328862 0.049528256 -0.054733682 0.43055913 -0.30163822 -0.20420085 -0.25075868 -0.13102692 -0.16605091 -0.30287683 -0.67704254 -0.30342582 0.17099854 -0.003926221 0.08638497 0.28831372 0.52450114 0.14481002 0.018556572 0.21280546 -0.5191855 -0.28523338 -0.63979155 0.31846747 0.83312476 -0.28701347 -0.41405442 -0.4670228 0.19255164 0.8570288 -0.40590927 0.30465817 -0.0009917999 -0.15607634 -0.0933185 0.19717921 0.5154292 0.37535304 0.36941555 0.51524544 -0.20560429 -0.15327904 -0.5315353 -0.22231753 0.46274066 -0.48675922 0.4584499 -1.0621505 -0.11193598 0.11593506 0.17830732 0.07940459 -0.47826138 -0.08601676 0.8672032 -0.16464584 -0.24131846 0.23403667 -0.28427958 -0.010512006 0.0004935338 0.5545354 0.2633472 0.3834886 -0.17366673 -0.0050779292 -0.7931148 -0.17630938 -0.4862343 0.20018214 0.08153219 -0.5219242 0.10048455 -0.53789735 -0.0505352 0.40120152 -0.18599735 -0.13443348 -0.93572694 0.6317389 -0.105517946 0.04701882 -0.3529488 -0.08854034 0.08820627 -0.33571336 0.8887054 -0.11194857 0.68206114 0.792095 0.5673252 -0.60871655 -0.27554396 -0.2622229 -0.13892922 -0.046078235 0.20889856 -0.07369318 -0.5089644 -0.57387227 0.026327211 0.2761307 0.3371912 -0.38923347
2206 -0.7337533 -0.08480104 0.15550143 -0.42694485 -0.19411728 -0.4175459 0.26461774 0.28564337 0.55805147 0.27182215 0.2698726 0.32453722 0.52186805 -0.08387151 -0.41116756 0.5846761 0.086569816 -0.34151924 -0.0614892 0.3439026 -0.033786114 -0.18745765 -0.4982932 0.046371624 0.17338501 -0.31012326 -0.44520792 0.03200193 -0.81885207 -0.049603205 0.38541836 -0.38004893 -0.0914383 -0.0066315737 0.08648746 -0.29161495 -0.046836432 -0.0050788443 -0.25971353 0.33483347 0.25284544 -0.093046986 0.27315792 -0.05867373 0.54374653 -0.39248285 0.017394667 -0.044035994 0.035553887 0.025335766 0.02068966 0.4887082 0.5708988 0.088048294 -0.33367974 0.09569056 0.47376153 0.27622142 0.021364601 -0.38044596 0.5875165 0.30252638 0.14623053 -0.22001313 -0.112799145 -0.012394825 -0.40585858 -0.44212264 -0.47436464 -0.30365437 0.17873485 -0.23092037 0.34061354 -0.13240962 -0.34849158 0.081509516 0.22582573 -0.114280194 -0.24095379 -0.14239615 0.016776716 0.10982252 -0.19890735 -0.29652148 0.18537882 0.10290859 0.11711829 0.5699 -0.44384468 0.7722205 -0.3903183 -0.116453834 0.01975772 -0.023215743 0.23567809 -0.26374292 0.33572146 0.30748883 0.14801472 0.027604744 -0.56558096 -0.27625233 0.21600376 0.25507262 -0.01382863 0.34368172 0.03918965 -0.71963245 -0.2527565 -0.34753838 0.120955616 -0.5845326 -0.36412555 0.22798714 0.22340985 -0.18207747 0.063697375 0.28814158 -0.05674091 -0.3073406 0.21227606 0.26404265 0.06405193 0.1466691 0.118946 0.078833684 0.32401857 0.0710341
2510 -1.0576408 -0.19149268 0.091137215 0.30623564 0.087556526 -0.15640731 0.3057998 0.27186552 0.7841765 -0.40969726 0.30409923 -0.1314498 0.18616395 -0.051291395 -0.21904929 0.12755682 0.3373287 0.33564612 -0.19817656 -0.22063698 -0.10927463 0.25038084 -0.6655414 -0.2862652 -0.44111553 -0.36894438 -0.08452993 -0.10496173 0.1350949 0.2551393 -0.17838682 0.22044607 0.0677641 -0.22055659 -0.20198359 -0.4123643 0.2557611 -0.120952405 0.1334587 0.2862302 0.56573206 0.0801057 0.46652246 0.08740265 -0.38162038 -0.33576816 -0.2781801 0.25868627 0.30785528 0.4419151 -0.1902152 -0.42060313 -0.1907263 0.101099595 -0.27949867 -0.35373342 -0.2423797 0.4857268 0.19920743 0.072180465 0.5627367 -0.0783671 -0.08219585 0.31394312 -0.35841215 0.22791931 -0.49241942 0.47521606 -0.6886686 -0.36501917 0.052234888 -0.25729942 0.77629495 -0.32980773 -0.45812103 0.35573566 -0.29125372 0.21450356 0.85462743 -0.25280797 -0.21343672 -0.30520153 -0.50165 -0.45199072 0.12444589 0.60954297 0.53670573 -0.05870254 -0.1849241 0.37506497 -0.2593112 -0.35202327 -0.036907252 -0.47919077 0.104206644 -0.936097 0.47549796 0.5300297 -0.16753595 -0.19839782 0.07140649 0.13121259 -0.044752736 0.118720904 0.14733504 0.40996265 -0.07129629 -0.47076988 -0.1805026 0.17383435 -0.4149504 -0.24174063 0.40407196 0.019551396 0.19457403 -0.3364158 -0.12465291 0.08100745 -0.0061819917 0.530497 -0.4111197 -0.2682503 -0.21334076 -0.38278672 -0.42817414 -0.17390841 0.8880158 -0.48600087
2205 -0.78062576 -0.25226262 0.05169486 -0.43859717 -0.08719664 -0.28160307 0.21962303 0.43623 0.21894227 0.14409745 0.09059637 0.42134276 0.5240173 -0.09896965 -0.08177498 0.20133287 -0.43930638 -0.349684 -0.15673123 0.55006075 0.0459222 -0.2606058 -0.28990638 0.28830123 0.04270258 -0.32179132 -0.6626147 0.29740903 -0.6013871 0.13383812 0.2159742 -0.356599 -0.033023447 0.03166499 -0.39994773 -0.24145143 -0.006966416 0.15316127 0.054431085 0.13476937 0.38043058 0.0704835 0.24783406 -0.25780818 0.33556333 0.055848815 0.15979294 0.19122893 0.2810785 -0.03350282 0.11884714 0.66988313 0.36715204 0.25192606 -0.43318176 0.19709578 0.31120032 0.46647942 0.005865763 -0.5269435 0.5376357 0.41124427 0.23557827 -0.0016697946 0.07004777 0.24254458 -0.13574785 -0.38724095 -0.75621754 -0.08646179 -0.09361706 0.026714267 0.09739533 -0.17463785 0.010758213 0.2629192 0.020354616 -0.20307027 0.12503049 -0.12873939 -0.036154144 0.32801393 -0.49051788 -0.12746793 -0.10106397 0.018395223 0.42639032 0.5609828 0.051247317 0.5224043 -0.78291327 -0.37261093 0.13729616 0.1533168 -0.0322644 -0.10367523 0.6049225 0.1752176 0.4075429 -0.013223744 -0.6896301 0.09847657 0.18471655 0.14960477 0.059595402 0.34608057 0.2734505 -0.13850324 -0.5816313 -0.21333261 0.1756299 -0.30641347 0.08067678 0.07158176 0.036658607 -0.16030277 -0.0814528 0.0522685 -0.21576005 0.06937433 -0.14202482 -0.16423593 -0.11519584 -0.16593094 0.10483084 0.28890556 0.6314265 0.03239185
2730 -0.28394917 -0.050355565 -0.10266654 0.19502635 0.7891388 -0.26021144 0.16314052 0.67240596 -0.15134186 0.20104466 0.15522031 -0.08607034 0.4990966 0.09914747 -0.7393125 0.39310572 -0.15398839 0.31489715 0.050891314 -0.44372803 -0.04915601 -0.19091341 -0.10297208 -0.62416637 0.087052666 0.2797561 -0.021076364 0.7775449 -0.28355512 -0.3786389 -0.02055063 0.044932347 -0.19418973 -0.4119757 -0.6160876 0.51910424 -0.21837188 0.55286646 0.3647598 0.37249997 0.16745321 -0.16263205 -0.13519856 0.286323 -0.19926828 -0.7663849 0.042769022 0.0733804 0.4950524 -0.84919226 -0.35951996 -0.7117087 0.45508966 0.478589 -0.13393073 -0.18813322 -0.26435724 0.59160894 -0.10851553 0.05406052 -0.2715483 0.22066185 -0.4362945 0.27374497 0.08135227 -0.28467146 -0.24827251 -0.233827 0.28388748 -0.60932606 -0.43566898 -0.49197075 -0.34189323 -0.29784435 -0.30256024 0.64291835 -0.25764346 0.40462294 1.3956228 0.018350922 0.015743123 0.11145914 -0.3914209 0.694785 -0.31589362 -0.35551047 0.1449757 0.15343659 0.09269063 -0.05443914 -0.7488802 0.33659488 -0.3905368 0.015985314 0.7702092 0.12514295 0.549934 0.3396941 -0.15255317 -0.22204196 -0.6236129 0.28549144 -0.33840245 1.0580444 -0.12850344 0.36256877 -0.7116926 -0.022452967 0.075344205 0.31174117 0.40508807 0.102085344 0.6707485 0.341984 -0.076567605 -0.5560763 -0.5884431 0.21022123 -0.81242436 -0.17402548 -0.28903216 0.23772869 -0.23665503 0.102921866 0.52273923 0.035049196 0.6518848 -0.17538336
2656 -0.6555385 -0.090707555 -0.20785293 -0.65288 0.71156156 -0.16604057 -0.055031743 0.57716304 0.36417636 0.269444 -0.03516273 -0.073654324 0.32405442 -0.21161617 -0.23827346 0.09662767 -0.5498394 -0.050565336 -0.06875171 0.11894104 -0.22156903 0.056591693 -0.45896482 0.14580609 -0.09164867 0.251857 -0.50694686 -0.020836977 -0.24962436 0.1956615 -0.39925438 0.12331708 -0.3309018 0.17481978 -0.50731194 -0.5523783 0.15251292 -0.38280046 0.18520036 0.06351817 0.77285737 -0.1630943 0.22154573 0.17024685 0.19635054 -0.06974255 0.13795352 -0.19209386 0.17166756 -0.09182294 0.04775014 -0.11147708 0.25186422 0.13601488 0.07701838 0.5963185 0.08052182 0.38019702 -0.229012 0.27733564 0.44272542 0.16710366 0.34672475 -0.28017542 -0.098344944 0.20267649 -0.0070316386 -0.33910862 -0.7460519 -0.3166146 -0.437164 -0.25133792 -0.27436483 0.10659256 -0.25052947 -0.10798179 0.2549639 0.27414525 0.348731 -0.12467441 -0.0116115585 0.21299988 -0.61096877 -0.018181706 0.21045397 -0.30243298 0.39483714 0.44162545 -0.32555613 0.30412084 -0.034091536 -0.3601329 0.019118585 -0.02170425 -0.11080086 -0.44801822 0.2841954 0.13763787 0.19483252 0.0131068695 -0.62081635 0.0011583423 -0.095296755 0.16537936 -0.33263516 0.19978568 0.2330065 -0.25354657 0.28027436 -0.35837916 0.23399025 -0.49569768 0.3628892 0.35797033 0.37077585 -0.094063826 -0.6955953 0.29949614 -0.31133384 -0.13662681 -0.30112553 -0.24696033 -0.5597511 0.24436258 0.39986026 0.08405551 0.3339272 -0.014226129
813 -0.8038712 -0.25608027 -0.1767396 -0.21682777 0.27002668 -0.17071068 0.28210995 0.3343452 0.6263085 0.17045686 0.26200864 0.18143366 0.2647593 0.072483346 0.08356158 -0.033154167 0.10708966 -0.19847405 0.15648702 0.41744423 -0.10820273 -0.015905797 -0.823125 0.006437823 0.07511945 -0.26159438 -0.27985442 0.29028967 -0.4380569 0.23536508 0.1775367 -0.32838795 -0.20445725 -0.017833892 -0.6971038 -0.52933455 -0.08137525 0.38133577 0.09503951 0.116609916 0.44051194 -0.047299877 0.20374566 -0.44216365 0.22262137 -0.43594924 0.35371256 0.25099322 0.04161687 -0.15463623 0.25307953 0.23914042 0.42671943 -0.08411911 -0.046192154 0.2762395 0.21708351 0.59489256 0.014632213 -0.29055813 0.7035466 0.18842514 0.41333222 0.054459866 -0.23541163 0.022416325 -0.20690458 0.04607024 -0.4403086 -0.15986162 -0.1650419 -0.33955702 0.3959001 0.25482634 -0.0261284 0.28760207 0.21217252 0.012541116 0.47003615 -0.11688527 -0.3445586 -0.07333129 -0.27310294 -0.039578937 0.3512594 0.01921845 0.51986355 -0.10772122 -0.18204673 0.06307328 0.15479703 -0.42345092 -0.016666204 0.035310544 0.096211374 -0.26004487 0.24474071 0.21239965 0.40111828 -0.23302458 -0.38286772 -0.23303485 0.15384038 0.19088855 0.030676756 0.6489739 0.22285199 -0.33728698 -0.1647189 -0.1827844 -0.42039177 -0.25381422 0.2230537 0.22131327 0.078649156 0.20208088 -0.12134852 0.42699647 0.05215677 -0.25101167 -0.24945255 -0.4543653 -0.43870616 0.32646233 0.014376723 -0.20494813 0.56510097 -0.07862201
2111 -0.94794774 -0.30153915 0.075444855 -0.33751905 0.1696305 -0.3658873 -0.17181115 0.1799788 0.28852528 0.29223478 0.21406949 0.18364581 0.33066303 0.006922507 -0.21698108 0.2562325 -0.16883603 -0.3182461 -0.03023781 0.17069691 -0.22064103 -0.20128894 -0.53142893 -0.02146404 -0.015582013 -0.22155486 -0.30987912 0.07140958 -0.41095984 0.064835146 -0.140291 -0.21942036 -0.34247208 0.17940901 -0.5070681 -0.3723559 -0.24853839 -0.09957553 0.04421933 -0.008289886 0.5375797 -0.23453593 0.19923458 -0.04681319 0.47703165 -0.16116408 0.21072403 -0.20761071 0.3191762 -0.36592177 0.09716024 0.24315792 0.44366497 0.013601158 -0.4632709 0.27169022 0.18267071 0.59715545 0.15382782 -0.23384266 0.8568611 0.072788715 0.16910627 0.11242131 -0.18248793 0.405424 -0.13228475 0.17677067 -0.44156542 -0.40238407 -0.23244932 -0.3299994 -0.025062751 0.074565746 -0.07942777 0.3682207 0.2374274 -0.24940385 0.27748775 -0.017000198 -0.037056644 0.40060318 -0.1882315 -0.18701684 0.36125115 -0.18673618 0.64270824 0.38614866 -0.13336022 0.4043888 -0.34148312 -0.17468621 -0.16315116 -0.06703837 0.20864756 -0.6408036 0.5660517 0.2078015 0.4647377 0.035495393 -0.33231384 -0.010315059 -0.11399942 0.17424338 -0.08395846 0.43294638 0.2753046 -0.5217965 0.07997017 -0.21325399 -0.055935137 -0.47039458 0.073980704 -0.121194124 -0.052672844 0.33131978 -0.3700075 0.27046427 0.04291666 -0.23116274 -0.19201636 -0.2806575 -0.2405683 0.15312354 0.012352776 -0.064090334 0.49438816 -0.027698293
2115 -0.64523333 -0.15259548 -0.21484527 -0.27960777 0.2948802 -0.59562325 -0.11768705 0.39173466 0.1716753 0.09286806 0.27804 0.09235807 0.10770324 0.006989485 -0.279158 0.07382399 -0.07741986 -0.16725136 -0.00072758226 0.39567614 -0.17625697 0.042069294 -0.7559002 -0.016779888 0.04105366 -0.25789502 -0.17528915 -0.0415069 -0.35588714 0.1796546 -0.16206641 -0.11713639 -0.26386443 0.13708141 -0.49560398 -0.1842173 -0.020075886 -0.032237243 0.02878136 -0.11489981 0.44668075 -0.19660954 0.18858136 -0.28697586 0.39683837 -0.2172815 0.36103356 0.0812899 0.39417052 -0.004359818 0.07176887 0.12662719 0.36468348 0.22214873 -0.5238912 0.5046404 0.21870464 0.75071806 0.1031763 -0.14171001 0.86164606 0.47514585 0.34011507 0.1466334 -0.4050266 0.1932432 -0.2623843 0.2972891 -0.5494169 -0.55081314 -0.025089143 -0.16779377 0.0020778973 -0.069475584 -0.3094126 0.43554753 0.34913528 -0.061361074 0.5480743 -0.15022926 -0.14536849 0.08916467 -0.2925689 0.0010974824 0.12898105 -0.27798042 0.3707197 0.5855633 -0.14562026 0.42227525 -0.22519974 -0.20069897 -0.39048174 0.18423988 -0.14114402 -0.5982044 0.2831194 0.22500384 0.21839067 -0.37608823 -0.6091785 -0.15554081 -0.1510614 0.21030484 -0.061523873 0.7262078 0.25328773 -0.19420804 -0.08251944 -0.10853814 -0.2562217 -0.26280987 0.43127015 0.14110371 0.15193473 0.2285768 -0.2065534 0.11726177 0.10170584 -0.13322762 -0.28347954 -0.36692908 -0.040579453 -0.0088638235 0.17006657 -0.1529145 0.36426044 -0.1241535
809 -0.70520407 -0.495752 -0.22626333 -0.079586454 0.28126374 -0.0086321635 0.061048277 0.47351342 0.6482219 0.19835487 0.33456734 0.15311632 0.12717715 0.10479768 0.096517004 -0.06412683 0.0145855695 -0.00852512 0.104030065 0.055718563 0.19892013 0.2402387 -0.5462398 -0.15946679 -0.23017535 -0.3203429 -0.42461115 0.16734336 -0.6633189 0.40390792 -0.21842064 -0.02297223 -0.077241436 -0.24575596 -0.24271503 -0.34024537 -0.17740023 0.2922249 -0.18303846 0.20664847 0.629642 -0.2097876 0.15176834 -0.14183864 0.057392612 -0.08396607 0.30815232 0.28463322 0.2263745 0.22120427 0.18751034 0.19304214 0.40693673 0.06001146 -0.08306027 0.20756708 0.18786266 0.5617517 0.271027 0.17448877 0.5723534 0.017188665 0.07285028 0.30461589 -0.39999977 0.16207303 -0.26055875 -0.016165122 -0.45005846 -0.19636638 -0.17056209 -0.3763911 0.48117504 -0.2438712 -0.2801444 0.5526678 0.30372804 -0.07412937 0.4496088 -0.11464874 -0.075150885 0.1638761 -0.51318014 0.008511392 0.51321185 0.05990966 0.35204545 0.120984256 -0.038744498 0.066548735 -0.09970815 -0.39530906 -0.15370315 0.012351976 0.68644047 -0.58501536 0.34283647 0.50450784 0.24883692 -0.11091366 -0.15889421 -0.12796645 0.25524396 0.20991743 0.4789881 0.4172761 0.22267357 -0.70171595 0.029504241 -0.30106714 -0.45302773 -0.13865939 0.5354874 -0.08534682 -0.055456527 -0.024563124 -0.42371854 -0.022526266 0.055690408 -0.33450037 -0.13835688 -0.27345663 -0.03201868 0.19071816 0.11554312 -0.3553824 0.8265441 -0.09384234
1315 -0.7938655 -0.09734438 0.36119607 -0.10734661 -0.18124498 0.11632429 0.53908193 0.50992864 0.21207918 -0.45906743 -0.025181325 -0.2062171 0.4964516 0.10440337 -1.0099487 0.14249364 0.33132422 0.8092865 -0.033858873 0.085335724 -0.13863298 0.083730355 -0.6121365 -0.13503161 0.3456512 -0.11953765 -0.08085509 0.34270835 0.04471334 0.05536082 0.22275446 -0.10538768 -0.18253411 -0.042749386 0.00026294962 -0.1601603 -0.2658939 -0.5233399 0.17809302 0.45874777 0.5880568 -0.07787823 -0.10932052 0.382127 -0.26163483 -0.08021707 -0.07807046 -0.06408973 0.18454315 -0.3483021 -0.34549314 0.33139974 0.17056865 0.045934197 -0.14064416 -0.27493817 0.096885934 0.22378574 -0.45586523 -0.3448135 0.012786803 0.3246072 0.056590293 0.22111033 0.48392197 -0.08172441 -0.01023535 -0.25695446 0.48345616 -0.24417019 -0.592998 -0.48993787 -0.17651555 -0.07401024 -0.86856836 0.1294952 -0.6620243 0.19601463 1.0278646 -0.06453639 0.011863496 0.14601341 -0.10316935 -0.24254893 -0.10103478 -0.20949906 -0.15005514 0.11334247 0.12432879 0.05179171 -0.27579087 -0.38601604 -0.20582679 -0.01877297 0.3286353 0.22542693 0.26887745 -0.22724676 0.020064462 0.14825912 0.07979064 0.29415205 0.47001952 0.04471304 0.47395587 0.22016136 -0.11060519 0.11045466 0.48932168 -0.09164519 -0.05048932 -0.36318958 -0.2265 0.76420933 0.014775741 0.123339 -0.6216973 -0.12842594 0.3019179 -0.35879567 -0.45151955 0.6473511 -0.5297996 -0.13642742 -0.4441137 -0.37321684 -0.21011178 -0.26468754
2213 -0.54992574 -0.4645873 -0.066785626 -0.16768801 0.41804734 -0.23370466 0.49705005 -0.09224203 -0.061828833 -0.16722469 -0.44177538 -0.14993317 0.6532871 -0.3237121 -0.14564373 0.12647054 -0.8849942 0.2943616 -0.031154012 0.682979 0.43241134 -0.22662053 -0.33092478 -0.5310915 -0.51355934 -0.21265292 -0.3975506 0.11468344 -0.3008611 -0.42348984 0.036924466 -0.55656266 -0.08475317 -0.097438686 -0.3580189 0.8543322 -0.00053009373 0.13858975 0.4063879 1.0390954 0.025431314 -0.28392157 0.3754057 0.076084994 0.08069923 -0.3876289 0.15208422 0.035210434 0.3526412 -0.007674492 -0.0027991696 0.20231585 0.4527104 0.6109976 -0.0503228 0.050201457 0.25241858 0.21101016 -0.6761421 -0.15875123 0.12600905 0.1251247 -0.20778319 0.12224538 0.24657184 -0.33185774 -0.15451542 0.07321758 -0.20931776 -0.55568135 -0.07455934 -0.17130516 -0.07457159 -0.37134716 -0.5424981 0.2666789 -0.38066816 -0.2504764 0.42914522 -0.1761182 -0.35272712 -0.26545143 -0.25889754 0.27083468 -0.676423 0.26423112 0.26320374 0.06052595 -0.30691347 0.11227967 -0.918107 0.025269717 -0.45006475 -0.14548597 0.8716392 -0.07279444 0.19910757 -0.0018235163 0.47412816 0.54943645 0.035307635 0.14902446 -0.4659793 0.124088526 -0.23919442 0.18298426 -0.30093098 -0.65378493 -0.30627987 0.021907521 -0.3859623 -0.8509369 0.23104881 0.39660627 0.10623811 -0.7250107 -0.12942232 0.26066095 -0.0409628 0.13789997 0.030759612 0.35363054 -0.22813377 -0.07811602 0.46825176 0.43220824 0.6472468 0.1647042
2724 -0.028583769 -0.3057796 -0.04484037 -0.11769856 0.64962643 0.31522563 0.33310628 0.30458438 0.012117164 0.4358744 0.33913592 -0.35552466 0.24655287 0.088123456 -0.43139708 -0.026749915 -0.31002155 0.236955 0.30231962 -0.25104088 -0.00012978917 -0.4385138 -0.08984386 -0.46685365 -0.22807364 0.05728992 -0.3226793 0.7429721 -0.4995175 -0.5021233 -0.05941449 -0.3483077 -0.36005977 0.043563955 -1.1639947 0.21370992 -0.07388706 0.31616142 0.24640377 0.5198574 0.21080096 -0.089492835 0.09797244 0.39780283 -0.45929718 -0.85396683 -0.104747735 -0.028138146 0.7808735 -0.46085826 -0.3205664 -0.4846821 0.25181106 0.7830654 -0.45449156 0.10287083 -0.17769581 -0.062285356 -0.52173054 0.3470601 0.21158302 0.4338985 0.008914649 0.39898023 0.024967168 -0.061549693 -0.31146112 -0.6189823 0.8486373 -1.063309 0.12268854 -0.9727215 -0.18449333 -0.8165515 0.117214635 0.6319842 -0.522463 0.30395883 1.1792008 -0.17912894 -0.26045668 0.3294135 -0.35757023 0.37977338 -0.2808136 -0.1652993 0.18719742 0.029924192 0.15177505 -0.25069314 -0.8536137 0.15236375 -0.5114267 0.05656667 0.1539738 0.09951621 0.27295214 0.14341028 -0.31691507 0.15664016 -0.063410856 0.41684812 -0.4973105 0.8768377 0.019188933 0.11547335 -0.18395741 -0.3027855 0.08688487 -0.28491628 0.73011214 -0.06759532 0.50942975 0.50546575 0.0057721813 -0.70114315 -0.35344014 0.02134208 -0.51166826 -0.40923232 0.012884613 0.13257913 -0.31113398 -0.13613753 0.19910602 0.057396773 0.92346925 -0.22984962
2004 -0.45805264 0.5381243 0.0739986 -0.2650792 0.6934461 -0.14260203 0.569306 0.915205 0.2383864 0.12744395 0.40780088 -0.23514508 0.31273508 0.09922129 -0.32901046 0.15756807 -0.53680176 0.4812847 -0.27801794 0.4515032 -0.093225814 0.1990796 -0.8126955 -0.5872933 0.23580255 -0.20638005 -0.67016655 0.4443365 -0.010957261 -0.21738392 0.060804404 0.2595414 0.043752287 -0.61599475 -0.48689654 -0.1139429 0.34476504 0.33759272 0.22414047 0.18453792 0.13235249 -0.1369653 0.17067823 -0.03460279 -0.26768816 -0.022176465 0.17470938 -0.4849898 -0.16031896 0.10117567 -0.116194144 0.18309155 -0.18912272 0.4708532 0.07503809 -0.21494837 -0.4348649 -0.10439511 -0.5238389 0.3673162 0.44094753 -0.39370218 0.7936167 -0.086929895 -0.28469288 -0.047721285 -0.15579183 -0.037114635 -0.40957314 -0.20897321 0.06632686 -0.4135278 -0.7414672 -0.2729322 -0.42529383 -0.38314617 0.26036304 0.4554065 0.88265926 0.5763609 -0.15106374 0.10027606 -0.28463626 0.019908058 -0.4766163 -0.18910335 -4.035828e-05 0.73264426 -0.3855117 -0.09252893 -0.6980753 -0.73317116 0.09697882 0.46658722 0.29319936 -0.6979733 0.08560751 0.13864878 0.351296 0.06554891 -0.33746698 -0.09456929 -0.61793375 0.4476104 -0.13097757 -0.1841998 -0.48318592 0.045308877 0.609428 -0.28004244 -0.30705574 -0.8907221 0.31239137 0.017697874 0.5246206 0.3377285 -0.5083336 -0.035802808 -0.61196405 0.11101895 -0.54751843 -0.18778226 0.03972346 -0.24024507 0.10045176 -0.13480797 -0.018231861 -0.3678962
1008 -0.2785045 0.14749387 0.038571022 0.02379121 -0.18674752 0.14844541 0.44233933 0.7398727 0.27378255 -0.3734568 0.32517534 -0.14125149 0.20975943 -0.12524314 -0.4042597 0.7928222 0.22407165 0.13108435 -0.16019948 -0.58181095 0.10845712 0.2567713 0.23167649 0.12290154 -0.05625514 -0.30671203 0.07433801 0.37691253 -0.25908983 -0.06414423 0.66868395 -0.43147245 0.5636663 -0.06655413 0.032155637 0.01986638 -0.08617673 -0.41927683 -0.070449114 0.672527 0.21480952 -0.2793237 0.30263808 -0.27256763 0.3375059 -0.123794496 -0.012591959 -0.3745995 0.6604622 0.032039877 -0.26931733 0.07862718 0.25735715 0.59535617 -0.24191508 0.26728263 0.22899458 0.40890914 -0.22544649 -0.49870607 -0.06042426 -0.18556628 0.13192706 -0.13861568 -0.27067882 -0.19286299 -0.29633677 -0.024599424 0.34612054 -0.35859445 -0.18762527 -0.35438293 0.10729604 -0.44820088 -0.112752944 -0.0048119575 0.1992242 0.29288545 0.47099033 -0.040744994 0.21765423 0.15145907 -0.30375588 -0.08442222 -0.29812762 0.36298814 0.4507543 0.22449283 0.16118522 -0.5679817 0.12667929 -0.39061233 -0.053726595 -0.034635317 0.436345 0.38226485 -0.1524876 0.6251496 -0.30622664 0.20589247 0.58122706 -0.28652206 0.22244062 -0.10536985 -0.13182254 -0.02653914 0.2870727 -0.23149839 0.5209019 -0.117318474 -0.26776558 -0.5490047 0.12741856 0.1695071 0.15887287 -0.2083839 -0.5827475 0.35736537 -0.24818563 -0.32706448 -0.2520554 0.28770363 -0.14477205 -0.4207759 0.03175239 -0.04478105 0.0687285 -0.27543598
1001 -0.46452606 0.1177833 -0.5771426 -0.21116433 -0.104173824 -0.17220424 -0.2424414 0.31199914 0.4917256 0.19861628 0.26756597 -0.13064091 0.34106964 -0.009883395 0.0036778029 0.51209784 0.17509438 -0.21030286 -0.03802567 -0.4649724 -0.5122929 0.33877847 0.19251688 -0.2833219 0.007984782 -0.017388953 -0.037600458 0.27057475 -0.47218812 -0.19496025 -0.1383601 -0.76728535 0.37481228 -0.11579549 -0.2379087 -0.14034837 -0.5310082 0.3510966 -0.22435865 1.0002631 0.17049673 -0.22527859 0.068606846 -0.14318953 -0.14107002 -0.09006354 -0.48791486 -0.34113774 0.4928705 0.10702226 0.21181445 0.071614586 0.3021117 0.120161496 0.03437582 -0.042997327 -0.15773192 0.28991887 -0.004956139 -0.38001496 0.57218635 -0.023416292 -0.037140056 0.18961509 -0.03168345 -0.6436994 -0.015971953 -0.17936642 -0.024554081 -0.110466525 0.041491624 -0.2581839 0.2507344 -0.55585855 -0.054850955 0.41112024 0.2366028 0.3577932 0.62818825 -0.20442308 0.25943294 0.16296218 -0.38912338 0.19600034 0.0059447344 0.8215775 0.0042091906 0.40485784 -0.044091716 -0.33726832 0.011632358 -0.45783883 -0.08828255 -0.14106403 0.05607511 -0.10899952 -0.24120857 0.796339 0.2065649 -0.35193795 -0.1986468 -0.56351125 0.26004115 0.2200046 -0.11999117 0.12435425 -0.17638336 -0.14101772 0.22156124 -0.48579443 -0.5489991 -0.5318979 0.09314774 -0.06365185 0.37999406 0.04130127 -0.5916221 0.3526413 -0.010174756 -0.13608746 0.17780584 0.35087258 -0.00651524 -0.43484476 -0.006133165 -0.12773964 0.29898563 0.11715494
803 -0.32218045 0.11081041 -0.33266103 0.15812469 -0.18348022 -0.4021611 0.014691855 0.45050335 0.53898585 0.12704438 0.4603414 -0.0091729965 0.423723 0.27092654 -0.25696445 0.61743253 -0.064477086 0.03046461 0.07064937 -0.4538221 -0.01977092 0.503543 0.06270415 -0.10506079 -0.12651165 -0.16672708 0.05789536 0.34840146 -0.86041707 -0.12091725 0.02148446 -0.3467034 0.24535462 -0.28603315 -0.25920767 -0.21100484 -0.0818932 0.52644044 -0.40477395 0.3682241 0.43782035 -0.1484508 0.21389903 0.056965504 -0.18127461 -0.3480352 -0.15951319 0.09389117 0.20760411 0.015064144 0.0769821 -0.30007622 0.13644841 0.36900908 -0.17439538 0.09736617 -0.12800074 0.23881957 -0.10340969 -0.58077705 0.31606284 0.01302808 -0.061705604 0.13150984 -0.08422121 -0.6034801 0.031367287 0.045017198 -0.4598706 -0.077871755 -0.09848509 -0.53239465 0.21872392 -0.13603385 -0.08451465 0.48991692 0.50768083 -0.22753485 0.7348936 0.0815519 -0.17853713 -0.27848694 -0.36064282 0.0717028 0.41265258 0.5755233 0.27477857 0.10980147 0.13143004 -0.18328169 0.091612644 -0.35425362 -0.4072031 -0.24731301 -0.2090531 -0.24119705 0.0029041558 0.6137336 0.09034843 -0.276017 0.06387654 -0.65039223 0.3303724 -0.065971605 0.13913158 0.3818483 -0.06499887 -0.39715984 0.36211905 -0.4187957 -0.2783517 -0.5640654 -0.055159323 0.104035795 0.5416202 0.0067358227 -0.08805372 0.09627716 -0.062238805 0.04159037 -0.060106672 0.43204686 -0.2899583 -0.12198772 -0.043052793 -0.17619456 0.89997333 -0.13101147
2210 -0.64620554 -0.45892546 0.5406791 -0.6846393 -0.05809161 -0.5619486 0.36350456 0.32151043 0.17417999 0.6792403 0.019819556 0.31483477 0.69794977 0.11996127 -0.30169442 0.5010517 -0.21732537 0.022398623 -0.013724279 0.43964657 -0.14074966 -0.25747105 -0.41820452 0.15206456 0.19072352 -0.27691126 -0.14269705 0.14028314 -0.40192074 -0.25402436 0.5916063 -0.27106637 -0.525468 0.22836903 -0.18588626 0.10351498 -0.16825193 0.06949122 0.11136738 0.7819769 0.33155018 0.15422566 0.2173201 -0.082697466 -0.09088245 -0.069491744 -0.014000723 0.07186758 0.010631249 -0.23136063 0.20433773 0.73274654 0.37404546 0.22300333 0.0037870137 0.4466695 0.31661308 -0.050151896 -0.13806924 -0.33122578 0.31181148 0.49538517 0.2244307 0.29151133 0.26273298 -0.1671894 -0.6651843 -0.47615615 -0.5311595 -0.21412334 0.17930222 0.0054896506 0.42449942 -0.099628076 -0.16501819 0.18187319 -0.1684643 0.26403207 -0.047837123 0.080478676 -0.27425864 0.09497496 -0.3782709 -0.19855537 0.20777443 0.27385065 -0.044189654 0.6869529 -0.27027577 0.25202444 -0.55080515 -0.33529267 -0.034647077 0.11371598 0.33301353 -0.31305858 0.43956065 0.02529193 0.31260633 0.20481066 -0.51581174 0.07539632 0.032355145 0.25456324 -0.38140708 0.32324106 -0.014917879 -0.1678281 -0.22418955 0.044558242 0.23158972 0.014150641 0.11525644 0.45685923 -0.29558948 -0.4654924 0.29094747 0.042318225 -0.27629194 -0.29080835 0.09957919 0.2840861 -0.1470334 -0.016577924 0.063187875 0.18689689 0.3392225 0.0029090361
1806 -0.69790214 -0.6414851 -0.24404433 -0.88833416 -0.24748632 -0.3917104 0.18192363 0.071224235 0.07512444 0.2215016 0.20002164 0.30404553 0.37353817 -0.1720082 -0.6006641 0.20313409 -0.16902988 0.5941261 -0.030567285 -0.3596432 -0.09278602 0.046385124 0.38476864 0.015709039 -0.07704395 -0.35591108 0.061404914 0.29298347 0.07896491 0.26003012 -0.284967 -0.30190378 -0.031633057 -0.0961455 -0.3832694 0.21962667 -0.052801047 -0.1782495 0.13212015 0.3591666 0.3701181 -0.12119458 -0.108455844 0.25651607 0.125988 0.46721393 0.008677432 0.38290724 0.35773006 0.13748808 0.16817677 0.31238458 0.31632337 0.64052445 -0.40675232 -0.03205425 -0.09019913 0.063629664 -0.07918698 -0.08213257 0.33662447 0.3883858 0.4520366 0.6783875 -0.44175452 -0.73770607 -0.49151453 -0.22033791 -0.16847599 -1.0225583 -0.18670072 -0.9750879 0.5593849 0.3881659 0.38471353 0.44861537 -0.37318152 -0.004846532 0.21680613 0.022041107 0.60586065 -0.27146283 -0.30059695 -0.14900199 -0.5968959 0.7392728 0.021575615 0.4271462 -0.19640337 0.18673459 -0.53858906 -0.53156805 -0.40935022 0.09665123 1.1631178 -0.41072616 0.11296929 0.27699924 0.50563705 0.2536915 0.2357233 -0.004651856 -0.6123654 0.7249933 0.09276427 0.5325071 -0.56975305 0.4455657 -0.05546567 0.34473053 0.60668707 0.15663938 0.056633603 0.5189219 0.5340955 -0.32951385 -0.33649135 0.1826576 -0.23133536 0.32894352 -0.41657183 -0.37980497 -0.64849997 -0.07298039 -0.5564549 0.48963457 0.073259875 -0.11062729
2308 -0.828043 -0.316351 -0.087995164 -0.30646095 0.46178466 -0.022758327 0.5797863 -0.01611567 -0.27396426 0.25697264 -0.156523 -0.1346129 0.45547992 0.22742954 -0.2363819 0.015907016 -0.7178953 -0.0003270504 0.23161979 0.42426443 0.08089918 -0.47277322 -0.20825534 -0.3832533 -0.25940698 -0.11540967 -0.27961156 0.34510684 -0.42504445 -0.83918965 0.023945851 -0.42479667 -0.15122288 0.14158945 -0.58463544 0.5580056 0.32118577 0.004296268 0.2793584 0.7643232 0.0083405115 -0.009740129 0.37246564 0.06795283 -0.22883148 -0.36604896 0.07959918 0.14881171 0.43092135 -0.08255799 -0.19484474 0.038285114 0.30955523 0.60359967 -0.13869488 -0.09041567 0.1652078 0.20902587 -0.46550173 0.14059813 0.3137438 0.11841523 0.16144314 0.15747324 0.139754 -0.38844675 -0.39410788 -0.61400485 0.3266729 -0.5765252 -0.031838425 -0.57109517 0.13080123 -0.59943116 -0.019799229 0.5992798 -0.39681795 0.09526007 0.4053091 -0.3531313 -0.16851597 0.07636216 -0.51943046 0.2094805 -0.6368225 0.115677774 0.3130024 -0.53764564 -0.23421416 0.017226687 -1.0197881 0.03437966 -0.71247745 -0.10979776 0.337118 -0.03180879 0.20526713 -0.1357048 0.007610885 0.22022827 -0.02303589 0.17590241 -0.2864044 0.5208765 0.006884949 -0.004624186 0.058668945 -0.33096534 -0.23150009 0.040088985 0.18844335 -0.7004798 0.18783951 0.23603414 -0.194184 -0.9980241 0.06232874 -0.19477509 -0.3988381 -0.05806286 0.025377134 0.40237045 -0.09949369 0.032383386 0.26395333 0.44588387 0.75323766 -0.09032639
409 -0.7844905 -0.18751286 0.3896833 -0.15016916 -6.198983e-05 -0.5859311 0.15513717 0.18335688 0.72015566 -0.197167 0.55827194 -0.21391505 0.29267105 0.07028059 -0.087524496 0.07655718 -0.31674275 0.2718744 -0.16634622 -0.24741812 -0.15619634 -0.2544036 -0.24989392 -0.4901068 -1.0194126 -0.738179 -0.14998604 0.30252796 -0.058738343 -0.059677623 0.20726317 -0.2859046 0.25299412 -0.29243353 -0.23080912 -0.4157524 -0.36271477 -0.19714479 0.34843126 0.22611284 0.69316787 -0.25248784 0.3939006 0.059488885 -0.5553528 0.0426746 -0.12882295 -0.24011299 0.7015793 -0.44792795 -0.08424936 -0.18975867 0.73142254 -0.015629569 -0.14322124 0.27060932 -0.5169783 0.42853418 -0.47072646 0.27906692 0.1794426 0.48062345 0.5774802 -0.06453118 -0.50701904 -0.45524505 -0.49751782 -0.45273706 0.043980706 0.040677503 0.1118289 -0.19301191 0.13420008 -0.67220896 -0.30534843 -0.47341517 -0.24345224 0.41294 0.76155823 -0.30161622 -0.030052325 -0.5057794 0.3993864 0.36153334 -0.22877334 0.45329693 -0.308422 -0.20795944 -0.53817177 0.06572502 -0.27982667 -0.32286546 0.09306922 -0.54832274 -0.13926832 -0.15288703 0.6683045 -0.066442855 0.4378583 0.54567695 0.0043205894 -0.2702135 -0.47034943 0.5837299 0.3204919 -0.45221925 -0.02087514 -0.177641 -0.14751464 -0.8474423 -0.2591904 -0.2582509 -0.17768371 0.66614115 0.6907733 -0.30416825 -0.56336755 -0.05752096 0.3975383 -0.2808971 0.24044867 0.4108115 -0.14216876 0.071611956 0.14658755 0.20047018 -0.10183458 -0.8282256
1608 -0.3626106 0.0016993403 -0.18461125 -0.28092724 0.16381156 -0.50126743 0.012282399 0.4470766 0.032419264 -0.24614991 0.69386727 0.18441337 0.24772 0.028402386 -0.582725 0.5217493 0.006457058 0.31209725 -0.09692592 0.31669357 0.44647545 -0.42293492 -0.35040125 -0.30560634 0.078067616 -0.34323925 0.20467679 0.16139394 0.21597835 -0.21169089 0.3759679 -0.23704565 -0.2482011 -0.28754014 -0.16588867 -0.28552073 0.21063685 -0.28468543 -0.02783978 0.6764694 0.6004966 -0.0006019803 0.52579147 0.46656588 -0.10380241 0.20398685 -0.6687639 -0.019386401 0.6348332 -0.41188943 0.044734713 0.25203562 0.44350538 0.07738898 -0.10042737 -0.4162692 0.009071356 0.21832168 -0.61203694 -0.85585743 -0.11818399 -0.14512037 0.16455406 0.18520543 -0.21421725 -0.01518873 -0.30854502 -0.58156246 -0.008612402 -0.7122749 -0.15846823 -0.1973729 -0.23935759 -0.025419388 -0.26582992 -0.24314392 0.012156028 0.20591682 0.21768782 -0.03411949 0.17407805 0.28951055 -0.075531535 -0.12453229 -0.29156598 0.1415832 0.009380861 0.25415984 -0.39982027 -0.028944187 0.28075275 -0.28490224 0.084618576 0.79897755 0.46930304 0.018970052 0.061183847 -0.014702238 0.06347174 0.6545408 -0.07883313 0.014405559 0.32962608 -0.28554073 -0.29298624 0.31528482 -0.779314 -0.047219273 -0.10578138 0.4652983 0.12693606 -0.4026758 -0.25051892 0.23372047 -0.2589587 -0.29791656 0.015213931 0.5075641 0.44039723 -0.07036377 -0.16617213 0.21878156 -0.1734532 -0.38314235 -0.19744502 0.031358495 0.14917508 0.00019940188
2007 -0.8231147 0.09337831 -0.32319358 -0.24237674 0.8718061 -0.034256287 0.5809545 0.21725877 -0.2487099 -0.7202448 0.16290416 0.024078773 0.6461802 0.047371607 0.04700519 0.31715146 0.3524102 0.49252656 0.04997507 -0.16677564 -0.11414436 -0.07791969 -0.71534693 -0.3412258 -0.19777367 0.022916717 0.03672269 0.8874741 -0.11040076 -0.52068627 0.0523203 -0.35356748 0.627561 -0.34446988 0.19022168 0.43723544 -0.22805677 0.37463126 0.23842525 0.3923342 0.06254042 0.24093252 0.24473909 0.1312878 0.65233195 -0.39897406 -0.08529072 -0.11130846 0.4368665 -0.26152313 -0.6981028 -0.17359206 0.045772932 0.56960505 0.3382685 -0.4171434 0.470436 0.41060498 -0.13898814 0.13578542 0.6155778 0.2236537 -0.35576406 0.20588014 0.006335142 -0.48133862 -0.14293888 -0.045697894 -0.7171568 -0.38434744 -0.50953984 -0.145346 -0.47256213 0.15008454 -0.4671893 0.67939776 0.06155344 0.34464845 0.98843515 -0.4439194 -0.10378879 -0.2459326 -0.8458021 -0.25908238 -0.577782 0.26969486 0.012291504 -0.027776212 -0.099721506 -0.12321158 -0.31355068 -0.17016888 0.050172802 0.040319182 0.09743141 -0.0071266773 0.24454884 0.011836539 0.6588373 0.12232861 -0.13600083 -0.22357337 -0.5499017 0.3763842 -0.276567 0.25330484 -0.95721126 0.17343964 -0.2260772 0.23092335 0.19903222 -0.3861489 0.24646689 0.13616045 -0.0920561 -0.27530128 -0.3095579 -0.20973226 -0.4621391 -0.44134256 0.15464929 0.22144787 -0.74213636 -0.092388 0.057427857 0.38829365 0.31229854 -0.50911963
610 -0.9892643 -0.19851665 -0.09453191 -0.25642243 0.57550347 -0.69463927 0.14617245 0.3120956 0.025342494 -0.05221464 0.17270282 0.23493123 0.25854826 0.20334287 0.20306422 -0.17894144 0.29949754 0.059135534 -0.057835255 0.37177408 0.028420677 -0.19351816 -0.3954747 -0.49762818 0.014765094 -0.30776638 -0.28766555 0.020327043 -0.76624334 -0.09144937 -0.3517809 -0.1846308 0.13870756 0.067871556 -0.59569913 -0.2761832 -0.086559996 -0.28638935 0.08957573 -0.2526732 0.5444217 -0.17305829 0.0056614825 -0.42884022 0.04765391 -0.24812016 0.06585723 0.024727123 0.4885989 -0.2085568 -0.18444891 0.0676997 0.5991719 -0.38886887 -0.34535524 0.34808892 0.43776605 0.75863093 0.3829314 0.15090245 0.8262665 0.11309494 0.2861529 -0.12094818 -0.45667148 0.4459814 -0.24690849 -0.032167036 -0.046722833 -0.41371825 -0.21036747 -0.20182717 0.4107229 -0.02035725 -0.4078675 0.25299767 -0.105853036 0.19273202 0.4482056 -0.32340482 -0.106219314 -0.05896729 -0.28774288 -0.29328993 0.7791284 0.15058787 0.5649825 0.068935096 -0.090456724 0.037425246 -0.047564343 0.052391794 -0.062676094 -0.47267663 0.14964353 -0.6026775 0.4392837 0.14550436 0.38255486 -0.10204775 -0.4052827 0.1804118 -0.11707771 -0.25452223 -0.27497932 0.13191047 0.27103424 -0.32525572 0.15177941 0.021614034 -0.20615037 -0.21008484 0.5146137 0.54399997 -0.14764123 -0.030594718 -0.5407343 0.2880064 0.07784028 -0.026254317 -0.40409765 -0.6537792 -0.68924195 -0.53361136 -0.20191598 -0.3008993 0.3281809 -0.20352454
1002 -0.57546335 -0.015767632 -0.23301685 -0.15552616 -0.20333989 0.20580308 -0.5411351 0.23428422 0.5403394 0.17453653 0.5228906 -0.1289256 0.22548056 -0.10409691 0.017385617 0.48556808 0.29676682 0.111204155 -0.30459192 -0.5290192 -0.008671782 0.34412533 0.15518299 -0.074811645 -0.033053037 -0.13442795 -0.15073304 0.31971 -0.54004115 -0.11596534 0.012339458 -0.59002984 0.6686987 0.022127127 -0.18010607 -0.18023118 -0.23352723 0.41593444 -0.54428434 0.8812612 0.16221398 -0.19248395 0.025330966 0.059610777 -0.046815753 -0.38330033 -0.16992824 -0.31311864 0.29823932 -0.016121633 0.19234516 -0.055623963 0.22676595 0.59305394 -0.14641407 0.20578818 0.0020964858 0.3599212 -0.42941085 -0.4463631 0.40387446 0.09775015 0.34292844 -0.10092043 -0.16395703 -0.45251238 -0.07366821 -0.15692553 -0.04304963 -0.17326838 -0.24046043 -0.13537244 0.19574016 -0.3159197 -0.4922212 0.33928636 0.5132796 0.4140257 0.38847986 -0.14315617 0.378354 -0.06472509 -0.27545884 0.43622002 -0.07335839 0.7761135 0.021864431 0.051679853 -0.010405979 -0.36032337 -0.1082153 -0.3869049 -0.050005067 -0.06489974 0.019580068 -0.40569007 -0.19434294 0.76608056 0.039566774 -0.2440899 0.2571647 -0.23620772 0.40150917 0.012244203 0.035058476 0.07486444 -0.098822534 -0.13013712 0.42444977 -0.4288336 -0.48621857 -0.84847134 0.3203745 0.07601543 0.24804454 -0.24233161 -0.4225318 0.32871994 -0.04787271 -0.1976461 -0.2345949 0.594634 -0.4210952 -0.058199603 0.007575036 -0.11878805 0.52907753 -0.2117656
804 -0.53513855 0.09263566 -0.32615662 0.26113918 -0.15121186 -0.11727857 -0.12006437 0.41323027 0.82152444 0.018543098 0.30641678 -0.03099688 -0.00087313703 0.26355502 0.255986 0.5407264 0.043628924 -0.06811163 -0.0044928924 -0.30815947 -0.26402566 0.21552005 -0.3090751 -0.3843389 -0.2764279 -0.029314633 -0.03504474 0.18750204 -0.88126713 0.121386915 0.18296246 0.18962441 0.20858084 -0.024868779 -0.33606055 -0.42143387 -0.07115115 0.5986676 -0.0026350832 0.5293413 0.60238487 0.011233363 0.03355844 -0.08443207 -0.2232018 -0.31685036 -0.2963853 0.2634708 0.16249225 -0.019132752 -0.046959214 0.025346896 0.37698707 0.04687966 -0.22963348 -0.0020830114 0.026790429 0.06840192 0.13948184 -0.42454433 0.6493639 -0.11861578 0.27686885 0.10012253 -0.37365052 -0.27045363 -0.29750204 0.2691346 -0.6342009 0.07725321 -0.057016537 -0.4568648 0.5063071 -0.0066038747 -0.13287924 0.55525833 0.20838872 -0.26200593 0.68999827 -0.2156219 0.11685952 -0.2527545 -0.65338326 -0.037523292 0.2681041 0.26072297 0.0568168 0.12747274 -0.18246344 0.30935475 0.044684175 -0.28273597 -0.33577314 -0.047610212 0.14663613 -0.36082798 0.5230699 0.28664708 0.10464874 -0.40646258 -0.26834705 -0.15866327 0.24869612 0.3084335 0.45956904 0.33833057 -0.22552595 -0.4075753 0.11201562 -0.3919463 -0.5795927 -0.40334174 -0.20754863 0.0021784431 0.13355523 -0.17460467 -0.17384604 0.043218277 -0.03762489 0.19709325 -0.46915606 0.062421367 -0.15703575 0.012259049 -0.08673721 -0.20935461 0.67987096 -0.3046189
2533 -0.26443443 0.3254103 -0.46283954 -0.22008848 0.120219976 -0.04866274 -0.23904972 0.3385921 0.30187857 -0.24305123 0.16970822 0.034496322 0.59602755 -0.3625212 -0.6713961 0.34305808 0.2353802 -0.012137618 -0.40726066 -0.8883547 -0.40415028 0.33180866 0.101127416 -0.18641213 0.017087312 -0.13547677 0.19773078 0.2790623 -0.30924955 -0.627091 0.24416758 -0.54779387 0.36336297 -0.16202982 0.061538633 -0.029368663 -0.12852198 0.00087534694 -0.43840283 0.6448643 0.3556073 -0.39242792 0.29698798 -0.34609705 0.22383998 0.029151844 0.15631144 -0.6174069 0.36609998 0.12963043 -0.018266842 0.15361334 0.23512757 0.4570032 -0.34724116 0.16905816 0.28132454 0.64777344 -0.3174836 -0.664209 0.21656603 0.22766668 0.2584821 0.13490939 -0.08590967 -0.2856245 -0.07703056 -0.08539616 0.36780885 -0.09734727 -0.32184193 -0.13007273 0.17046222 -0.37226236 0.078352414 0.49289513 0.17051685 0.3169692 0.4432181 -0.30889353 0.31806886 0.27852085 -0.09536327 0.15044104 -0.042626668 0.53074384 0.06700456 0.56563526 -0.019603835 -0.42229462 0.04529098 0.052738056 -0.040455822 -0.1472386 0.24242607 0.36759552 -0.5118538 0.2581923 -0.32802197 0.081248716 0.051508036 -0.19421175 0.12689188 0.008281991 -0.08104857 0.08155895 0.026285646 -0.10417042 0.36211592 -0.6908044 -0.49493057 -0.38358656 0.39100933 0.4052219 0.34126103 -0.3187849 -0.5979879 -0.16373433 0.094085 -0.13099734 -0.0072730957 0.30163446 -0.14388596 -0.46246493 -0.28184503 -0.15180211 0.27591097 -0.2346772
1911 -0.49464217 -0.22660254 -0.36062425 -0.4002375 0.7036867 -0.34457514 0.36136258 0.2978483 0.08170274 0.20343356 0.0015975935 -0.055005725 0.39018965 0.014552458 0.054876354 -0.39525136 0.04970598 0.14711085 0.32253328 0.614516 -0.016336666 -0.059844118 -0.41310146 -0.7593861 0.06452422 0.024771243 -0.25609747 0.48367554 -0.2985731 0.40292823 -0.21330146 -0.09105533 0.037138894 -0.15964553 -0.71233606 -0.518935 -0.41934994 -0.43564212 0.24325787 -0.21683472 0.113242276 -0.3083133 0.4735594 -0.40392765 -0.4596585 -0.032087263 -0.31549343 -0.24532185 0.33136645 0.12136674 -0.37775216 -0.20300514 0.4871177 -0.13410185 -0.09608474 0.19694734 0.1350411 0.61917496 -0.10782865 -0.06500802 0.27518842 0.16813456 0.21378537 -0.1563776 -0.24326174 0.466524 -0.78982365 -0.10713904 -0.10219585 -0.4045113 -0.13204902 -0.71846616 -0.30182135 -0.082989044 -0.17833252 0.27693996 0.089569315 0.25568268 0.4375764 -0.39463633 0.650754 0.30684263 -0.17408691 -0.62272996 0.18824767 0.192086 0.21920499 0.1217978 0.030040836 0.2255535 0.40952668 0.042515583 0.018074417 -0.8205085 0.20238909 0.097697414 0.34917894 0.33288637 0.4055329 -0.25530714 -0.31619498 0.24077792 -0.31424457 0.18837087 -0.3938145 0.03142182 -0.4342954 0.09783904 0.30800414 -0.16663565 -0.43061337 -0.43776983 0.7684316 0.42152852 0.122569926 -0.0074360077 -0.34299946 0.1622579 -0.22315033 0.054913733 -0.55813754 -0.36597806 -0.54587847 0.09913879 -0.12546165 -0.24846153 0.32577768 -0.408963
1611 -0.5194644 0.056793857 0.064307936 -0.24448583 0.17128444 -0.30768967 0.34772387 0.26926446 0.183534 0.04129833 0.118068784 -0.14278722 0.13361257 -0.15494557 -0.73510927 0.96771115 -0.056405995 0.23835592 -0.12823981 0.6080667 0.30194205 -0.3645328 -0.12639558 -0.11254595 0.30865216 -0.3523166 0.2917701 0.089027196 0.25948566 -0.29369298 0.63475907 -0.24335986 -0.27253318 -0.37178564 -0.5083666 -0.16021648 0.15372063 -0.3611887 -0.24163859 0.3432076 0.3026078 0.15734577 0.5975736 0.034137197 0.13077307 0.15372546 -0.5237318 0.05286709 0.4064094 -0.34102333 -0.11462045 0.23726414 0.3084394 0.35716245 0.09073016 -0.37146494 -0.062390868 0.1905828 -0.216596 -0.6202469 -0.19228506 0.4996052 0.145136 0.31758222 -0.43713388 -0.15875806 -0.16333099 -0.62182015 0.15624431 -0.62943226 0.13402033 -0.062132835 0.0866306 -0.363532 -0.091505736 -0.04403465 -0.022671297 0.27197194 -0.29439738 0.0149938455 0.21284212 0.36288851 -0.318876 0.001648176 -0.34372506 -0.1869053 0.23560894 0.48120117 0.022178156 0.29288775 -0.22843614 -0.15730654 0.26023015 0.307904 0.25614458 0.07757945 0.09599909 0.3526487 -0.13688627 0.5804326 0.24585992 0.16829899 0.5481853 -0.08139939 -0.26247713 0.40572014 -0.5049743 -0.21641558 0.013961968 0.15501578 0.09947919 -0.62244445 -0.31803042 0.3653328 0.104395874 -0.28738523 -0.33873627 0.45021814 0.51765025 -0.3321623 -0.08948249 0.14281194 -0.3590926 -0.30037114 0.06911172 0.021078069 0.11261806 -0.1531812
2209 -0.810224 -0.09315986 0.12266311 -0.26288 -0.18181928 -0.42107514 0.4194489 0.17513967 0.28746262 0.08884544 0.5239356 0.5585378 0.3968714 0.1735807 -0.20674038 0.746221 -0.2515878 0.027603438 -0.041348197 0.60350865 -0.059671998 -0.8021762 -0.48701116 -0.07874007 -0.26944524 -0.081953615 -0.24386458 0.00727667 -0.48545858 -0.06267436 0.58634627 -0.13752335 -0.0173899 -0.22701328 -0.03493756 -0.15200804 0.025137903 0.026279276 -0.17733073 0.5448382 0.30958253 -0.09490869 0.60598826 -0.20480686 0.114229456 -0.11112487 -0.31675634 -0.15593673 0.29755193 -0.45262447 0.14990012 0.2735724 0.3093693 -0.06313775 -0.10397841 -0.02449551 0.2381727 0.45134565 -0.16076201 -0.52071387 0.20581885 0.788569 0.30146778 0.014324269 -0.13226664 0.106533214 -0.54060763 -0.8045712 -0.26138857 -0.27878663 0.24337965 0.12519366 0.061577592 -0.027688926 -0.15722342 0.38970357 -0.11032508 -0.2093213 -0.2098698 -0.058122627 -0.15395902 0.48817545 -0.3646832 -0.16606863 -0.205641 -0.034684572 0.13041662 0.7865363 -0.33030084 0.26728126 -0.36103794 -0.75219697 0.011047374 0.27737054 0.2544483 0.093827955 0.421263 0.11410454 0.35147756 0.4027545 -0.34492478 0.06809803 0.34815696 -0.10511182 -0.6354612 0.42158654 -0.24325798 -0.121074006 -0.490009 0.21004656 0.4669551 -0.2053502 -0.3289831 -0.12942691 -0.25532472 -0.05195592 0.17128676 0.43003032 0.039528262 -0.3162259 0.106833726 0.333598 -0.3317086 -0.3858054 -0.20632972 -0.048164118 0.12607329 -0.0729071
1106 -0.4332369 -0.029727893 -0.16530365 -0.34407508 0.18373021 -0.08726829 0.18286672 0.099028155 -0.058891393 -0.37183622 0.6667501 -0.21924949 -0.0118475845 -0.250143 -1.1998863 -0.101714805 -0.034724146 0.3684417 -0.16886635 -0.2137681 0.12509482 -0.021641035 -0.1977486 0.019009538 -0.07121711 -0.38295987 0.23289245 0.36782616 0.110752545 -0.22299506 0.45806253 0.08142915 -0.23994395 -0.2982087 0.022694606 -0.42051414 0.17609833 -0.46840897 -0.04133362 0.55758935 0.45314863 0.29336473 0.48925418 0.22229792 -0.11422209 0.40384713 -0.18976365 0.14937544 0.5279347 -0.5987468 0.010874549 -0.114534594 0.1925108 0.26297504 0.13901223 -0.4060134 0.39708135 -0.07018554 -0.2950476 -0.7558171 -0.21380804 -0.3162502 0.59117806 0.15108798 0.47894108 0.16647618 -0.41418675 -0.6035877 0.19006297 -0.36323273 -0.41529328 -0.47221905 -0.10214442 -0.70597327 -0.085225575 0.13558732 -0.23732728 0.09053008 0.28420407 0.0035254913 0.29810628 0.102708995 -0.1716305 -0.48096898 -0.19704007 -0.06639216 0.17356132 0.046356857 -0.2813614 -0.16877899 0.26544818 -0.4326487 0.36674824 0.3972686 0.4897435 -0.035779644 0.34867358 -0.072877765 0.018988648 0.55172914 -0.32955897 0.09497047 0.25598282 0.5013374 -0.07375807 0.13560002 -0.40589175 -0.25110757 -0.17579225 0.1294803 -0.055616464 -0.50496054 0.30957207 0.3867058 -0.05617677 0.034818728 -0.17765439 0.1841566 0.2035208 -0.16312532 -0.27538785 -0.085273705 -0.01627996 -0.5253265 -0.022713961 -0.15185459 -0.026562287 -0.5438631
1103 -0.3765945 0.158582 -0.37384242 0.114955544 0.4867196 -0.16371617 0.15254642 -0.04290988 0.42601174 -0.49470088 0.34225884 -0.43168655 0.25028166 0.028262574 -1.1120254 -0.09451636 -0.20733187 0.30372325 -0.10046928 -0.31274813 0.11991948 -0.049870607 -0.29210705 -0.22023189 0.041965257 -0.2096246 0.32200298 0.48517206 0.11119839 -0.27625778 0.55983347 -0.36720943 -0.14636384 -0.2349247 -0.14979182 -0.35775766 0.10432148 -0.23665069 0.33878547 0.54466957 0.6090164 0.5278324 0.60628945 0.24632025 -0.15295859 -0.0504671 -0.122599356 0.6176006 0.4734781 -0.5026883 -0.14724295 -0.0010154009 0.15759028 0.027784703 0.07939861 -0.17181574 -0.0068585775 -0.17309122 -0.4384931 -0.8094504 -0.52033436 0.20958762 0.5784286 0.106139086 0.56627077 -0.38348678 -0.44884628 -0.2817037 0.25910255 -0.38376305 -0.38635585 -0.23579465 -0.3044422 -0.053236693 -0.47509992 0.4452735 -0.25368258 0.13143437 0.2135853 -0.18136284 0.16462538 0.16331688 -0.07141531 -0.4858228 -0.40204003 -0.052933954 0.30968767 0.5792537 0.19762988 -0.19447239 -0.07461646 -0.47874776 0.46984825 0.15229379 0.19282876 -0.115967155 0.20979388 0.2150329 -0.10210579 0.07820255 -0.3581797 0.051017527 0.16902445 0.1509755 -0.038708758 0.03396476 -0.499694 -0.27521253 0.08713251 0.17030735 -0.19155715 -0.10014819 0.16147448 0.45217168 0.062315274 0.106797375 -0.564072 0.041042138 -0.1130596 -0.12746017 -0.19969983 -0.1368752 0.11942726 -0.36278492 -0.22376484 -0.44063646 -0.48354486 -0.35186893
1604 -0.56365764 -0.008814899 0.083286345 0.16007818 0.39503148 0.09537044 -0.060647015 0.516277 -0.03252885 -0.2955804 0.37066403 0.1375834 -0.15386721 0.07871207 -0.88453287 1.0187662 -0.23743062 0.004318767 0.28988886 0.11187373 0.5079779 -0.31139663 -0.013208786 0.08855917 0.4477176 -0.31517324 0.0150625035 0.12701029 -0.051717248 -0.21274477 0.42714858 0.12088478 -0.01749411 -0.46864554 -0.08290428 -0.24732468 0.27962837 -0.43910548 -0.19034182 0.53327984 0.0881264 0.24648562 0.30394322 -0.06785617 0.24943027 -0.14049277 -0.35498044 -0.13213947 0.7296391 -0.2232701 0.190345 -0.30656993 0.29114854 0.19304176 0.28677413 0.01425768 -0.264029 0.16602334 -0.40046293 -0.62379074 -0.26350278 0.08886709 0.37103105 0.18365501 -0.006047656 0.17459027 -0.34436926 -0.4220292 0.10873552 -0.48426238 -0.091568135 0.03697059 -0.33780858 -0.55872643 0.041791007 0.37688392 0.12900804 0.5391547 0.7016945 0.04388169 -0.042366665 0.44831434 -0.07537987 -0.10945938 -0.35939437 0.22741368 0.27941635 0.36852857 -0.2829218 -0.03832991 0.50117713 -0.20277199 0.032476563 0.28319463 0.4331215 0.27958435 0.24798355 0.3430925 -0.05960263 0.47813806 0.30144984 0.09259738 0.42198193 0.11830383 -0.3190399 0.22655699 -0.18768087 0.0053945356 0.28238416 0.24481799 -0.046039186 -0.42499208 -0.041244827 0.6472374 0.33654734 -0.27707282 -0.13563545 0.017925715 0.50222933 -0.32077944 -0.022135206 -0.018751225 -0.28183696 -0.561581 -0.22719043 -0.15777503 0.16063909 -0.2935514
2207 -0.7797444 -0.42232063 0.19974524 -0.34043458 0.13302918 -0.49425662 0.365631 0.71896887 0.042221665 0.3785945 -0.08785441 0.29702526 0.6878612 -0.26781085 -0.44256955 0.18652086 -0.3261233 -0.114986986 0.15721512 0.4159781 -0.02357493 -0.27148214 -0.55971164 0.40843415 -0.12249601 -0.59620154 -0.62420195 -0.039175827 -0.50040185 0.09682447 0.57467765 -0.58155894 -0.09800859 0.3302021 -0.026901089 -0.039797325 -0.09953446 -0.3634535 -0.21633217 0.23172791 0.066024385 -0.23333015 0.2947693 0.07762276 0.16240342 -0.19317475 0.31668785 0.035208654 0.05095955 -0.055501662 0.06462361 0.55661356 0.37582448 0.28706807 -0.36231336 -0.093749374 -0.05424223 0.3222809 -0.27867955 -0.32834437 0.31121096 0.20505299 0.4394444 -0.08189053 0.31962594 -0.023770873 -0.3962028 -0.08557673 -0.6808325 -0.053220704 -0.066122204 -0.08111733 0.49793473 -0.062737055 -0.44403777 0.33930433 -0.23477438 -0.012676212 0.0017133421 -0.09933701 -0.15838204 0.14122096 -0.42675886 -0.20707983 0.03632536 -0.035423953 0.23815104 0.67604184 -0.03886941 0.2767664 -0.75124204 -0.0665602 -0.4150013 -0.15376961 0.11970477 -0.37254703 0.57834566 -0.05631933 0.7233997 0.20373693 -0.4916452 -0.08260555 -0.1536556 0.14157443 -0.21854283 0.33008808 0.14449105 -0.5042543 -0.0656454 0.19545627 0.6730434 -0.5936979 0.08029268 -0.029932968 0.15054913 -0.26242107 -0.15109362 -0.14093336 -0.6096354 -0.38973328 0.2699354 0.23988861 -0.026107436 0.012276402 0.025726402 -0.019325553 0.16584936 -0.07788266
602 -0.6207995 0.13161655 -0.3071798 -0.03742482 0.16965188 0.29196092 0.25752574 0.57414114 0.43380848 -0.017743656 0.21057187 0.12010923 0.237099 -0.062771976 0.1255441 -0.026472433 0.20971511 0.7064254 -0.114614956 -0.40678406 0.16609333 -0.07430097 -0.20210691 -0.40315112 -0.48799953 -0.49675295 0.12538536 0.4388628 -0.122295044 -0.06595729 0.28632942 0.041364815 0.019413492 -0.39631984 0.27468833 0.018098116 -0.1687008 0.60087544 0.22834432 0.7408511 0.31691083 0.3640847 0.14069542 -0.2542567 -0.35209084 -0.34440514 -0.3250714 0.6020735 0.16440146 0.28432903 0.18103132 -0.33007646 0.38089 0.4749556 -0.13242325 -0.23466991 -0.5316172 -0.10297332 0.009373173 -0.34027085 0.43291155 -0.21238303 0.31021503 0.2803288 -0.46307805 -0.2370198 -0.37794727 0.74222904 -0.80939794 0.076109305 -0.0373458 -0.024241215 0.51686525 -0.12155837 -0.43423477 0.64120466 -0.006133564 -0.28605884 0.56239045 -0.0012436344 -0.121311694 -0.3132966 -0.33953837 -0.5657908 0.17692423 0.45088506 0.19447297 0.045495257 -0.7359692 -0.04219251 -0.388934 -0.18912406 -0.17432928 -0.37017268 0.07616921 -0.48006254 0.24977385 0.34249154 0.4251386 -0.09508316 -0.19406372 -0.19040138 -0.33904403 0.4631581 0.007964462 0.5000287 -0.08221706 -0.405303 0.21151295 -0.4159563 -0.22102699 -0.34465584 -0.39773712 0.29012734 0.12681788 0.059996475 -0.22094142 0.3887952 0.28125787 0.38514152 -0.72103864 -0.18223444 -0.24286729 -0.46386513 -0.34281084 -0.37079766 0.879955 -0.031659923
2563 -1.1097727 -0.54280674 0.1968358 -0.12038171 0.8283149 -0.8274549 0.3306559 0.44185242 -0.26091322 0.30696982 0.6742522 -0.27934277 0.57736546 0.18515699 -0.7628254 0.5308093 -0.062962376 0.20881346 -0.6015178 -0.10323082 -0.6137382 0.30237627 0.26858294 -0.3444311 -0.54119414 -0.24095619 0.41737175 0.31277716 -0.1840891 0.17294967 0.256893 -0.54469 0.24065349 -0.886661 -0.49049288 0.11378548 0.322771 -0.35698488 -0.03589265 0.6882682 0.15807824 -0.18970317 0.27065098 -0.7266731 -0.2373001 0.09196695 -0.0055673113 -0.055736978 0.5902858 -0.58082926 -0.2682085 -0.11591775 0.017467137 -0.07765132 -0.39122075 -0.5152616 0.30558425 -0.3419457 0.051096722 0.12031649 0.61673075 0.33449802 0.02946745 0.94850856 -0.56276923 -0.8784059 -0.054469805 -0.6630683 -0.76391745 -0.16461332 0.30121735 -0.0707934 0.6079518 -0.09509768 -0.36544427 0.41007718 -0.5324578 0.1656201 0.9927704 -0.13651651 0.24423718 0.033932317 -0.5300658 0.067956924 -0.75706273 0.1143138 0.81341517 -0.05760605 0.03415728 -0.037662964 -0.3064781 -0.4286121 0.1669448 0.32806757 0.13670067 -0.17086838 0.29764965 0.06334933 0.9079644 0.16550565 -0.65281606 0.36999354 -0.31481108 0.9062631 0.24013172 -0.33547604 0.12134802 0.4398907 0.05717791 -0.38985988 -0.018861499 -0.44431737 -0.27561387 0.27672014 0.50496733 -0.21691617 -0.08622936 -0.1616019 0.4400442 -0.288323 -0.3305889 0.31192452 -0.36479905 -0.9278484 -0.71441776 0.22361778 0.40045226 -1.0062543
1912 -0.6469159 -0.8059506 0.01089338 -0.1764107 0.11615847 -0.24271528 0.013976271 0.3042696 0.09240554 0.15480794 0.03416571 0.06175933 0.21827172 0.22109544 0.29734337 -0.23408133 0.17433116 0.5316139 0.23884095 0.4918691 -0.3201013 -0.5185966 -0.35029277 -0.28734258 0.36743903 0.31447768 -0.22973318 0.4374908 -0.7552565 0.032954745 0.022070017 0.20240256 -0.27734742 3.288107e-05 -0.5142762 -0.41162384 -0.88103706 -0.14523934 0.27538466 -0.047248874 0.2965812 -0.4903988 0.2714084 -0.4496126 -0.22797301 -0.20787735 -0.14290483 -0.25444213 0.07169818 -0.04161375 -0.034742642 -0.53894943 0.62848973 0.03921281 -0.16286567 0.4702228 -0.32788876 0.30586317 -0.24209927 -0.35297176 0.6592923 0.10315531 0.33270487 -0.3468709 -0.22646408 0.36081338 -0.7518022 -0.41096953 -0.1928146 -0.46468186 -0.64194876 -0.5339896 -0.55071366 -0.0049408455 -0.33039218 0.1181101 -0.08865528 0.011064414 0.2504306 -0.24426675 0.28623325 0.21519057 -0.368639 -0.5791847 0.00983342 0.17994395 -0.320642 0.038049463 0.29607877 0.051952362 -0.1153988 0.053951792 -0.20351082 -0.5112937 -0.033245776 0.28338596 0.24163143 0.2909904 0.4479549 -0.20317207 -0.27221912 0.28110033 -0.51228946 0.16172896 -0.17508917 -0.092074096 -0.5015476 0.03445949 0.24041386 -0.32290486 -0.12449087 -0.2565075 0.8792343 0.69052505 0.46873885 0.060230337 -0.07359028 0.2321968 -0.044561017 -0.20979397 -0.4964173 -0.3667931 -0.4376272 -0.46441585 -0.119486764 -0.26505306 0.040414862 -0.27886438
1307 -0.97754717 -0.292516 0.25809294 -0.0222375 -0.16832523 0.12315969 0.46222445 0.6469071 0.4532141 -0.5639913 -0.24818535 0.0047135064 0.35614395 0.10562333 -0.42556778 -0.048442002 0.028539583 0.75060993 0.013367927 0.4028153 -0.1313581 0.1616369 -0.40672928 -0.15703969 -0.25480694 -0.22084813 -0.112860635 0.69403917 -0.1421899 0.16133602 -0.39074516 -0.059745003 0.3174214 -0.01256254 0.119194806 -0.2166612 -0.5754116 -0.11757841 0.23534016 0.5371254 0.3585573 -0.16911213 -0.083160445 0.47463903 0.16350883 0.4333717 0.19071542 -0.2790803 0.49081814 -0.1472676 -0.037238136 -0.0072543626 0.20602238 0.11384153 0.16541822 -0.19856152 0.17752947 0.48105848 -0.5657353 -0.19551504 0.47946015 0.17853992 -0.35269448 0.42875645 0.35405862 -0.35465392 0.07987178 0.188996 0.005948109 -0.21516448 -0.795307 -0.54090995 -0.1692363 0.11107829 -0.6174588 0.3773079 -0.8567308 0.017928015 0.9531107 -0.16561064 0.058600914 0.026045019 -0.12202062 0.0014891189 -0.27820218 -0.08712995 -0.25196385 0.68554413 -0.19870089 0.28933594 -0.52763027 -0.46146956 -0.27489996 -0.10887453 -0.19785845 0.65891516 0.27573797 -0.07526685 0.14900249 0.40204445 -0.0028169164 0.0499965 0.16181783 0.24559326 0.0074193245 0.744178 0.1232258 0.23602642 0.10913417 -0.30846167 0.005811864 -0.88359714 -0.27141738 1.1660715 0.19294119 0.16295165 -0.8526434 0.082782835 0.24407858 -0.4790873 -0.7348368 0.5767643 -0.1264705 0.3460134 -0.08348992 -0.26325166 0.0069226543 -0.96490103
2114 -0.7604673 -0.30366194 -0.010828727 -0.35171983 0.4002591 -0.16691127 0.14545874 0.5948522 0.23100127 0.3975392 0.27683654 0.30468446 0.4630936 0.108646564 -0.07233068 0.3136068 -0.01533495 -0.28579524 0.1705221 0.1269048 -0.1332503 0.08037462 -0.76841295 0.16497159 -0.25549915 -0.20700961 -0.5080805 0.2514349 -0.38567466 0.113465816 0.12292966 -0.17551845 -0.48104674 0.15940833 -0.42835766 -0.28796214 -0.040000226 -0.05737425 0.09304103 -0.06526103 0.44881773 -0.22210386 0.0060255337 -0.0573202 0.63740635 -0.22995634 0.19579825 -0.060152527 0.41507462 -0.2847091 0.2589756 -0.26863545 0.5643009 0.10997023 -0.013802642 0.55112064 0.28630823 0.49493605 0.09594737 -0.2354587 0.83171374 0.5197042 0.27468678 0.26474392 -0.14983758 0.3447132 -0.26036873 -0.018359708 -0.4998872 -0.07507572 -0.27027568 -0.35794008 -0.038367603 0.025507849 0.011486198 0.32078686 0.096638255 -0.09900534 0.3764172 -0.25677922 -0.11346234 0.4359429 -0.22430222 -0.080771334 0.094970904 -0.3277135 0.40600917 0.44518313 -0.068274826 0.083736494 -0.27743363 -0.4089368 0.049392127 0.14466228 -0.10896161 -0.56978464 0.35901362 0.36762023 0.18912135 -0.13778506 -0.27601537 0.113335185 0.22115469 0.078029126 0.06317143 0.39951757 0.26312378 -0.43699288 0.14351735 -0.58612585 0.047119312 -0.1365354 0.38565147 -0.22643913 0.08177998 0.149609 -0.4246973 -0.0769235 -0.31989905 -0.001263384 -0.30936816 -0.18630072 -0.28241184 -0.02100564 0.43079117 -0.11380211 0.53355825 -0.048772477
2208 -0.6664504 -0.40481296 0.022271741 -0.59383595 0.057911295 -0.15143651 0.48384118 0.099930055 0.22686465 0.6555262 0.136317 0.29858536 0.540772 -0.0709032 -0.11391666 0.7149954 -0.33228046 -0.15446022 -0.024942588 0.41139817 -0.06598636 -0.49409112 -0.3014635 -0.019983921 0.24000438 -0.32742733 -0.40016633 -0.038664773 -0.5225885 -0.09404577 0.72291297 -0.35713613 -0.21315217 0.34385967 -0.36631823 0.16380917 -0.17212538 -0.20259662 0.11089413 0.23946632 0.08880534 0.083958745 0.07816745 -0.12678756 0.08006446 -0.056897875 -0.0034118115 -0.12659657 0.17611311 0.28476766 0.23319344 0.44263417 0.55132717 -0.004264512 -0.069008015 -0.07232114 0.25541577 0.30620754 0.0074759712 -0.5442442 0.22077088 0.41566142 0.2726722 0.35132056 -0.08878286 0.066711105 -0.51200455 -0.40644866 -0.5083519 -0.41724342 -0.06643434 -0.1180902 0.44503602 -0.21068442 -0.17727986 0.50249153 0.17473038 0.007349368 -0.27778828 0.0056456053 0.06176237 0.14890741 -0.6059077 0.2779359 0.060223125 0.17572773 0.10894004 0.33055064 -0.03294478 0.5528002 -0.7070029 -0.244462 -0.13191852 0.16575497 0.11533884 -0.3742481 0.4943755 -0.10989711 0.22768533 0.3719897 -0.38143682 0.39461344 0.016033065 0.03274363 -0.41827616 0.25663754 -0.23641303 -0.46698916 -0.38263705 0.3709383 0.07552738 -0.5815072 -0.033134013 0.14205322 -0.046017736 -0.33395374 0.019053185 0.042794645 0.04085061 -0.13264257 0.060791258 0.41089088 -0.21655767 0.009819426 -0.12765743 -0.030272475 0.30566302 -0.13796256
1114 -0.59237146 -0.023146499 0.7368625 0.041188408 0.13386463 -0.34214184 0.34326112 -0.012718771 0.37851542 -0.26336825 -0.051855363 0.020055324 0.70694387 -0.0035860916 -1.0051836 0.70456225 0.24049163 0.99293417 -0.046946857 0.046726502 -0.030531393 -0.08328821 -0.31999093 0.18458627 -0.093426034 -0.4123496 -0.060606115 0.58789784 0.12026844 -0.22552791 0.3405596 -0.2730138 -0.2053679 -0.10090283 -0.4142561 -0.24870034 0.09782427 -0.45829192 0.073158324 0.48672175 0.325132 -0.045776453 0.20999792 0.44972578 -0.38754407 0.048862476 -0.26779145 0.10316322 -0.05848977 -0.3976826 0.14572628 0.30082783 0.5628359 0.099055655 -0.18699169 -0.566527 0.32037273 -0.0075430996 -0.26228723 -0.33927324 0.19804503 0.07916868 0.4807997 -0.22333887 0.14770274 -0.33678153 -0.38261315 -0.54832137 0.32451424 -0.41010067 -0.372548 -0.1675283 -0.06072702 -0.45961863 -0.89489865 0.20101142 -0.47209826 0.09565627 0.10050361 -0.18352324 0.36382395 0.1685789 -0.11628471 -0.60665244 0.07842562 0.04764151 -0.35434353 0.20024012 -0.6637046 0.26874655 -0.033961188 -0.37961236 -0.19166386 -0.0026304252 0.5548029 -0.033451613 0.031714782 -0.23010059 -0.2384427 0.06722322 0.19875708 0.13103347 0.40351444 -0.06521145 0.22949961 0.11703991 -0.5240354 -0.021189725 0.36331344 0.10595755 0.06406838 -0.15848516 -0.056213666 0.13602383 0.11167362 -0.07549236 -0.45854205 0.16818897 -0.18381383 -0.48556817 -0.43298614 0.46621642 -0.10811772 -0.013927386 -0.33211026 -0.5184896 0.04784698 -0.16479626
805 -0.806672 0.1994402 -0.022613235 0.18101287 -0.054515462 -0.25086045 0.10313811 0.2043081 0.8011397 -0.07775616 0.2448371 -0.28926614 0.23036295 0.19994088 0.3074248 0.5149087 -0.050249897 -0.16271222 -0.019716505 -0.2246542 -0.057065368 0.3079397 -0.23784111 -0.3477163 -0.18975239 -0.15649904 -0.1519511 0.10607784 -0.66838306 0.19359276 0.22096735 -0.052743647 0.02691471 -0.10497037 -0.40253097 -0.3906936 -0.16439366 0.5306585 -0.091600604 0.57891375 0.6145923 -0.10564852 0.074006386 -0.027087882 -0.25125974 -0.22881588 -0.17560384 0.22487815 -0.01982893 0.19884202 0.12417217 -0.43832895 0.16868906 0.17966962 -0.23756707 0.026154632 -0.01938391 0.1386327 0.13840619 -0.34492216 0.65817314 -0.07711645 0.30575606 0.32301858 -0.20680064 -0.18740259 -0.26992425 0.57222414 -0.5086466 -0.104049444 -0.06262028 -0.52721703 0.435134 -0.100837916 -0.20320444 0.43722254 0.13317479 -0.46682605 0.7441746 -0.12577245 -0.31370544 -0.47507125 -0.49369273 -0.080469824 -0.0028244955 0.21161298 -0.12808795 0.17484096 -0.18040894 -0.10143249 -0.019724097 -0.5308832 -0.40621305 -0.21435711 0.15734361 -0.5465035 0.334898 0.4774257 0.005621324 -0.39930573 -0.26144442 -0.21570346 0.059184402 0.52886194 0.7033188 0.46408555 -0.06884991 -0.24608025 0.032207053 -0.27219096 -0.5800634 -0.15316516 -0.19152957 0.34924877 0.00386044 -0.052841507 -0.023274977 0.1743925 -0.09241013 0.03709275 -0.3038441 -0.14861143 -0.39659205 -0.32910237 -0.18841332 -0.35810164 0.7409003 -0.26835456
3095 -0.16165945 -0.34951338 -0.08128312 -0.04134756 -0.13080566 0.0546318 0.036770284 0.5106027 -0.079843506 -0.16375276 -0.022196641 0.42163023 -0.08601845 0.39828235 0.045389287 -0.39844418 0.17781612 0.7110694 -0.024519749 0.06471882 0.109907135 -0.77685654 -0.39595595 -0.3528752 -0.021405486 -0.5374262 -0.34952593 0.5622346 -0.49886975 -0.10559179 -0.27703977 0.08971906 -0.26677564 -0.29187998 -0.59723663 0.06766697 -0.70565593 -0.018887445 0.44921008 0.18517265 -0.02470115 -0.37030494 0.1445545 -0.18632743 -0.07753115 -0.16631348 -0.3633983 -0.017822789 0.056382883 0.12597123 -0.049884524 -0.45166093 0.33895212 0.22241786 -0.12609445 -0.30113262 -0.9019075 0.36986265 -0.2518058 -0.50218046 0.47548032 -0.15329157 0.63061315 -0.06463681 0.14051276 0.1291437 -0.48509353 -0.16992761 -0.12042578 -0.19315897 -0.19735685 -0.21035242 -0.1988121 -0.10413338 -0.2434338 0.118030764 -0.27248183 0.07209254 0.22423483 -0.26416808 0.46795687 -0.22191171 -0.35225707 -0.5160348 -0.24879031 -0.18569978 -0.3686032 0.032142255 0.013654139 0.0009130546 -0.3406999 -0.4312823 0.101700835 -0.60976994 0.35702544 0.23263073 0.068984695 0.40204054 0.8633202 0.34063902 -0.16881642 0.31889182 -0.5823895 0.1692974 -0.31528357 0.31144646 -0.5684243 0.1639057 0.8341278 -0.4636628 -0.013871667 0.30360273 0.46825045 0.6492931 0.25954244 -0.22041978 -0.17287515 0.5615188 -0.08716498 -0.08156132 -0.4576732 -0.21898852 -0.6522159 -0.63400084 0.1674903 0.024553806 0.49949348 -0.1882909
2307 -0.2985877 -0.34985387 -0.08242757 -0.2520262 0.05690812 0.24043463 0.31671494 -0.010843839 -0.035238385 0.6567324 0.41675928 -0.20202354 0.12182147 0.13822556 -0.53432053 0.057422735 -0.4370848 0.39115235 0.01607682 -0.040048677 -0.1488042 -0.5614375 -0.29437235 -0.39096856 -0.12388102 0.10105504 -0.05089617 0.02509634 -0.2108314 -0.36901748 -0.12766312 -0.34990376 -0.23104553 0.1943336 -0.7339399 0.29952133 0.22502658 0.18899341 0.072906636 0.61658865 0.5149887 -0.088935845 -0.20260638 0.2120917 -0.40360314 -0.00041759724 0.085459776 0.57797456 0.59286517 -0.0039032781 -0.0033593758 -0.26886526 0.43241543 0.6193136 -0.12927023 0.3271525 0.08821346 0.05495883 -0.23767193 -0.026187658 0.12636988 0.2546919 0.5580717 0.34270492 -0.3192766 -0.32604927 -0.4434334 -0.45035693 0.3859052 -0.82699287 0.26337507 -0.8192081 -0.12762876 -0.22987682 0.19812544 0.38497615 -0.53219485 0.08058619 0.64969355 -0.08720143 -0.052682813 0.24341115 -0.31068677 -0.04286175 -0.4827299 0.538189 0.5112066 0.23765598 -0.15842754 0.030617949 -1.1011024 -0.36861148 -0.9387605 -0.08466706 0.24714522 0.095951274 -0.10210125 -0.058119465 -0.20757423 0.30904618 0.41974717 0.07144024 -0.3863335 0.6760061 0.16551349 0.15594023 -0.18130048 -0.22738971 -0.113373905 -0.5298899 0.5621368 -0.009243122 0.6242383 0.5044343 0.10439603 -1.0972272 0.020787774 -0.17693721 -0.16024508 -0.11991581 -0.14405824 0.43357053 -0.6875905 -0.17975964 0.2265948 0.35667753 0.6683246 -0.44773853
2105 -0.8044365 -0.31999815 -0.35378224 -0.17609952 0.53322214 -0.58725286 0.21978556 0.89467204 0.4288286 0.62396413 0.021857705 0.18762125 0.32550985 -0.11645379 0.026010213 0.123937555 -0.5390501 0.07379399 -0.14036606 0.040863264 -0.2721896 -0.041683447 -0.72944236 0.0293221 0.02629594 -0.27561632 -0.48823857 -0.046707656 -0.37128368 0.4126502 -0.03689707 -0.0722381 -0.40975758 0.21872212 -0.3436421 -0.4115108 0.03534147 -0.2389577 0.20536159 0.10917216 0.25294772 -0.22029874 0.06434898 0.37173977 0.25250494 -0.1550213 0.55772275 -0.26390448 0.46732736 -0.015754763 0.123859815 0.0257614 0.26173165 0.017068345 -0.18804993 0.56454116 0.40096667 0.39558798 0.06341116 0.16154167 0.35871682 -0.31900683 0.15071358 -0.032203645 -0.32693726 0.0049276114 -0.061503626 -0.32003278 -0.3848938 -0.2319802 -0.0668976 -0.31249073 -0.1848361 0.040136535 -0.12573692 0.03809004 0.47434908 -0.07505518 0.5065578 -0.17091651 0.05356421 0.4475545 -0.48755428 0.18479839 -0.042739816 -0.103547774 0.69554424 0.62468356 -0.47401303 0.2206057 -0.13464665 -0.4165235 0.1554404 0.05825721 -0.033996772 -0.2501113 0.37053192 -0.038288206 0.03935963 -0.13656616 -0.41401055 0.08687067 -0.21192218 0.34812623 -0.33401042 0.281236 0.024676356 -0.072345346 0.23258168 -0.21863222 0.076568395 -0.27847758 0.14803082 0.11797024 0.068940274 0.16314876 -0.33760065 -0.06604782 -0.3462424 -0.058305264 -0.7723057 -0.17622976 -0.34338817 0.3043074 0.30634478 -0.124778904 0.33943117 -0.14871073
1004 -0.037411287 0.32205746 -0.24860612 -0.059530478 -0.1811511 0.047771297 -0.08079323 0.2632001 0.08646421 0.097063735 0.1655334 0.001530473 0.3422711 0.11947972 -0.4219188 0.53550756 0.16274197 -0.10410423 -0.3851642 -0.42067903 -0.19264701 0.26381433 0.20832069 0.061569534 -0.099871166 -0.05127734 -0.34915194 0.43996602 -0.6680512 -0.2563745 0.40182814 -0.5050836 0.5240388 -0.55361074 -0.050870556 0.015149431 -0.3991998 0.17705953 -0.50085 0.5336452 -0.1300778 -0.14827916 0.1564191 -0.14826447 -0.27724862 -0.49310255 0.1281542 -0.44491196 0.40706432 0.11025544 -0.046502173 0.17482501 0.1245895 0.64025736 -0.38608152 0.2074458 -0.083316885 0.4421247 -0.2808142 -0.43700007 0.21486376 -0.04414587 0.2801837 0.24858576 -0.55114216 -0.2717627 -0.18750562 -0.32881227 -0.08196523 -0.23996747 -0.4504077 -0.59401035 0.45473486 -0.25614005 0.031191198 0.5350427 0.47999874 0.40205678 0.7666723 -0.0066144736 0.19047117 0.051679764 -0.6592028 -0.05195564 0.022463381 0.2535116 0.09413629 0.39953476 -0.03589437 -0.3659578 -0.001319594 -0.30962005 -0.25723675 -0.32489184 0.2851453 -0.23662436 -0.027596282 0.6913823 0.16093452 -0.10642742 0.10894206 -0.14377019 0.31419438 0.02058099 0.012553748 -0.16920295 0.11249058 -0.34461942 0.36026013 -0.44709092 -0.683998 -0.5434138 0.25199863 0.065174505 0.22193566 -0.22325991 -0.1821298 0.3481807 -0.16442023 -0.1800436 0.24234991 0.5445561 -0.32993275 -0.20343757 -0.38252583 -0.13982336 0.2916284 -0.051552404
2606 -0.30536842 -0.042982392 0.09768584 -0.16199775 -0.40822315 -0.3069392 0.38502064 0.8009875 0.4183072 -0.41552624 0.24511822 0.18066722 0.031179417 -0.022811536 -0.35009876 1.011416 -0.11134044 0.004275232 -0.25839296 -0.5639899 -0.25533387 -0.16924573 -0.11912766 0.15174821 0.25572076 -0.30086607 -0.16292165 0.30992788 -0.42337272 -0.12614009 0.14419694 -0.24515806 0.5775541 -0.2332652 0.14236954 0.22808637 -0.4239843 -0.14879324 -0.3095983 0.5424022 -0.015207872 -0.0525938 0.13079417 0.09333132 -0.28046855 -0.16427982 0.06686735 -0.7263856 0.6544286 -0.082758896 -0.10468093 0.26508695 0.45216012 0.7814323 -0.38282612 0.33260304 -0.05991027 0.05204295 0.1171026 -0.6929921 0.34969202 0.18334895 0.16862458 0.4485018 -0.12323353 -0.33332646 0.09666578 -0.1798183 -0.0009897862 -0.16177799 -0.21685684 -0.65303797 0.03666819 -0.29831398 0.15130955 0.5124611 0.37928927 0.17198582 0.4891413 -0.05710032 0.0760122 0.03804845 -0.3550507 0.009199682 0.0191838 0.583966 0.5068727 0.14748764 -0.0437399 -0.08826609 0.012474541 -0.06155752 0.5184914 -0.17050661 0.33838305 0.19559708 -0.24560465 0.41293922 -0.14762627 0.22273462 0.26470825 -0.047045205 0.106357865 -0.19657558 -0.22893496 -0.034874972 -0.04777343 -0.43095738 0.52637637 -0.3687137 -0.6061489 -0.4658614 0.1765011 0.16043426 0.16283552 0.05422271 -0.5914757 0.24211405 0.21092305 -0.29168138 0.1843786 0.01965903 -0.18257418 -0.016591039 -0.06343225 0.1676048 0.353755 0.08527655
