1550 128
2483 0.025384538 -0.18201585 0.08178917 -0.1214992 0.5406358 0.14510585 -0.103879005 0.21328089 0.020375108 0.10580638 0.38225302 -0.20240572 0.16936983 -0.1501548 0.26387587 -0.082651965 0.34328392 -0.32061377 0.34195215 -0.18372324 -0.0033918913 0.14561285 0.090881355 -0.10039029 0.010988064 0.25474647 0.03731864 -0.13890955 0.022632146 0.07284927 -0.20205475 0.29745317 0.49104264 -0.3663099 -0.12852344 0.044812877 -0.094352104 0.054415576 0.16927199 0.13240068 0.32081094 -0.11019239 0.27678514 0.0032531798 0.23512934 -0.27508187 -0.14250332 -0.14019819 -0.21886076 0.2734336 -0.5547421 0.18531905 -0.24568553 0.045649104 -0.4987734 0.40075397 -0.32826123 -0.111007854 -0.49337694 -0.27234012 -0.17163005 -0.24035472 0.047437087 -0.029301263 -0.115525685 0.0428834 -0.04893175 0.072610445 -0.21348006 0.0039162985 0.011536377 0.26835304 -0.20555237 0.021362448 0.250737 0.3266979 0.19431555 -0.06301763 -0.06982072 -0.28707406 0.09300851 -0.014241272 -0.5813097 -0.5049769 0.024567785 0.22669236 -0.35210901 -0.07060724 0.10734448 -0.65051895 0.28576928 0.009323114 0.25857016 0.16150558 -0.40117282 0.18020354 0.060530968 -0.019085715 -0.30441564 0.5185295 -0.42199588 0.163368 -0.06908237 0.55107045 -0.5111042 0.058410015 0.45787308 0.34846082 -0.219008 -0.38623315 0.060949128 -0.029632894 0.049554788 -0.042305764 -0.17587578 0.4434872 0.0076133306 -0.21982466 -0.28818858 0.16946399 0.18675475 0.35225838 0.13504845 -0.15917462 0.21269853 -0.28626594 -0.43592778 0.07705597
2770 0.24389571 0.09441773 0.33015633 0.103062116 0.20140438 0.3149901 -0.14975667 0.40207115 0.4550988 -0.24533784 0.017354844 -0.48262364 -0.07789897 0.31824777 0.38415956 -0.05948089 0.32309386 -0.4546524 0.09311165 -0.074537 -0.22220948 -0.25207528 0.464146 0.043482102 -0.277342 0.42475522 0.17913787 -0.016126404 0.14996509 0.45099905 -0.08648207 -0.608203 -0.19661212 -0.2659581 0.10074614 -0.33192182 0.20879838 0.17537329 0.15200515 0.39105254 -0.06822387 -0.10368631 -0.24639417 0.031252876 0.43118992 -0.25294766 -0.2033041 -0.28532055 0.07519022 0.13748887 0.09503549 0.022069873 0.27266788 -0.25351846 0.48615026 -0.020045092 -0.33877692 0.037576374 -0.15741578 -0.00909416 -0.4335638 0.24910644 -0.22835535 0.023652242 0.3007116 -0.12407954 -0.068465866 0.098908804 0.1547739 0.1839954 -0.029474154 -0.25812024 -0.050770592 -0.669845 -0.042144217 0.5946717 0.38529304 -0.26967204 0.3784686 -0.28469113 0.17591612 0.20948713 -0.3209038 0.0605918 0.14575736 -0.26773515 0.18671905 0.04502979 0.24779546 -0.230248 0.23252279 -0.12165043 -0.29013082 0.0049225823 0.15822607 -0.3690052 0.056114323 0.2558852 -0.38226518 -0.02629424 0.1571027 -0.21594614 -0.030360175 0.27904177 -0.049152225 0.3394372 0.042709038 0.016907748 0.20761427 -0.2246464 -0.10873492 0.11270253 0.24584872 0.09512318 0.24067506 -0.47527024 -0.13150091 -0.009442178 -0.28569105 -0.046294592 0.043308858 0.20062667 0.09634214 -0.18361765 0.1926285 -0.21256734 0.03587381 0.047023885
2852 0.5105322 -0.095178366 0.11896264 0.44641915 -0.07633844 -0.2303498 -0.14024752 0.5604901 0.28884232 -0.3902833 0.30365252 0.031058809 -0.19960746 0.22051178 0.094027564 -0.2225732 0.15410885 -0.22205393 -0.25379238 0.13996974 -0.11148077 0.34377164 0.2740527 0.15524012 -0.46857753 0.57332593 -0.05774409 0.08649104 -0.056134805 -0.15326145 -0.23179546 -0.036413174 -0.016312927 -0.075933896 0.6179546 0.031578902 -0.34439027 0.40901986 -0.043884974 0.26651153 -0.21038291 -0.044080924 -0.16128415 -0.033150986 0.4278054 0.14847073 -0.10875764 -0.026740909 0.45860383 0.13845153 -0.023210783 -0.14854364 0.019971838 -0.0637101 0.34206077 0.0012040648 0.15832122 -0.06329417 -0.27955005 0.51468396 -0.06195391 -0.20832607 -0.3296587 0.15105757 -0.095677406 0.1369251 0.08732922 0.0706197 0.36820287 0.063108675 -0.33577964 0.009684205 0.34434015 -0.08070407 0.40799814 0.44101113 0.17238165 0.15502699 -0.05105965 -0.20946021 -0.067933924 0.3513315 -0.22153535 -0.16839355 0.09297307 -0.017969334 -0.004161107 0.24838088 0.13688761 -0.19259143 -0.07304786 0.05184427 -0.26906455 -0.05757554 0.5394487 0.009212673 0.07838228 -0.029041568 -0.44315034 0.2585426 0.56505895 -0.25756454 0.01913093 0.14301364 -0.019310236 0.51157147 0.38032204 -0.33849296 0.26579386 -0.12925485 0.31262565 0.16102798 -0.40918648 0.37743303 0.18596618 -0.10804361 0.0038228894 -0.20991483 -0.69693136 -0.28032517 -0.36373115 -0.091387734 -0.14516817 0.0139272055 -0.4563882 -0.060534276 -0.09657339 0.41666463
2887 0.19360489 0.12183295 0.16814367 0.29892895 -0.042358093 0.014816544 -0.33301732 0.29638666 0.22898455 -0.16646887 -0.5158042 -0.45163533 -0.027539253 0.1621942 0.39513323 -0.28254017 0.5486312 -0.029860102 -0.12637912 0.23472412 -0.15293826 0.29370067 -0.15066883 -0.21508005 -0.4333956 0.57286185 -0.3920989 0.042173956 -0.1356975 -0.12448797 0.192136 0.21892515 -0.01738971 0.06416091 0.31080472 -0.21620919 0.023530403 -0.32528272 0.3065509 0.14093192 -0.043702997 -0.24478158 -0.25682873 -0.31483155 0.121404834 -0.06252153 0.047732856 0.0051009688 -0.37596527 0.31372768 -0.04490128 0.22244707 0.068413556 -0.23709178 0.3410575 -0.36040357 -0.04715572 -0.12369223 -0.026592249 0.5050252 -0.046370786 -0.20620482 -0.10411155 0.23859571 0.25798908 0.31582835 0.32739186 -0.3126746 0.32320976 -0.05586111 -0.07517665 -0.36572987 -0.3011407 -0.15368769 0.055861317 0.74692816 -0.35963413 0.2962374 0.1958728 -0.6130285 -0.14361769 0.24657 -0.5228145 0.06602226 0.14308861 0.28596565 -0.17766201 0.022784514 0.33014697 0.017919067 0.10780751 -0.32017872 -0.39020061 -0.058122985 0.17094658 -0.5322123 0.41537726 -0.22924018 -0.32805902 0.1808197 0.37562045 0.18999672 -0.20717953 0.034032602 0.20464097 0.49957904 0.35478753 0.24703087 -0.04562055 -0.28638247 0.2377125 -0.094665915 0.05608107 0.13754104 0.18709506 0.19079944 0.2156525 -0.104235575 -0.48889232 -0.116441764 0.055251505 0.39224643 0.014975941 -0.32077286 -0.038434345 -0.15548292 0.08831486 0.18617614
2490 -0.36849827 0.6552331 -0.21792048 -0.12017692 -0.013769872 -0.49124515 -0.1362051 0.26877835 0.20239344 -0.24906532 0.25953937 -0.45361233 0.16875894 0.22653164 -0.0009392095 -0.22726607 -0.10974911 -0.67342955 0.20259857 0.37399465 0.1314223 0.3153644 -0.29144564 -0.029534394 -0.036829505 -0.67121357 0.13032888 -0.80579966 -0.36497304 0.10185104 -0.11396524 0.004440507 0.01564128 -0.1392073 0.2274662 -0.37507445 0.048307814 0.10206996 0.44412163 -0.31952378 0.5236005 0.1603892 0.28821784 -0.025963278 0.33414274 -0.21209478 -0.18991286 0.05371242 0.38373524 -0.10168437 0.10503614 0.12082648 0.28967792 0.00032767322 -0.21757787 0.037702065 -0.4140813 0.41827708 0.09817779 0.0446795 -0.11147366 -0.01883458 0.24356315 0.2825417 -0.03896169 0.011827175 -0.0666671 0.1986811 -0.049203333 0.11908327 0.42162475 -0.5284521 0.31955403 0.44168243 0.17890452 0.42416912 -0.1643001 -0.33042872 0.25168967 -0.61842257 0.26024136 -0.5173141 0.13343954 -0.16410366 0.20738596 0.25040945 0.107762225 0.099180505 0.024674358 -0.6925268 -0.31670368 0.0931077 -0.37215555 0.14317611 -0.016569488 0.17217223 0.116166964 -0.49764165 -0.47627127 0.4465547 0.299687 0.024094747 -0.29492882 0.0014663354 0.19206199 0.18201835 -0.07963224 0.5947245 0.44012675 0.266903 0.22974934 -0.0010833809 -0.0021908397 -0.50554484 -0.27905646 -0.3503638 0.061547782 -0.07434472 -0.1289469 -0.20607764 0.006752245 0.05887423 0.16427965 -0.14789128 -0.091711506 0.03503345 -0.20239548 0.3136716
2492 0.09430018 -0.345252 -0.03879208 0.0868657 0.9554729 0.08291277 0.19138217 -0.037912168 0.0033268256 0.047886647 -0.21016757 -0.33448035 0.15495421 0.28603998 0.3148718 -0.08783142 0.61318177 -0.1362668 0.549837 0.28822076 -0.1857142 -0.2826321 0.28444806 -0.07065517 -0.22222042 0.24073268 -0.15628098 -0.43782142 -0.026265921 -0.061541263 -0.40620258 -0.6365893 0.006678673 0.11186235 0.16124417 -0.24321589 0.04118864 0.18377858 -0.009473409 0.5906897 -0.1562804 -0.34325486 -0.5260062 0.06390637 0.1773314 -0.13436957 -0.40093812 -0.14655413 -0.12550977 -0.081121005 -0.10768187 -0.21975166 -0.26472262 -0.18964893 0.23877354 -0.32040897 -0.50453657 0.092361204 -0.0017922902 0.3380426 -0.13667177 -0.240797 -0.0055566784 -0.24601072 -0.21697931 0.32488218 0.32481295 -0.05384406 -0.30814642 0.22148077 -0.0853079 -0.06486309 0.18695153 -0.10593966 0.19102073 0.38037208 -0.06204732 -0.10644767 0.065726615 -0.66031253 0.228651 0.18499579 0.062373985 -0.22930418 -0.04904532 0.5421312 0.05359626 0.04342699 0.16199595 -0.45669967 0.5587467 0.114864334 -0.25585413 0.021633944 0.20841807 0.06369491 0.22724113 0.28120393 -0.3654802 0.6871961 -0.10506704 -0.07525696 0.22224857 0.016076488 -0.083796516 0.04856886 0.87454337 0.26948306 -0.24907272 -0.24093719 0.14257714 -0.21930473 -0.06385375 -0.22857286 0.14483966 0.01400031 -0.063378096 -0.4044095 0.24722202 0.03228697 0.34891197 0.122570075 0.036130033 -0.013161977 -0.094631225 -0.17021568 0.29775295 -0.12929931
2838 -0.02375713 0.13441607 -0.05117775 0.16225635 0.3529032 0.067591555 0.28226453 0.36326993 -0.3157125 0.03886577 0.09359754 -0.039461326 0.18328492 -0.04331726 0.17861114 -0.21953335 0.098409966 -0.41753677 0.07456782 -0.25120902 0.019880502 -0.07447694 0.1257103 -0.0073967916 0.126121 0.06364333 0.09326566 -0.457302 -0.1407949 0.46735114 -0.24236001 0.20155393 0.17230165 -0.030206254 0.012553044 -0.22622329 -0.044003718 0.076813094 0.17908129 0.30352268 -0.15775242 0.45042074 -0.3285066 -0.0698082 0.119890094 -0.62570965 -0.47839776 -0.027059717 -0.24911006 0.18554683 -0.23657107 0.10092605 0.14855751 0.0018290437 0.111863345 0.16242489 -0.45056087 -0.23100597 0.087587215 -0.16617255 -0.05626082 0.087266214 -0.026891181 0.61349267 0.16677485 0.24001549 0.09401603 -0.15629749 -0.17958254 -0.27874032 0.62196416 0.059964873 -0.2404297 -0.2876521 -0.26516432 -0.10077308 0.2985399 -0.27973792 -0.2117762 -0.105927005 -0.054911364 0.16329622 -0.1969678 0.2460226 0.14306632 -0.226131 0.13457105 0.091979645 0.392048 -0.4415044 -0.67883295 -0.16363193 0.09739039 -0.09983276 -0.04400046 -0.027778743 0.07338975 0.1385168 -0.5302337 0.3429969 0.4123417 0.29443967 0.24886979 0.04252513 0.06003122 0.0100575015 0.26235718 0.068184115 -0.3464115 0.39186874 -0.023174906 0.13572952 0.005252682 -0.040351953 -0.11459986 0.25555888 0.08074164 -0.37658718 -0.34569827 0.1919823 0.090854324 -0.11444213 -0.2752087 -0.09830835 0.004528763 0.14310591 -0.3393052 -0.20546064
2580 0.122593306 0.2077927 0.052157387 -0.022732532 0.3182305 -0.0039733574 0.4205955 0.4088202 -0.29016778 0.36131316 0.18452597 -0.17531617 0.11779094 0.059688713 0.32802418 -0.3524031 0.07054647 -0.35743842 0.032445494 -0.1962862 0.3601099 -0.2696337 0.0779256 -0.24643926 0.18388177 0.019027203 -0.056071118 -0.28555018 0.17450692 0.051502477 -0.31190807 -0.1478161 -0.18660535 0.024133649 -0.07353535 0.05163315 0.0025315818 0.11946549 0.1714382 0.4172417 -0.24949531 0.46643966 -0.22159354 -0.12500432 -0.025721177 -0.7707038 -0.37501755 -0.26663765 -0.122977585 0.28349096 -0.24020733 -0.017549487 0.19271895 -0.055185836 -0.089692056 0.2163916 -0.2713465 -0.23297249 0.2487819 0.14331403 0.010394047 -0.06637905 0.045317903 0.25586963 0.061941642 0.3541914 -0.034569856 0.06159433 -0.42846504 -0.222807 0.48193297 -0.08360957 -0.02039463 -0.29701453 -0.056900322 0.026047602 -0.056146916 -0.33649078 -0.22448501 0.020274278 0.0774781 -0.0005340274 -0.045964345 0.38046458 -0.31750584 -0.20806243 0.14081214 -0.11450721 0.25055543 -0.32742167 -0.49029708 0.30847514 0.30571824 0.122520715 0.038745664 -0.024195703 -0.17013325 0.41927278 -0.46725428 0.29181868 0.6090434 0.4981968 0.46605015 0.15656494 -0.09524178 0.20733772 0.21307532 0.18303339 -0.17530346 0.39502853 0.03731013 0.18149559 0.0580302 -0.04979902 -0.30212745 0.44124517 0.064721756 -0.32826674 -0.26744893 0.2608528 -0.060232863 -0.20045567 -0.24151877 -0.18914959 -0.102780126 -0.5968317 -0.13625649 -0.19862497
3013 0.43419993 0.27857354 0.04510855 0.4884453 0.27075878 -0.08382887 0.012330544 0.117373854 -0.09451535 0.11408658 -0.34855673 -0.09168985 0.040381864 0.18725619 0.19454563 0.05937319 0.21546343 0.035121206 -0.3884595 0.14722492 0.18384695 -0.40307128 -0.20949528 -0.086076185 -0.260964 0.03596129 -0.1275801 -0.51244503 -0.05325035 -0.08451228 -0.1796375 -0.42879444 0.4540526 -0.09438371 0.6166826 0.2967974 -0.089256674 0.2809642 0.12246773 -0.14755727 -0.021584528 0.38997424 0.4568609 0.47795302 0.13445204 -0.10435844 -0.09086282 -0.54403776 0.14515436 -0.44230676 0.24925707 0.08165044 0.0616127 0.081585415 -0.1390679 -0.016315285 -0.3836947 -0.38369125 -0.12246032 0.033902116 -0.038602218 -0.73766494 -0.49401125 0.48389104 0.46360973 0.021391617 -0.19156903 0.49540672 -0.17927346 0.2865066 0.29431894 -0.13119453 0.14279357 -0.046889618 -0.1115331 0.4364642 -0.05062552 -0.0064192284 -0.110089086 0.10293316 -0.21199064 -0.16866463 0.043237064 -0.22215089 0.042618334 -0.55053884 0.03230243 0.5111969 0.17774302 -0.6792376 -0.0022876419 -0.2446506 -0.061358463 0.10660776 0.084711485 -0.17800312 0.32750285 0.42248735 0.4596695 0.27878675 -0.04464131 0.3150152 0.13333142 0.20361793 0.046853364 0.36705554 0.50858706 -0.13129878 0.25842696 -0.33224112 -0.29078025 0.11384349 0.2080009 0.3605257 -0.3854247 0.036152747 -0.0010189685 -0.21128343 -0.6363839 0.083045244 0.28667462 -0.0052064923 0.036800593 -0.2568207 -0.035536326 -0.2560597 -0.5160588 -0.11965172
3049 0.116562046 0.36279705 0.026654346 0.07361668 -0.12880693 0.068886876 0.21841697 0.8063604 -0.08019864 -0.25107005 0.08122042 -0.42572105 0.14950787 0.08352542 0.43583056 0.3391395 0.37196165 -0.31078592 -0.20527765 0.0003071415 -0.36987612 0.06926463 0.004749694 0.29188368 -0.18611692 0.46964112 -0.3587955 0.26476595 0.16970159 0.42609486 0.42812344 -0.38419715 -0.25275433 -0.1711578 0.17742984 -0.12793712 0.19871849 0.13379724 -0.0103552025 -0.07809686 -0.4678833 -0.18822312 0.27374196 -0.3211652 0.07057081 0.1364533 0.09436652 -0.14982526 0.48535094 -0.33361715 -0.08013484 0.3846053 0.07356638 -0.18481226 -0.055788677 0.22730099 0.036935855 -0.102529675 -0.14222476 0.09131745 -0.29845122 -0.60161155 0.16717285 0.14301208 -0.2986254 0.1609189 0.14305419 -0.16392784 0.30485058 -0.14147705 0.10604416 -0.19400175 0.099899076 0.27216244 0.14575027 0.81414384 0.24405494 -0.09662937 0.09508772 -0.14725941 -0.019237915 0.38395852 -0.057229348 0.454152 -0.08631055 0.27791294 0.46565828 0.12228198 -0.16808854 -0.12851673 -0.47975856 0.21420854 0.5192589 -0.08499318 0.06187905 -0.014305874 0.049732905 0.15111096 -0.2475967 -0.041137937 0.75259775 -0.070385866 -0.7182812 -0.14890371 -0.33303112 0.40464947 0.3044737 -0.5084127 0.4157069 -0.017177628 0.087845996 0.20024629 -0.40292636 0.11188471 0.01624766 -0.06025351 0.4928726 0.083970204 -0.3531416 0.064897485 0.13915703 0.12972023 -0.17991683 -0.2060057 0.25060213 -0.265458 -0.058296576 0.6010726
2494 0.14395145 -0.30738425 -0.019164063 0.6089608 0.048179947 -0.2626484 0.27558672 0.1266613 0.11205164 -0.43498075 -0.044509076 -0.6529425 0.35138968 0.058705837 0.3762661 0.23766497 -0.31196055 -0.07890439 0.026101435 0.6771941 0.29393572 -0.36685443 0.035987377 -0.120586425 -0.43425223 0.28499588 -0.4901128 -0.24745275 -0.22914705 -0.28345838 0.43799162 0.03552037 -0.18953037 0.23742689 -0.056828257 -0.26008052 -0.108419046 -0.21856529 -0.15594655 0.037227187 -0.19404514 -0.08738125 -0.18578264 -0.35166547 0.11859992 0.14438567 0.17635654 -0.091242805 0.09904039 -0.20076677 0.11401612 -0.19126979 0.1186145 -0.32915187 0.24782573 0.46209252 -0.20425859 0.025880048 -0.4546197 -0.02556826 -0.25919464 0.121355444 -0.27739608 -0.15120628 0.57530874 -0.24609661 -0.119935736 0.3042562 0.23470742 0.036748666 0.35279354 0.0022534344 0.31625518 -0.022906864 -0.4037951 0.23062705 0.03737993 -0.28375217 -0.058472995 -0.25604925 0.05401751 -0.12487472 -0.36113396 -0.42550555 -0.014394169 0.031536438 -0.15834802 -0.24018696 -0.08512467 -0.5616289 -0.38886148 0.4043148 0.23623388 0.31119588 -0.3258095 0.33526596 0.16732408 -0.03736349 -0.69434 0.17980322 0.22581013 -0.016485658 0.38785002 0.017684503 -0.00022330269 0.18828252 0.33421642 0.26203397 -0.048452526 0.06255732 0.14205965 -0.24543306 0.19297343 -0.09252443 -0.07297108 0.005560481 0.2870239 -0.23639718 -0.24488916 0.5919697 0.3584406 -0.21339718 -0.19834976 0.122040264 0.34243897 -0.024243461 -0.25273448 -0.13860801
2815 0.079442084 -0.014404037 0.065955736 -0.13721052 -0.037645806 0.3152083 0.35372135 0.33442533 0.07409699 -0.3004883 0.26241472 -0.6614822 0.23192406 -0.10930965 0.713494 -0.26986665 0.105419286 -0.2652728 -0.20739298 0.13498072 -0.37327024 -0.22308621 -0.18995072 -0.059543654 0.024755191 0.13401017 0.031428963 0.13918337 -0.15704532 -0.12188542 -0.093016006 0.25280386 -0.25211194 0.12695487 0.42554224 -0.13259062 0.2368019 0.12146598 0.19099236 -0.6182314 -0.08321007 0.24177873 0.45388332 -0.32921594 -0.364489 -0.09598696 -0.248784 -0.0023996106 0.16004165 -0.059208598 -0.021368153 -0.024542188 -0.069811106 -0.08438368 0.4218897 -0.17451476 -0.24731062 -0.25094905 -0.17239955 0.542395 -0.24160269 0.44668472 0.036347903 0.1225858 0.4021214 -0.2320719 0.18148184 -0.16919534 -0.18686058 -0.18246108 0.15363932 -0.15972222 -0.10075147 -0.11516312 -0.14211003 0.20211466 -0.18697551 -0.062464885 -0.30384758 -0.394413 -0.3913453 0.18666287 -0.28829926 -0.4224441 0.09430927 -0.08218854 0.086140975 -0.06298932 0.15463805 0.09581661 -0.3969068 -0.08877456 0.3156987 0.06947091 -0.33049488 0.416385 0.25381523 0.27506804 -0.61802435 0.13350794 0.36366132 0.16027442 0.19548707 0.20189485 -0.08282937 0.6775641 0.27506712 0.28243458 0.29245198 0.33792922 0.3729233 0.13815014 0.059627246 -0.17977221 0.34389305 -0.1713379 -0.056735244 -0.27063692 -0.39374086 0.0052452995 0.016852457 0.43094483 -0.07463495 -0.22502226 -0.19414325 0.010420979 0.20642594 0.09330057
2572 -0.10516023 0.050309572 0.27159244 0.3249151 0.21245107 0.1393528 -0.3747507 0.2531528 -0.58772165 0.22669497 0.29120114 -0.19422661 0.014313404 0.32673553 0.4420094 -0.2410229 0.38751572 -0.54716444 0.09459449 0.067311734 -0.074950606 -0.22400226 -0.01762297 0.108235836 0.05643665 -0.039987613 0.020526795 -0.21928748 -0.036716387 0.22456643 -0.32569626 0.20616625 0.020361222 0.23702133 -0.11791582 0.3407496 0.14008306 0.03176121 0.39761493 0.23415497 -0.23556449 0.36232066 0.018400144 -0.32037285 0.040765356 -0.23380227 -0.49464092 -0.0017331964 -0.09502751 0.20954238 0.1413558 0.07344487 0.24343129 -0.31757805 0.37582278 0.00788513 -0.37089694 -0.23068984 0.08825971 0.22654073 0.15980916 0.14244024 0.16451354 0.546337 0.008885865 0.34039462 0.07405564 0.051595576 -0.3230238 -0.44855958 0.13965777 0.24633865 -0.21673681 -0.5072078 -0.292703 0.09306826 0.04546718 -0.41301787 -0.2737088 -0.3756344 -0.30641025 -0.15571946 -0.5926128 0.26995528 -0.12331282 0.09355349 0.71573156 -0.53874695 0.1412597 -0.3768774 -0.5922706 0.14579736 0.09673269 0.23625374 0.079317994 -0.026011828 0.06754467 -0.11737963 -0.5371759 0.34325057 -0.018253133 -0.07137704 0.0068771895 -0.2527778 0.43581188 -0.0107799675 0.15016548 -0.44207516 0.13437825 0.5509427 -0.29066443 0.1528493 -0.14831142 -0.09517575 -0.17437346 0.12228579 0.32534233 -0.12447606 -0.33993006 0.16602464 0.11424518 -0.050483953 -0.05629365 0.16116607 0.23035392 -0.04535472 -0.30885386 -0.2812888
2536 -0.27916652 0.17620844 -0.23439337 0.18119891 0.51523393 -0.4922819 0.31813452 0.18966526 -0.32041597 0.063596554 0.27668482 -0.38567686 -0.33344716 0.4384233 0.5842924 0.19508126 0.4460521 -0.38244715 0.039109766 0.15939152 0.14660539 0.13898382 0.32859528 0.19317943 0.27773222 0.2433845 0.35257447 -0.20431353 0.009888448 0.31918848 -0.23693283 0.29458764 0.23355305 -0.51153255 -0.05684581 -0.1425209 0.11542247 -0.025427697 0.02000173 0.05117357 0.0066399183 -0.21684535 0.18606018 -0.036868867 0.48690194 -0.08003617 -0.30646813 -0.32029548 0.1715822 0.2360637 0.1301256 0.25325987 -0.3757011 -0.53730744 -0.09721681 0.47826633 -0.3690184 0.21141373 -0.05041981 -0.43593878 -0.31223175 -0.048838515 0.24359237 0.22215143 -0.5897777 0.2535503 -0.23741621 0.07073623 -0.097008236 -0.030941118 0.042496897 0.0035348488 -0.011314204 -0.2840308 -0.4718386 -0.07831578 0.26069224 -0.3223931 -0.27632245 -0.083661735 -0.29547676 0.22970043 -0.1434533 0.08326364 0.015024149 0.42080063 0.26825535 -0.24644724 0.21283594 -0.2420769 0.179031 0.0064285845 -0.49489382 0.0017772474 -0.27943274 0.16384017 0.112775065 0.21962118 -0.31205258 -0.006979145 -0.07120772 0.18444486 0.081512384 0.39386046 0.14373484 0.4476321 0.4664086 0.27073014 -0.18417276 -0.14211467 0.27919057 -0.23624994 -0.119119465 -0.2864044 0.022704963 0.22637388 0.3373357 0.24341787 -0.6221196 -0.25197822 -0.28173098 -0.25336134 0.30358607 -0.48373717 0.016521059 0.09229932 -0.06684915 0.1374387
2448 0.12372102 -0.06629476 -0.26520306 0.3961381 0.16348408 -0.41496965 -0.2340253 0.5785803 0.59236 -0.27071428 -0.43280634 0.17214361 0.24036214 0.89247286 -0.05075466 0.2247369 0.3570845 0.22384195 -0.20591265 0.08712472 0.46014345 -0.035809666 -0.016648056 -0.32079425 -0.2598654 -0.016059412 -0.34700277 -0.16676489 -0.0065393005 -0.12955834 0.45266712 -0.037751213 -0.053602118 -0.039597392 0.39236253 -0.23823428 0.24191265 0.27969164 0.0489317 -0.2776413 0.4338838 0.4923338 0.56533664 -0.15257296 0.17676598 0.18051313 -0.24944736 0.0042868154 0.16659153 -0.054403957 -0.14681211 0.0022969719 0.43596956 0.23403594 0.04820718 -0.4116742 -0.80104005 -0.035601385 -0.017585121 0.32133892 -0.42742956 -0.06785983 -0.21767846 -0.05486259 0.081430495 0.031154048 -0.3297247 -0.0058557596 -0.13473721 -0.02051702 -0.08791413 -0.19874024 -0.1968569 -0.015114071 0.07882774 -0.1157226 -0.28611642 -0.016018068 0.10247062 -0.44096184 -0.0664564 -0.041939855 -0.38425165 -0.4517599 -0.19922088 0.2526666 -0.26946104 0.32987309 0.20270285 -0.22271964 -0.35344708 0.3323118 0.0232798 0.0671833 -0.04603492 -0.24073736 0.09365396 -0.29041344 -0.78196794 0.5581335 0.28738892 0.23513994 0.09930511 0.697927 -0.018879086 0.15250081 0.2665909 -0.06083093 0.33793008 0.31688946 0.21715687 0.022849377 0.24647228 0.41316304 0.0024161248 -0.16103151 0.63521457 -0.34726486 0.05074281 0.3481938 0.2521194 0.04568436 -0.10494816 0.09777927 -0.23051329 0.119305536 -0.0100088 0.0396158
2837 0.34226435 0.059760034 -0.11064752 0.15384024 0.40214184 -0.045374334 0.53950614 0.59962744 -0.20196642 0.082678914 0.08989462 -0.32716557 0.13331968 0.056125198 0.10862591 -0.34692368 0.0010636856 -0.5831637 0.2291956 -0.052363455 0.2960795 -0.10069874 0.16665131 0.29739812 0.16875428 0.060246795 -0.03648643 -0.28621277 -0.17592409 0.11350842 -0.19022869 0.09630824 -0.14102408 -0.20197399 0.037243553 0.001776914 0.050385892 0.27475348 0.39653262 0.35556138 0.02352647 0.3921948 -0.12182232 -0.17964491 0.0006931868 -0.6175425 -0.2767686 -0.11199329 -0.44227 0.24192865 -0.29156357 -0.024185127 0.45045927 -0.014565385 -0.09321949 0.07448245 -0.16312124 -0.30859923 0.12664033 0.060428843 -0.061514094 -0.2071337 0.15506548 0.30209032 0.2553369 0.24309194 -0.110829525 0.0045815287 -0.44493404 -0.2646175 0.34433702 0.042354077 -0.28740892 0.015453789 -0.10765805 -0.23910968 -0.1456969 -0.39195728 -0.09306155 -0.07050155 0.055594534 0.08204575 -0.46090072 0.041565742 0.07970449 -0.18463203 0.22578354 -0.13235842 0.212959 -0.38431254 -0.5021061 -0.1395786 0.10933826 -0.18177676 0.036334597 -0.13469076 0.23902735 0.53472775 -0.43944088 0.054217722 0.26085392 0.15312023 0.637793 0.35212633 -0.19403282 0.0006005109 0.27179337 0.13641745 -0.057724908 0.53740376 0.3839504 0.118233725 -0.082691565 0.09717059 -0.21897255 0.21926305 0.033274375 -0.33250442 -0.29647586 0.047908574 -0.08497261 -0.07953372 -0.084989406 0.020352883 0.081942454 -0.28976893 -0.31706548 -0.3003315
2672 0.45907134 0.12115108 -0.3593779 0.28162742 0.48222065 0.09229779 0.34968042 0.48761603 -0.16368806 -0.12305135 0.3476266 -0.43812406 0.22589336 0.036981024 -0.114010975 0.13789275 -0.008850793 0.25752383 -0.17956191 0.20812495 -5.6259087e-05 -0.5806462 0.33991456 -0.3624551 -0.06480478 0.08518673 -0.22832865 -0.20286843 -0.07387989 0.29677448 -0.32606933 0.39827412 0.08490655 -0.049512517 -0.0661449 0.10229564 0.08149246 0.15640928 -0.035107978 0.0029241873 -0.06633001 0.19339277 0.017124083 -0.7447501 0.5078314 -0.39625847 0.45679837 -0.06671365 0.11273884 0.4228667 0.29597023 0.00035992466 0.06262997 -0.39466265 -0.033361025 0.31416327 -0.39350113 -0.45523375 -0.40927404 0.08287864 -0.1527741 0.07023472 -0.18275997 0.31984773 0.35466382 -0.44212756 -0.40587997 0.16841109 0.1790328 -0.54512393 -0.06682581 -0.12771536 0.23080413 -0.07398664 -0.012495351 -0.14031497 0.09664399 -0.5181095 -0.10680441 -0.4486225 0.08785704 0.0726688 0.10159473 -0.12770438 0.09490019 0.08709462 0.24015582 0.067956455 -0.34313306 -0.39379925 -0.39399248 0.39105248 0.2806303 0.19476776 -0.5765027 0.53898305 0.28826433 0.031734053 -0.23077062 -0.14761125 0.099105544 0.06732472 0.34950095 0.27367097 0.013280538 -0.114348374 0.04436494 -0.041850455 0.36012506 0.5026837 0.097581185 0.032149468 -0.24034204 0.069225244 -0.27021107 -0.0030976983 0.43290722 -0.50026107 -0.39834735 -0.0435475 0.042223044 0.048303843 -0.19848798 -0.2896549 0.11734577 -0.14896227 0.080282554 -0.10063543
2441 -0.23972996 0.17972787 -0.119736075 0.37898996 0.41569707 -0.5293781 -0.28322205 0.6816759 -0.01615141 0.12310092 -0.18069306 0.08068334 0.5575515 0.33973354 0.078096576 -0.0038289994 0.6898098 -0.47842142 0.47169328 -0.009978429 0.7691343 -0.1148786 0.23924321 -0.27052575 0.149427 -0.14373332 0.23998119 -0.4075376 0.21691896 0.09110721 -0.4482561 -0.37917238 -0.30452222 0.116476275 -0.20536812 0.003814219 0.41248384 0.53509027 -0.017869955 -0.5619309 -0.10721966 0.12671177 0.21030135 -0.546734 0.06982341 -0.40617043 0.20540003 0.2736541 0.028273812 0.0051726312 -0.36989677 0.31094304 0.30994686 -0.09085467 -0.30000597 0.06498993 -0.37647706 -0.58581954 0.08624648 0.12399179 0.005800084 0.27766347 0.19062738 -0.19238074 0.31242394 -0.0016030709 -0.6673101 -0.11537783 -0.013514002 0.114477076 -0.0689805 0.53054726 -0.9485798 -0.1646516 0.104782686 -0.01238543 -0.28526258 -0.047032405 0.42737898 -1.0221285 0.060237937 0.055974077 -0.32581946 -0.023709105 -0.115440026 -0.44425943 0.114060216 -0.04431837 0.10910996 -0.36033002 -0.28671205 0.14173335 0.24963588 -0.14162777 -0.07114446 0.21359198 -0.22323936 0.41658017 -0.5873969 0.76302826 0.69539577 0.56733954 0.2525928 -0.27509642 -0.40066567 -0.07982905 0.31664088 0.1893724 -0.025646158 0.31402224 0.0018873104 0.40774664 -0.21711664 0.47914588 -0.26275676 -0.14074802 0.014703863 -0.1381395 -0.13715288 0.11746401 -0.027420418 -0.035682704 0.21039398 0.11931688 -0.1865654 -0.15490165 -0.023147438 0.065007344
2579 0.195513 0.037480433 -0.043032315 0.14079727 0.31309548 0.15833844 0.114374645 0.67475754 -0.19087903 0.34599954 0.030074932 0.28440878 0.06678927 0.06437113 0.13852005 -0.103516534 0.063415065 -0.69036365 0.19827817 -0.0006312903 0.14416844 -0.34018046 -0.04016736 0.037692405 0.39102378 0.3105804 -0.33518735 -0.39106947 -0.17673282 -0.1773579 -0.0031617691 -0.11883999 -0.12986052 -0.10006164 -0.23921165 0.38543743 0.10694421 0.3266468 0.21495056 0.48067078 -0.22849119 0.20016883 -0.11058853 -0.4689336 -0.06636775 -0.4635448 -0.21528386 -0.005178451 0.011697679 0.01934077 -0.19608866 0.027548295 0.12378128 0.14219756 -0.12728342 -0.10300032 -0.55190897 -0.39429802 -0.11908755 0.15670633 -0.172308 0.19700612 -0.07759452 0.3046037 0.067699626 -0.15414707 -0.10392907 -0.062259153 -0.025430324 -0.35701984 0.40865672 -0.06914397 -0.4100546 0.132585 -0.30543485 0.014687381 -0.1021442 0.025261404 -0.17912486 0.003910968 0.13199794 0.4703011 -0.03490496 0.18065326 -0.14371844 -0.17625608 0.117553264 -0.5836399 -0.16674209 -0.46933767 -0.82222646 0.023754437 0.20089318 -0.0106254285 -0.18001503 0.0039016958 0.20467715 0.33550927 -0.26158282 0.45911348 0.27964962 0.31885916 0.13949937 0.081400655 0.12734377 0.14027143 0.36235508 -0.08450595 0.18814114 0.52666986 0.31010526 0.36017808 0.2534527 -0.093881436 -0.4817502 0.20525563 0.105616994 -0.30053183 -0.2917005 0.16457596 0.12044933 -0.09298346 -0.31085417 -0.07029225 0.02917499 -0.4823266 -0.39901334 -0.063153
2671 0.09460625 -0.089132495 -0.04419524 0.5214206 0.7517034 0.16938527 0.22144775 0.39935398 -0.18233903 -0.1031653 0.39928547 -0.6032979 0.077759586 -0.0084396275 -0.16953485 -0.51600313 -0.46913272 0.23203343 0.15735003 0.3932728 0.66990316 -0.6571193 -0.021924907 -0.30330563 -0.2386437 -0.03877729 0.111205496 0.13363703 0.037300266 0.25493193 -0.09703125 0.032042928 -0.14300294 0.1350462 -0.09610445 -0.4187989 0.18704498 -0.07423803 0.2291045 0.31460226 -0.22235052 -0.4870454 -0.16105314 -0.43361846 -0.19482115 0.12225217 0.27598673 -0.30047086 0.29701716 0.12124796 0.28872246 0.12512857 0.4974423 -0.19857606 -0.114443704 0.24075462 -0.8539717 -0.1761245 -0.031406105 0.7312859 -0.20269856 -0.15986426 -0.2233044 0.44796202 0.5280644 -0.60539 -0.36732772 0.5330128 0.28894073 0.1500114 0.20849293 -0.022749484 -0.19265287 -0.070653036 -0.04332323 0.048856426 0.1652849 -0.030356027 -0.009734922 -0.11853262 -0.10438915 0.1964017 -0.21602815 -0.22458963 0.24603616 0.33183718 0.109093845 0.1203873 -0.21592098 -0.14862047 -0.16630614 0.310859 -0.12274106 0.16014208 -0.042445507 0.16367045 0.2661339 0.0399354 -0.14929537 0.19535013 -0.23811406 0.095693216 0.05546537 0.51675665 0.17776418 -0.2927397 0.19477968 -0.22820799 -0.060665336 -0.1278544 -0.38523525 0.2524321 -0.049949415 -0.14272769 0.07423052 0.118016645 0.37848115 -0.007972489 -0.7602106 -0.24787553 -0.06312766 0.30452132 -0.025945183 -0.029349372 0.25579858 0.014865261 -0.0023307381 0.13422123
2678 0.3745726 0.45127127 0.36549968 0.5468177 0.25717083 -0.18187979 -0.13569452 0.4810843 -0.04969304 -0.16934222 -0.43788576 0.038869075 0.29917914 0.0663959 0.27762163 0.26234272 -0.009352274 -0.14814307 -0.18746018 -0.098955266 0.4216543 -0.08366975 0.50186193 -0.03593111 -0.63265127 0.11337942 0.09442052 -0.25931108 -0.26622292 0.34183857 -0.18540193 0.09426797 0.38334453 0.042646267 0.0744506 0.22628707 -0.21220294 0.4700012 0.12834728 0.13260025 0.020420976 0.53503555 -0.34247723 0.29205847 0.15735765 0.3068935 0.055177893 -0.026367655 0.6362148 -0.16696829 0.119844116 0.21219346 -0.48566082 -0.33419058 0.25489953 -0.15818128 -0.0072448156 0.25612715 -0.008129791 0.24343133 0.019009888 -0.2081426 0.3247718 0.6141862 -0.21265118 -0.25461733 -0.49378175 -0.16882662 0.044591647 0.166368 0.4284796 0.2637322 -0.36181256 -0.202902 0.022902805 0.25381637 0.22627333 -0.056801368 -0.12132474 -0.41773266 0.01956478 -0.19233508 -0.14127271 -0.31328702 -0.11100483 0.22965601 0.38772422 0.2734778 0.35322845 0.089399084 -0.33810747 -0.14613867 -0.19421266 0.46662268 -0.45771548 0.04852396 0.37763605 0.3671221 -0.09227091 0.49439132 0.09963473 0.27183312 -0.18421842 0.08103679 -0.18754312 0.40898716 0.14320508 0.22321537 0.29539445 0.31055424 -0.40689257 -0.2231167 -0.124819 -0.5556679 -0.16121396 0.15962018 -0.050084576 0.095848605 -0.53267914 -0.16996211 -0.43141267 -0.018842367 0.008269159 0.088349216 0.011149305 -0.2562779 -0.3613899 0.28940797
2657 -0.1383847 -0.39582336 0.31068596 0.22635588 0.06211921 -0.25944293 0.104798816 0.38666046 -0.059024837 0.06453751 -0.14844708 -0.15968417 0.5629359 -0.062264416 0.20953587 -0.12521957 0.3911794 0.1740014 -0.44326213 0.31924945 -0.11855093 -0.06216498 0.077129275 0.24308607 0.029884273 0.15442166 -0.28081506 -0.459586 -0.6852508 0.070581764 -0.21061859 -0.21148169 -0.3715431 0.19095637 0.14953108 0.011448536 0.24280475 0.087690555 -0.16110301 -0.17851132 -0.15945932 0.21423039 0.17212476 -0.008962029 -0.06467437 -0.2465903 0.16426837 -0.4851488 0.15366083 0.19877417 -0.09256069 0.27310154 -0.04373549 -0.567309 -0.23686771 0.12809706 -0.57332855 -0.31997952 -0.0023065656 -0.20716289 -0.11583587 0.07571339 -0.15495896 0.19287288 0.5640468 0.08478037 -0.18343563 -0.09615617 -0.17349574 -0.0071665524 0.37400022 0.09267019 0.0027393396 -0.3342155 -0.1004353 0.1028333 0.033329424 -0.22410032 -0.23652185 -0.15128992 0.26284125 0.2594123 -0.29511207 -0.22438307 0.23330216 0.06400085 0.04922144 -0.18344545 0.1101232 7.901502e-05 -0.47031173 0.32060632 0.18501501 -0.0063966387 -0.05933986 -0.012600666 0.1479464 0.17553915 -0.45671284 0.15168166 0.3498392 0.41248316 0.39733425 0.065049775 0.1244686 0.031034257 -0.1205698 -0.32309502 -0.21103513 -0.21803512 0.23284686 -0.044465646 -0.15933545 0.10871975 -0.17113881 -0.25658768 0.24787897 -0.4874528 -0.14360948 -0.023329733 0.109416895 0.26239586 -0.07543336 -0.2335284 -0.08223059 -0.5257219 -0.60015213 0.07169723
2809 -0.344387 -0.53339654 0.10796684 0.18342899 0.13607557 -0.2816592 0.14419736 0.4848989 0.016574444 0.17317583 -0.1498147 -0.48783004 0.65556407 0.11247734 0.025107954 -0.23881489 0.22471097 -0.14621754 -0.59394056 0.05415958 -0.35672817 -0.15696034 -0.11645817 0.09452963 -0.16845132 0.04621644 -0.4288719 -0.33575532 -0.7307728 0.061853882 -0.08328827 -0.33541402 -0.4235593 0.09755639 0.433814 -0.07822832 -0.33827505 0.29881287 0.09570217 0.18302336 -0.46137932 0.079475366 0.29735428 0.10951274 -0.0057162885 -0.24322118 0.24690883 -0.18544446 0.056260023 0.22997016 -0.25735515 0.2420795 -0.17078637 -0.6016215 0.011720008 0.053028412 -0.38947594 -0.23134677 0.055848576 -0.15129068 0.061082423 0.18608172 0.17146991 0.078097455 0.45954594 -0.2619447 -0.4439908 -0.02176169 -0.120808646 -0.04427884 0.2323385 0.019194875 -0.076322645 -0.2456331 -0.0625392 -0.023544503 -0.25566432 -0.49824303 -0.09722972 -0.29768148 0.24281992 -0.0046544136 -0.24570175 -0.25107563 0.25043982 -0.20422155 0.18194894 -0.04186405 0.15784651 -0.046109557 -0.57684565 0.11761821 -0.07229142 0.23554471 -0.16228892 0.20954247 0.4186885 0.5051629 -0.1971725 0.35174936 0.29484904 0.18481427 0.36222827 -0.03353873 0.1583809 -0.022733878 0.105056584 -0.2112995 -0.511847 -0.31220177 -0.059369605 -0.13015518 0.040978216 -0.0032667136 -0.24456684 -0.02093091 0.4165648 -0.20926607 -0.20716822 0.005124969 -0.037766192 0.23541744 0.008746793 -0.18087405 0.18480383 -0.1679058 -0.32530466 0.17670281
3127 0.12960689 -0.2525912 0.18700853 0.24640808 0.61238277 -0.04456931 -0.2894843 0.078965046 -0.3092237 -0.078476146 -0.33507323 -0.3989095 0.3919362 -0.09828621 0.47582996 0.07412363 0.2077297 0.13493797 0.16694994 0.26277745 -0.0699729 -0.14842393 -0.2596332 0.10942718 -0.07037097 -0.17045234 0.032224458 -0.050207853 -0.41347662 0.4838734 -0.17821588 -0.16962704 0.18217635 0.0239928 -0.525561 0.29686752 -0.48661545 0.20007199 0.24012615 0.045872364 -0.21640529 -0.12125178 0.085272945 0.2381205 -0.16563141 -0.5487188 0.17077641 0.1482018 0.19134265 0.35377347 0.26035586 0.17298025 -0.13374197 -0.3278794 -0.3442028 0.32722834 -0.4774564 -0.09307122 0.5278506 -0.28552213 -0.24337174 -0.13582724 -0.043170456 0.3526092 0.39049035 -0.17450716 -0.042279307 -0.17888026 -0.24315321 -0.3885997 0.48985165 0.18075104 -0.18698293 0.0052445875 -0.15414502 0.06287718 -0.030831924 -0.55464756 -0.07860941 -0.61815107 -0.6622712 -0.11079533 -0.45213726 0.15454915 0.03825245 -0.076457776 0.37931603 -0.14695749 0.19843635 -0.4282813 -0.9398462 0.022870662 -0.13997315 0.6260893 0.08212468 -0.15885526 0.3329908 -0.22837615 -0.2869107 0.12860096 0.5359554 -0.09424194 0.02139165 0.34994423 -0.00041768327 0.20742404 -0.03659589 -0.24389052 0.30671334 0.19751132 0.15758684 -0.24575856 0.10580878 -0.31846273 0.20941785 -0.14150529 0.12009297 -0.37406048 0.15391652 -0.107837826 0.18484038 -0.067221664 -0.28192127 -0.19496188 -0.1887149 -0.010192535 -0.5921009 0.054726053
3633 0.19639416 -0.25659418 0.2005444 0.45147026 0.30016926 -0.27346796 0.24894992 0.47332248 0.08666582 -0.040425707 -0.12867494 -0.30349666 0.108026676 -0.032176394 0.23155506 -0.61243194 0.4445046 -0.048824992 -0.18507156 0.106852606 0.0024207255 0.14158721 0.10644321 0.09032757 -0.13966992 0.26969376 0.47246277 -0.5573075 0.2678973 0.5036131 -0.45603412 -0.41490576 -0.3544452 -0.21252957 0.52232385 -0.0989609 0.32507595 -0.28623974 -0.012889288 0.18318042 -0.06665337 -0.4138174 -0.28952846 0.43123794 -0.11367617 0.13101986 -0.056677062 -0.4842061 0.16241862 -0.03351774 -0.04423431 0.25921533 0.01895086 -0.125573 0.09883829 -0.22397412 -0.54435307 0.14157762 -0.14630423 -0.032993834 -0.08458084 -0.41467232 -0.054647435 -0.09440353 -0.089051336 0.39691386 0.21972658 0.4126242 -0.066158734 -0.110199064 0.56566244 0.27779996 0.11570402 0.21342152 0.06584426 0.29785624 0.36257768 -0.26782873 -0.18296808 -0.41939142 0.3175448 0.37225464 -0.38103858 0.11743479 0.38652873 0.42068258 -0.07285829 -0.15328272 -0.03408842 -0.23282883 -0.10738723 -0.31008038 -0.13135752 0.35603184 0.05563711 0.09618424 0.39228436 0.21293855 -0.13127422 -0.053373095 0.09335153 0.16023727 0.278182 0.36042958 0.006225566 -0.35636175 0.07716362 -0.18320082 -0.09798641 -0.40614012 0.022134474 -0.28326797 -0.31735322 -0.33179078 -0.17401896 0.1878424 0.3049114 -0.15138221 -0.05440851 0.16754787 0.375456 0.023368256 0.3494262 -0.24331173 -0.22931482 -0.092434965 -0.18862626 -0.016159631
2781 -0.11526107 0.22525144 -0.06901945 -0.0061574355 0.23859756 -0.043040603 0.30470532 0.20487091 -0.031318787 0.29122406 0.47434318 -0.46250919 0.20991907 0.1243095 0.5250404 -0.68961316 0.19365232 -0.42339683 0.053531054 0.1377949 -0.08102594 -0.57102853 0.36399817 -0.004239725 -0.12193374 0.029646577 0.5148224 0.2495536 -0.2526882 0.18294838 -0.36304194 0.07851847 0.17505562 0.19022116 -0.19730331 0.050610516 -0.057878446 -0.23742841 0.0066744764 0.6281811 0.060538832 0.47378644 0.1254401 -0.09732065 0.32679483 -0.35006067 -0.61429596 -0.42330745 -0.17163672 0.37700066 0.35667533 -0.19025481 -0.010692271 -0.156285 0.069159046 0.1353466 -0.5020804 -0.00721411 -0.3781544 0.13228665 0.18517044 -0.39798236 0.3102788 0.13656369 0.21588165 0.094784096 -0.06438127 -0.050102174 0.035193875 0.049447253 0.21229163 -0.18202592 -0.30527142 0.08768544 -0.1502701 0.053147662 -0.34655467 -0.75201994 0.19407429 -0.014265191 0.080621034 0.49044046 -0.6148227 -0.0976902 0.13567813 -0.32997808 0.19034387 -0.27445763 0.25070682 -0.4641583 -0.2466861 -0.05815381 -0.016942581 3.5511963e-05 -0.33675045 -0.3333812 0.17783934 0.4344186 -0.36218032 0.2115202 0.28111702 -0.1140597 0.11849512 0.37682807 -0.08811007 0.044723492 0.109370135 -0.024499001 -0.44945523 0.32250512 0.20523667 0.08339621 -0.34367236 0.15128218 -0.15948012 -0.17443825 0.19413869 -0.2919653 0.00889339 0.23448217 0.14708486 0.044149578 0.10302867 -0.14140035 -0.103084944 -0.11778447 -0.07442125 -0.12545429
2615 -0.082293995 0.054346453 0.32213932 0.69171727 0.41171864 0.09028894 0.42557433 0.33949038 -0.43048322 -0.28604907 -0.24721052 -0.18732703 0.10299526 0.56843114 0.55224955 0.22481868 0.12618889 -0.32843298 -0.15986416 -0.20458545 0.17121059 0.1406843 0.40325642 0.07633764 0.09965367 0.28826293 0.19527455 0.013098958 -0.12258511 0.5263537 -0.31342143 0.05452217 -0.14294863 -0.36246696 0.027164664 0.29208884 0.16033569 0.27972257 0.26454312 0.20336874 0.20890602 0.15205036 -0.044923883 -0.017266056 0.44776863 -0.1282521 -0.30501276 0.21658143 0.29232964 0.10629197 -0.38659397 -0.15812327 0.08064024 0.11733706 -0.10596315 0.04235969 0.16246673 0.20818377 -0.1720581 -0.044798683 -0.17488676 -0.70502186 0.6400808 0.19499494 -0.31062502 0.36317262 0.44306865 0.37593856 0.08496913 -0.092876196 0.47521544 0.47741276 0.19470836 0.06641786 -0.09463309 0.19142726 -0.060934804 0.17691463 0.42887112 -0.46367615 -0.53190464 -0.013627355 0.34177223 -0.1851931 0.07813806 -0.018154372 -0.095916905 0.22492196 0.06308902 0.27195212 -0.19712956 0.55862975 -0.48906305 -0.110632636 -0.17534834 0.20638837 0.17080125 0.22588784 -0.02012951 0.37838846 -0.022283142 0.058038414 -0.070167884 0.18380582 -0.19478185 0.0021727488 0.35865843 -0.13021466 0.23866184 0.10426498 -0.37955704 0.2973785 -0.06363894 -0.47003135 0.04156755 0.07420083 0.4107517 -0.16001987 -0.3576326 0.16943806 0.056355383 0.14199236 -0.32797486 -0.22892292 0.03501343 0.15537661 -0.48666897 0.42219827
2506 0.25603032 -0.047191083 -0.041047156 0.57508695 0.18618754 -0.13720551 -0.18828659 0.6749785 0.0202436 0.0035221383 0.09914447 -0.26949108 0.18929157 -0.2262826 0.33033282 -0.10022921 -0.24511513 -0.6178753 0.0977191 0.07747691 0.46725446 -0.19396418 -0.25354007 0.13321687 0.3658891 0.30852014 0.00732738 -0.58073574 0.07003098 -0.060505092 -0.22294182 -0.22052354 0.08985795 -0.4493754 0.0018563187 -0.7782985 -0.15534447 -0.1072916 0.20273116 -0.3303157 -0.26703992 0.44598022 0.19869508 -0.21100527 0.31813318 -0.18461531 -0.066690266 -0.3132676 0.5410707 0.32539052 -0.24262963 -0.35967982 -0.16466846 0.16007285 -0.014112565 0.13438919 -0.65224856 -0.042872686 0.15807085 -0.030144257 0.10117607 -0.26088658 -0.61206836 0.13255528 0.09068338 0.107644774 -0.0010389917 -0.01619654 0.31374615 0.114731036 0.00083191606 -0.010312661 0.51314855 0.17953601 0.03565402 0.1441735 0.077325106 -0.3087703 0.46295166 -0.30677488 0.22416502 -0.0069818967 -0.3436011 -0.48966014 0.12639347 0.055001076 0.15504609 -0.03963539 0.28275403 -0.21712998 -0.040731926 0.25394332 -0.38063774 -0.11635388 -0.09615245 0.43311888 0.13780104 -0.058654938 0.18844862 0.18518944 -0.16891886 -0.33659145 -0.22200397 -0.15215528 -0.7154752 -0.15010142 -0.035154477 0.057973523 0.35985184 0.10893897 -0.14858203 0.20190458 -0.4834909 -0.06778529 0.07455662 0.64017755 0.11548162 -0.046736296 -0.32741725 0.23418124 0.19040775 0.08998291 -0.2561567 -0.2449894 -0.16937661 -0.23265609 -0.2188801 -0.051129814
2738 0.069171146 -0.18684627 -0.090517335 0.2891156 -0.17201549 0.13620292 -0.1641278 0.6042984 0.10538263 0.09835551 -0.34377354 -0.2815933 0.68761593 0.40577292 0.4550746 -0.24088432 0.027152522 -0.039043877 0.12631734 0.22260824 0.33772457 -0.08442721 0.529397 -0.42202616 0.32008544 -0.039386537 -0.012363416 -0.21427056 -0.34302694 -0.18196313 0.45652157 -0.21037823 -0.26373845 0.15290624 0.6296975 -0.09763328 -0.013908579 0.15391712 0.073899984 -0.16449 0.04092931 -0.08109521 0.34895706 -0.2528422 0.44438607 -0.32110327 0.1003417 0.39464352 -0.046025176 0.07485972 0.19377227 0.07781859 -0.3518299 -0.28564328 0.14302309 -0.05535514 -0.15276137 -0.0976264 -0.64701587 0.11756947 -0.4336033 0.21064943 -0.19257537 0.21289971 -0.11383064 0.007916111 -0.293897 -0.2199185 0.15659864 0.15403794 0.0037004922 -0.0048261387 0.24010496 0.011604009 0.17098743 -0.09134718 -0.057943217 -0.1465067 0.054260455 -0.68244946 -0.32566532 0.15147506 -0.28346932 0.016930046 -0.36509144 0.22710854 0.19764958 0.1663914 -0.040469464 -0.25270703 -0.5021616 -0.13080186 0.16258164 -0.010320726 -0.16276978 -0.3464341 0.03808878 0.057089563 -0.9827244 -0.28286 0.62698185 0.39145005 0.3597647 0.5893383 -0.097618066 0.042031057 0.5779201 0.19455332 0.031604286 0.3048852 -0.07086976 0.4217553 -0.1501523 -0.03515262 -0.20210838 -0.33119047 0.3180537 -0.035807565 -0.07761907 -0.09904454 0.39680862 0.15409562 -0.14575475 -0.012298553 -0.21692598 -0.15087202 -0.10619207 0.34529892
3634 0.26202884 -0.043532394 -0.009847769 0.4798948 0.36412978 -0.22804752 0.088457815 0.4144827 0.15818292 0.041420024 -0.28752175 -0.09195916 0.051188752 0.12117739 0.3342988 -0.6450909 0.435952 -0.13047826 -0.20893262 -0.08048728 0.0017113659 0.016663374 0.19297795 0.10236862 -0.14127918 0.3544228 0.41728616 -0.5659123 0.2761445 0.3991076 -0.5546935 -0.48338997 -0.27925706 -0.15140778 0.46452734 -0.1600186 0.26484028 -0.01817016 0.035543833 0.28331664 -0.32992867 -0.3486425 -0.29017705 0.46857676 -0.08881976 0.09180305 -0.1299778 -0.5480325 0.044457905 -0.024894673 0.009182945 0.017029673 -0.12833762 -0.10880504 -0.102621615 -0.079370625 -0.35192782 0.04230256 -0.2267061 -0.011556752 0.031075465 -0.63172024 -0.033295475 -0.04279798 -0.076635525 0.17787094 0.3087467 0.51798165 -0.0075199744 -0.16196834 0.6169158 0.22181997 0.24238473 0.12626229 0.060597606 0.22689012 0.2684367 -0.22396578 -0.23150752 -0.40333298 0.30729416 0.4020669 -0.34792146 0.03967834 0.36848426 0.32884005 -0.057420515 -0.1150795 -0.10305216 0.055320952 0.017991588 -0.18957195 -0.1060205 0.16708365 0.046620116 0.10627322 0.20437019 0.13198943 -0.18000735 -0.12134157 0.20582633 0.29674226 0.30720007 0.046613824 -0.05989843 -0.19993706 0.170085 -0.068571165 -0.10235022 -0.5803487 -0.0914073 -0.23806982 -0.35515514 -0.34358466 -0.03580248 0.31832045 0.50984 -0.29675105 0.12698887 0.23572819 0.37516448 0.15597925 0.41050583 -0.30340973 -0.12902087 -0.046527877 -0.28861815 -0.022351502
3825 -0.09237138 -0.27239865 -0.10762972 0.5183541 0.32460675 -0.54499257 -0.07607909 0.5381318 -0.18147936 -0.14843687 -0.68735254 -0.116012834 0.38526288 -0.19615506 0.1024538 -0.51310694 0.34760755 0.13164459 -0.43621388 0.549433 -0.22321245 -0.13159615 0.084742665 -0.359039 0.003374053 -0.35887194 -0.0034818081 -0.9813517 -0.0005522124 -0.00059452234 -0.4387198 -0.109377116 -0.45933068 -0.18765044 -0.3162795 0.28936675 0.10590211 0.08071504 0.80624914 0.040760454 -0.008890009 -0.1607236 -0.17568828 0.5765264 -0.1300986 -0.13925113 0.29717526 -0.014926026 0.07520268 -0.18289883 -0.341352 0.1237812 0.3186917 -0.03975295 -0.61308557 -0.07631436 -0.53148663 -0.11378991 -0.3284218 -0.33187827 -0.086073644 -0.1734489 0.30195123 0.10562414 0.012851994 0.12401331 -0.3675558 -0.25635988 0.039829183 -0.038039044 0.24601369 0.13673069 0.18670079 0.17744514 0.38863134 0.18592471 -0.3249766 -0.50693136 0.44965866 -0.42077187 -0.012929878 0.19990478 -0.55801296 -0.1989611 -0.015471873 0.41553113 0.27572918 -0.2947993 -0.103542015 -0.49321967 -0.08299105 0.11919486 0.08427968 0.12626693 -0.034263294 -0.36261144 0.091264606 0.43192542 -0.34512448 0.34475234 0.08874398 -0.042320263 0.06400247 -0.048980966 -0.42642123 -0.40251243 0.04016095 0.30165336 0.33120733 -0.31533343 0.19724625 0.38151166 -0.3162417 -0.02966655 -0.048656557 -0.022228723 0.36329916 -0.3638014 0.35710233 0.035699397 -0.10774879 -0.03204856 -0.21276881 -0.37562633 -0.6133351 0.17725496 0.14197356 0.2859306
2755 0.4056549 -0.020124806 0.10680916 0.3437335 0.42073315 0.4076596 0.052810192 -0.2604533 -0.17364505 -0.20777363 0.051495425 -0.63145894 0.49711484 0.08592996 0.05205083 0.07883949 0.008931531 -0.25256765 -0.1219875 -0.23172393 -0.07283358 -0.19629 0.64790666 -0.20356695 -0.3703907 0.10617887 0.40599242 0.16913237 0.38414106 -0.29720697 -0.60068804 0.20519976 0.010908167 0.06823331 0.06470502 -0.67495686 -0.092419304 -0.2732147 0.17624922 -0.019704202 0.33315855 0.6043194 0.03746114 0.28216687 -0.54108447 -0.32664138 0.04276736 -0.06347183 -0.023953319 0.37665904 0.19213916 -0.051163524 -0.11483658 0.1936284 -0.043891247 -0.31707576 -0.13347428 -0.25504658 0.3870687 0.49160263 0.25095263 -0.18512502 0.0075023007 0.042103894 0.0204677 0.15963365 0.104100846 -0.175612 0.10568681 0.1523239 -0.13185701 -0.2123036 -0.30921265 -0.27141404 0.0058769262 0.3817413 -0.6590476 -0.24867605 0.07263772 -0.00039289598 0.0334364 0.27298835 -0.4567374 -0.027948271 0.17207897 -0.59622896 0.5023287 -0.07326822 0.044610348 -0.53771156 -0.47064826 0.43142498 -0.20490265 -0.3222899 0.12132501 0.40401718 0.06091637 0.61279327 -0.8528377 0.3735366 0.22398302 0.8530943 0.20852855 0.18018892 -0.12332745 0.35804796 0.391255 -0.119897604 -0.0088058505 0.07299082 0.10482245 0.54776347 -0.13791649 0.122812666 0.25209597 0.26675174 0.29838067 -0.7985335 -0.5190776 0.041810643 0.04052754 0.20761001 0.15996173 0.43279392 -0.03629664 -0.12154885 -0.16470005 -0.05665939
2669 0.31843683 0.06896796 -0.12048489 0.2929334 0.10325489 0.10636582 0.09053114 0.38183653 -0.09477278 0.09611041 0.32149172 -0.22050595 0.46381158 0.12845413 0.48032027 -0.08863442 -0.4354145 0.26646695 0.17117925 0.63067603 0.6771963 0.2032498 0.09990672 -0.52003163 -0.12184476 -0.05462714 -0.36067888 0.3878556 -0.0113576315 0.09173083 0.20087625 -0.069609836 -0.05673056 0.039397806 -0.40007558 -0.18945077 -0.03003523 0.056826293 -0.03264466 0.017603125 -0.34577724 0.39077094 0.03425954 -0.40390784 0.23158939 -0.0468828 0.0049848654 0.026946783 0.08191618 -0.01779156 0.27260524 0.088182576 0.21549225 0.00611606 0.22217333 0.10368107 -0.045851685 -0.32065785 -0.35302863 -0.027334528 -0.20143545 -0.108649075 -0.04634718 0.6125906 0.26780063 -0.326523 0.023236204 -0.17633764 0.048058618 -0.4384736 0.3033517 -0.13456321 0.50802183 -0.2864319 -0.24831004 0.31211075 0.27626657 -0.6230466 0.018383518 -0.4168292 -0.2552355 0.056523997 -0.15714556 -0.1005044 -0.12540032 0.24611928 0.5081482 -0.19422477 -0.13093282 -0.5463004 -0.12327121 0.25486955 -0.05755039 0.26389313 -0.27210656 0.42445758 0.43059376 0.08022466 -0.6042989 0.03893071 0.31036693 0.22220188 -0.008908741 0.10846266 0.03531526 -0.12982057 0.42722937 0.2834572 -0.015927015 -0.006765263 0.43039158 0.09866683 0.096994214 -0.033489414 0.04589797 0.04881054 0.30276904 -0.13421838 -0.32800156 0.12153291 0.42294738 0.31392202 0.1614632 -0.0478111 0.3415612 -0.15274417 0.12983404 -0.09883439
3300 -0.16746002 0.272189 -0.314642 0.24273504 0.0020487364 -0.13122669 0.13016155 0.5772718 0.281854 -0.07653256 0.48188743 -0.046382237 0.49106586 0.4250677 0.36784205 -0.093205325 0.4585146 -0.22422756 0.039517663 -0.021967784 -0.19685875 -0.43049616 0.084646426 -0.035622798 -0.09988806 0.10826276 -0.32137567 0.17845389 0.0871389 0.17376857 0.029988348 -0.65753275 -0.40872192 -0.013410631 -0.20732619 -0.15518385 0.32234943 0.09166791 0.032411054 -0.07148396 -0.13888238 -0.004301447 0.04524568 0.061239578 0.5040992 -0.051431805 0.041437298 -0.522989 0.13382594 0.20138685 -0.44265595 -0.08031153 -0.090280056 0.18304896 -0.13428324 0.28941745 -0.30494678 0.2811236 0.1800631 0.54633516 -0.16279286 -1.05303 0.28244498 -0.2670265 -0.33767447 0.43650272 -0.0879384 0.17946842 -0.041281782 0.17563756 0.25560054 0.19400118 0.5467832 -0.23073003 0.0899538 0.60222423 0.32414365 -0.036042012 -0.5014511 0.03277712 -0.15237577 0.040101394 -0.10745716 0.25218555 -0.09363583 -0.33448565 0.3505039 0.039721787 0.09148993 0.2093577 -0.14344816 0.22027008 -0.5762664 0.15566367 0.031910248 0.30645186 -0.087567344 0.45963836 -0.37171397 0.1711681 0.27215743 0.4325416 -0.14750986 0.22035387 -0.13073605 0.046306945 0.4019915 0.16470005 0.0717032 -0.059134163 0.04997115 0.25504717 -0.015997738 -0.027426774 0.009450757 0.5423465 -0.023610208 -0.36891437 -0.4565774 -0.014762387 0.0973642 -0.59746635 -0.100395784 -0.18075697 -0.51947194 -0.052132435 -0.4227666 0.07034538
2877 -0.3784419 0.48053432 0.07393409 -0.048195112 0.6637526 0.12653221 -0.35473815 -0.071435116 -0.17639121 0.09403688 0.25323406 -0.53142947 0.23357019 0.3454827 0.58565366 -0.08249517 0.6218756 -0.60210425 0.16139407 0.21071655 -0.12109262 -0.1972316 0.05805957 -0.1266344 -0.35813025 -0.12849271 0.130968 0.15097757 -0.017086664 0.09952935 0.07633114 -0.41163367 0.21929745 -0.33992794 -0.16896924 -0.10495857 -0.12317681 0.12697117 0.15407228 0.341851 0.17999388 -0.30530658 -0.36007547 0.07761903 0.05796177 0.083922096 0.050230447 -0.30543 -0.6778686 0.45317405 -0.16775055 0.56599367 0.17972933 -0.2773867 0.21602377 0.5352075 -0.6854201 0.08526611 -0.1344149 0.00885041 0.17455275 0.25059524 0.29576463 -0.21866791 -0.077952914 0.4689698 0.21720046 -0.15662116 -0.20189509 -0.04265519 0.051617045 -0.07436676 -0.40706483 0.11783492 -0.1245481 0.2668053 0.10362048 -0.15245004 -0.07847637 -0.5469245 -0.14925207 0.4904373 -0.3118016 -0.24073839 0.252506 -0.021992538 -0.38050693 0.0851671 0.77327764 -0.034710113 0.33372492 -0.29880738 0.27838475 -0.26284173 -0.42659956 0.076389425 -0.24309857 -0.46271935 -0.63118345 0.3729091 0.06607104 0.089562416 -0.037052155 0.18571766 -0.010279283 0.2060452 0.6120961 0.20019245 0.23218687 0.029392734 -0.39370215 -0.10326906 -0.3867353 -0.5705192 0.07769163 -0.21523233 0.3488309 -0.24927947 -0.30730852 0.21028301 0.07820885 -0.05500976 -0.023437103 -0.3734166 0.07862113 -0.551846 0.1407869 0.44882837
2502 -0.10084734 0.096063726 -0.12843505 0.5558631 0.16162768 -0.31006283 0.30933505 0.25456077 0.27173585 0.21267994 -0.13905539 -0.69135535 -0.028088264 0.52539223 0.80085176 -0.056026775 0.2705766 0.12501468 -0.128367 -0.11458399 -0.042218253 0.18851635 -0.25356355 -0.34396353 0.06258766 0.0551008 -0.25158826 -0.049325053 -0.26030874 -0.17404325 0.1542265 -0.0546469 0.14234532 0.5684203 0.12660661 -0.48432925 -0.017167486 -0.50968504 0.15895991 0.41730437 0.25970122 -0.4296958 0.11574454 -0.14809684 0.26172552 0.11276096 -0.07374746 -0.036703065 -0.22469887 -0.027905324 -0.33009684 -0.13468906 -0.14433178 -0.3093579 0.07922819 -0.09532191 -0.12055242 -0.04397063 -0.13755824 0.11375166 -0.4456408 0.2883971 -0.067635566 -0.35732704 -0.12150453 0.3502667 0.12980847 0.19316038 -0.29110733 -0.26063117 -0.05915739 0.03930258 -0.12098132 0.29453972 -0.06834771 0.2523715 0.111970626 0.03627158 -0.12686655 -0.6609148 0.166628 0.054254726 -0.22119112 -0.43774727 0.26480153 -0.049264837 -0.19229786 0.25782302 -0.1421462 -0.38142762 0.02120547 -0.26077005 0.33060876 0.3276833 -0.100290805 0.1192647 0.47899336 0.32701614 -0.31364384 -0.15397431 -0.019452404 -0.029555332 0.24069242 0.31412885 0.083309196 -0.09285506 0.7590229 -0.17077525 -0.25991368 0.20203666 0.08795718 0.06618716 -0.032208543 -0.4181305 -0.10551652 -0.17450897 0.4073653 -0.3783608 -0.6601161 -0.03272086 -0.03803313 0.34342378 -0.08596469 -0.43064997 -0.16704032 -0.31150696 0.44472325 0.051599845
3543 0.23746277 0.12122925 -0.075639725 0.37026206 0.3654626 -0.6557849 0.0008829307 0.2916814 0.25801492 -0.428996 0.23380385 -0.1619697 -0.08650338 -0.23818089 0.3920008 -0.09426454 0.05515399 0.27009317 -0.06579464 0.54945344 0.107330345 -0.38350388 0.03621205 0.11046948 -0.016194943 -0.05652356 0.08530967 -0.89863545 0.24844363 0.41577867 0.16553025 -0.08917345 -0.53535366 -0.044366665 0.25729087 -0.25678307 0.11144334 0.10291641 0.3566101 -0.20111755 -0.37439144 -0.18532687 -0.15683626 0.5919455 -0.18051066 0.109547414 -0.17023659 -0.55872816 0.33866248 0.06560816 0.30540106 0.013544477 -0.08796321 -0.19691898 -0.28023186 0.115778066 -0.072733246 0.04185255 -0.0956245 -0.12772168 -0.17552626 -0.10581637 -0.28665867 0.14633398 0.3351273 -0.053850837 -0.36233526 0.40815628 -0.22322693 0.16228612 0.45581985 -0.13355444 0.2997065 -0.2949487 0.075917356 -0.19526774 -0.04234785 -0.049014248 -0.10493888 -0.5483678 0.28773195 0.026408972 -0.26942265 0.02220097 0.2174871 0.15236574 -0.539182 -0.024729913 -0.22092983 -0.2929002 -0.14057782 0.44811714 -0.20523669 -0.20449275 0.16053556 0.35662737 0.50224245 -0.21461777 -0.17681922 0.2386269 0.20025459 0.25195307 0.033842422 0.066367686 0.039989956 0.098405674 0.14014307 -0.13023764 0.15196198 -0.28149787 -0.03856858 0.21567614 -0.20141439 -0.20084323 -0.051369946 0.1480552 0.053181455 -0.5365541 -0.20006135 -0.0952055 -0.052332304 0.11025119 0.22020534 -0.32786718 0.31590042 -0.45252174 -0.7064116 -0.009853928
2841 0.30906504 0.30194855 -0.20251916 0.52480584 0.09614231 0.26823816 0.4267645 0.48563623 -0.13527563 0.034808915 0.22146246 -0.07072525 0.45966643 0.802855 0.18628182 0.16802861 0.091309376 -0.35366192 -0.2473468 -0.16768567 0.024749273 -0.6421002 0.22524954 0.26167756 -0.16267425 -0.34574965 0.16008401 -0.48407143 0.051287036 0.045433924 -0.6296986 -0.28094816 -0.24817479 -0.05462646 0.15251741 -0.49342027 -0.046374403 0.23214845 -0.084217675 -0.29967526 -0.10149593 0.20627834 -0.048760552 -0.26836932 0.110955834 -0.45043898 -0.05443799 0.14797758 0.14847818 0.08533857 -0.60057414 -0.00811652 0.25859484 -0.15994462 -0.15520816 -0.28370503 -0.16109145 0.1740763 -0.35420945 0.20452683 0.014921564 -0.2522411 0.38381475 0.27824974 0.21181889 0.3754762 -0.07197401 -0.3024231 0.4870057 -0.29184133 0.25444633 -0.30799872 -0.12296588 -0.27164915 -0.035605237 -0.010744264 -0.17096166 0.14445893 -0.2370555 -0.3262394 0.16152912 0.06411541 -0.24051136 0.34123087 -0.32375652 -0.29728687 0.3531343 -0.092643484 -0.15352634 -0.12720215 -0.4309202 0.49213162 0.19562966 -0.1664283 -0.31594193 0.010398828 0.5861232 -0.02228544 -0.26622763 0.46580887 0.024017623 0.33539864 0.12604208 0.0997309 -0.103733994 0.22280212 -0.2938888 -0.27732125 0.21268854 0.35349312 0.1666007 0.61136043 -0.49963045 0.39364287 -0.0060717077 0.3872798 0.2688061 -0.48688734 -0.1339908 0.22342612 -0.060028695 0.31175426 -0.18027028 -0.2570767 0.07443517 0.044278666 -0.12409199 -0.2178529
2683 0.3960899 -0.2252915 0.25307035 0.49243382 0.48187935 -0.08854142 0.18505925 0.60047954 -0.069774896 -0.52657723 -0.16924612 -0.060342178 0.3031658 -0.40192145 0.3580517 -0.20713906 0.0080461195 -0.04819132 -0.20665482 -0.15912116 0.18642941 -0.27204594 0.16125527 0.5088584 -0.13214087 0.2844015 0.12397041 0.028832588 -0.11789214 0.25230488 -0.23805153 -0.06264942 -0.05394886 0.46363667 0.18310373 -0.048943292 -0.023446636 -0.3054298 0.591748 0.069896154 0.2309442 -0.5937968 0.17008114 0.100483865 0.3614395 0.07450058 -0.06409528 -0.27398643 0.628927 0.046678316 -0.22583136 -0.0027099599 -0.0036347294 -0.23096564 -0.038277544 -0.22454707 -0.20189872 -0.48844305 -0.12645847 -0.17595154 -0.25524676 0.24840564 -0.5121792 0.080326505 0.054480564 0.24455014 -0.023058226 0.18512492 -0.20919561 0.04296832 0.61185914 0.4249202 0.40926445 0.18267794 -0.075465165 0.23968948 -0.43562916 0.19220164 -0.033713557 -0.1918606 -0.18837568 -0.023028038 -0.19239247 0.06544103 0.2295623 -0.19772191 -0.22045946 0.09161676 -0.17011562 -0.04176329 0.1152015 0.3440248 0.058671866 0.032791756 0.09292001 -0.08026552 0.27214095 0.41509822 -0.003571023 0.49297303 0.5581322 0.120761484 0.04196777 0.40930733 0.09855117 -0.16993129 -0.069298916 0.07099662 -0.10339692 0.24529947 -0.39447522 -0.20068014 0.15271768 -0.47021246 0.21831994 0.108386755 0.81843805 -0.3250179 0.18719701 -0.12479285 -0.052748397 0.53770167 0.073425494 -0.79702735 0.23706365 -0.206819 -0.4359899 0.22130688
2857 0.09206431 -0.13483341 -0.05702176 0.3836784 0.0038697978 0.06426397 -0.24582474 0.0971702 0.34188262 -0.3432575 0.092876844 -0.35700092 -0.8417327 0.2994084 0.2929249 -0.30117536 0.09673231 -0.70859766 0.06847559 0.29240936 -0.21705388 0.22452624 0.4675629 -0.7527928 -0.60100305 0.33244675 0.024495432 0.34454402 -0.25720972 -0.04896649 -0.8751807 0.063189276 0.013064237 0.09248601 0.2948267 -0.17867754 -0.35214177 0.52055 -0.3411039 0.19616005 -0.030348452 -0.17985196 -0.32790944 0.18224439 0.16112575 0.040681284 -0.021310639 -0.4392332 0.074894555 0.09643998 -0.21126486 -0.052417252 0.38413167 0.31174165 0.4422319 -0.2195741 -0.6454491 -0.21925624 -0.75553095 0.13661006 -0.13866846 -0.119875416 -0.3529973 -0.034888588 -0.53780204 -0.103180386 0.24743378 0.06474327 -0.18134427 0.22484909 -0.10405633 -0.047770016 0.48499048 -0.2879222 0.17217253 0.19779406 -0.08137046 -0.13677503 0.059454385 -0.14043722 0.067889474 0.2971374 0.020700324 0.09861509 -0.33293846 -0.26775438 -0.05211974 0.30324996 -0.2136879 -0.3926639 -0.35393894 0.5843558 -0.28761134 0.32956976 0.81691515 0.10878057 0.041184824 0.11500385 -0.055909622 0.437127 -0.026254315 0.02085469 0.00304686 -0.1006066 -0.64292395 0.17408714 0.26312143 0.13587393 -0.12185221 -0.45569193 0.3496635 0.1533187 -0.34169757 0.21696822 -0.29627553 0.43552527 0.43681952 -0.4503359 -0.5057315 -0.1480046 -0.42347232 -0.43775633 -0.10068014 -0.32780516 -0.3252357 -0.55679435 0.15544106 -0.14461008
2617 0.14031084 -0.1042822 0.010305885 0.65857774 0.19044834 -0.28449532 -0.32782683 0.46821523 -0.18306442 -0.39287618 -0.24751379 -0.31054384 0.041398786 -0.020279314 -0.10397877 -0.19980538 -0.027272686 0.014574762 0.28114805 0.061542932 0.44027352 -0.37270564 0.1172085 -0.4355305 0.024911895 0.10402759 0.06516666 -0.003087918 -0.21180476 0.0059989244 -0.09803931 -0.010396963 0.33180985 -0.24141249 -0.19062483 -0.3486727 0.075564966 -0.010806942 0.74392587 -0.29168826 0.06302231 -0.25536722 0.052069504 -0.17069192 0.31768474 -0.21170485 -0.13830222 -0.06431035 -0.10626051 0.46615005 -0.06912152 0.6602321 0.049474802 0.16319269 0.18448913 -0.00932213 -0.40981403 0.018973751 0.29439917 0.095954135 -0.05476749 -0.51773703 -0.40659004 -0.087107524 -0.41226438 0.37077814 -0.00978895 0.23916715 -0.16277483 0.14874749 0.5907121 -0.12355614 0.39056063 -0.39512748 0.02653606 0.073379755 0.016810553 -0.330744 -0.025723185 -0.11018297 0.5503809 0.2621924 0.072975144 -0.36182922 0.27809346 -0.05227891 -0.03058045 0.06506987 0.033607386 -0.29548222 0.008061508 0.37337428 -0.13178068 0.17033674 -0.18201911 0.561302 -0.0138028 -0.28078696 -0.6432488 -0.30328885 -0.065522656 -0.06495427 -0.47161782 0.03622052 -0.38872698 -0.352773 0.19639882 0.314425 0.5737732 -0.09438713 0.59150946 0.13503386 0.0664393 -0.06902479 -0.2198544 0.15897785 -0.06305581 -0.09628929 -0.51340884 0.010836307 0.013887767 -0.21168281 0.19058178 -0.40540537 0.86585546 0.35378757 -0.2505436 -0.1874139
2923 0.30785885 -0.28454947 -0.19536069 0.39597538 0.52295476 -0.32500914 0.04765434 0.5061497 0.004054459 -0.49081922 0.14282778 -0.13561428 0.11485054 -0.03801036 0.1905433 -0.36449993 0.003471684 -0.15459618 -0.37556598 -0.15308656 -0.18731324 0.0023777573 0.20340256 0.16531067 -0.18255632 0.33218414 -0.39449456 0.0908351 0.016933396 0.4579558 -0.1053536 0.046814285 0.0062491028 0.35608917 0.3273707 -0.15444757 0.092168406 -0.035392668 -0.013089784 -0.264372 -0.060136948 -0.6751145 -0.22864887 0.01686735 0.21001552 0.09371467 -0.21896446 -0.40155363 0.68266755 0.10009405 0.4423677 0.5279465 0.38139936 -0.22966546 0.20738852 -0.26761636 -0.29869172 0.07010271 -0.094928466 0.042180527 -0.13786368 0.197807 -0.38324803 -0.18223633 -0.013096614 -0.07842676 -0.29296342 -0.31780362 -0.036623213 0.013564059 0.35312307 0.103998594 0.20253436 0.28827488 0.2629004 0.49312028 -0.2581104 -0.010759596 -0.18910238 -0.44299713 -0.02032303 0.07270964 -0.70574427 -0.041269492 0.42102477 -0.24277209 0.07108197 0.23935539 -0.17213744 0.31965566 -0.16581167 0.18059374 0.19312635 0.03485249 -0.0345418 -0.21543643 0.45459414 0.18936227 -0.29564574 0.12835199 0.39779806 0.22075818 0.22045359 0.33331436 0.082977094 0.083940916 -0.059851136 -0.089361124 -0.14912163 0.30173972 -0.2502691 0.06612699 -0.009749787 -0.4834108 0.057340883 0.05820445 0.1614051 -0.44099385 -0.044647317 0.05120535 0.22197932 0.63152206 -0.026682962 -0.6244217 0.14627196 -0.20947821 -0.034099232 0.13549359
2842 -0.15383825 -0.3079425 -0.08749167 0.36591095 0.2594335 0.14582157 -0.047869667 0.4154369 -0.24646263 -0.1948329 0.059509918 -0.43610117 0.6236317 0.33437517 0.4774018 0.07506262 0.3911823 0.19728625 -0.15180899 0.059811167 0.3345927 -0.43330163 -0.09716386 0.14677213 0.1885074 0.5662723 -0.3533583 -0.5925975 0.14559513 0.66858333 -0.17584425 0.25830916 0.10134905 -0.42849553 -0.31227887 0.24096815 -0.6416954 0.2925963 0.27923927 -0.022236275 0.056344926 0.1765741 -0.24385634 -0.1449987 0.011719972 -0.5510092 -0.1975376 -0.10250863 0.18564533 0.32145792 -0.16659759 -0.2745429 -0.19804643 -0.37417835 0.054579943 -0.14183627 -0.08909189 0.17444338 -0.09626064 0.197271 -0.016816823 0.39215758 0.20404632 0.25049594 0.20720936 0.25269115 0.19453664 -0.2695803 -0.14148685 -0.01730809 0.5544939 -0.13026756 0.28706688 0.32381928 -0.136079 0.1119833 0.21315658 -0.06756248 -0.10484924 0.06660236 -0.19484729 0.18510568 0.19855767 -0.15606959 0.17812563 0.114597484 0.38917157 0.047772933 0.03667006 -0.63796324 -0.66746384 0.12765168 -0.0017818476 0.39372328 -0.32050806 0.09779603 0.49557236 -0.0079701515 0.081247196 0.32554615 0.070298985 0.10488727 0.1425455 0.3397135 0.21947415 0.15692928 0.0029883625 -0.19173834 0.36420807 0.32927713 0.20903525 0.07014557 0.09982052 0.097147875 0.17805316 -0.01457429 0.244654 -0.47485375 0.1506602 0.08668917 0.18828231 0.22397205 0.25118607 -0.049923707 -0.44646472 -0.11151373 -0.56346303 -0.18432869
2541 -0.008324186 0.069560625 0.03634581 0.05315535 0.018184 0.5687777 0.4003245 0.23510101 -0.012338183 -0.41863367 -0.60210127 -0.07842266 -0.3883243 0.57409745 -0.18848649 0.22252505 0.30088514 -0.35466614 0.17246465 -0.48246413 0.31637588 0.09470525 0.22107323 -0.3678239 0.059869073 -0.06511435 0.07791793 -0.3309793 -0.18865484 0.03475352 0.22961514 0.23031272 0.009609706 0.37234178 -0.039084032 0.091122106 -0.37505373 -0.34177744 0.5778135 0.07290227 0.03434283 -0.5101827 0.39442378 -0.20534492 0.45496833 -0.059808914 0.5431276 -0.12621483 0.20144683 -0.071168415 -0.82687366 0.08488005 -0.09771191 -0.16845033 -0.25455144 -0.017819805 -0.1754626 0.06886592 -0.5274054 0.49025583 -0.21699856 0.028839162 -0.25196075 0.09177189 -0.45077875 -0.00525074 0.27198118 0.16201155 0.6206407 -0.33272406 0.15015422 0.3129548 -0.13424024 0.08218601 0.007379471 0.2662391 0.10996653 -0.71554595 -0.19306207 0.0244601 -0.13967305 0.5261766 -0.026998557 -0.15502487 0.08557581 -0.013190903 0.09874463 -0.39425233 0.19006653 -0.5943268 0.25536466 0.24532743 0.24609278 0.38643953 -0.09749369 0.35671914 0.20413432 0.3947255 -0.072232164 0.743324 -0.16404106 0.074578 -0.39524022 -0.29959786 -0.2242332 0.15087467 0.6045846 -0.05491697 -0.04070191 -0.14288856 -0.15699705 -0.1588702 0.12731504 -0.14258283 -0.15819103 0.26853946 0.03865659 -0.19797587 -0.03589878 0.025559189 -0.21254733 -0.14084852 0.42654207 -0.7461554 0.49556708 -0.18592083 -1.4251635 -0.01954822
2733 0.11278989 -0.30577412 0.24095605 0.11351502 0.3815249 0.19548623 -0.11916584 0.552671 -0.1035057 0.41058752 0.037451517 -0.30297852 0.1569008 0.4033007 0.30836475 -0.30043784 0.042664643 0.05602572 -0.12108478 0.30282474 -0.10069928 -0.25104398 0.45359212 -0.0033262253 0.3830022 -0.19720095 0.006927059 -0.2233095 -0.03899678 0.217265 -0.06731876 -0.077298336 -0.28639892 -0.1340671 -0.16763783 -0.13874918 0.021797365 0.40894613 0.04310376 0.17992678 -0.1264236 0.31559008 0.15493493 -0.11459349 0.094764665 -0.762997 0.13041848 -0.32633305 -0.050001692 0.080719076 -0.08510028 -0.00717035 0.00011110443 -0.29490942 0.1282808 0.10861562 0.010235746 -0.49984217 -0.047922026 -0.007924687 0.021087978 0.11994928 -0.30334267 0.3881912 0.25340182 0.2973071 -0.3034796 -0.5107419 -0.16302185 -0.11852249 0.06609223 -0.0423279 0.21292262 -0.109417126 -0.095122606 0.008095625 -0.2536169 -0.3860908 -0.0065002716 -0.48812783 -0.093945205 0.09427559 0.07856191 -0.21814705 -0.36035958 0.248769 0.44782168 -0.27840635 0.16042024 -0.48945302 -0.6227863 0.00828081 0.1887579 0.11863058 0.00089086115 0.018746885 0.4094422 0.10760293 -0.59079677 -0.15994874 0.3870142 0.14601892 0.42504227 0.25223303 -0.18054737 0.61634904 0.23525564 -0.14279024 -0.29303658 0.3199258 0.18558669 0.14236932 0.11125097 -0.34574825 -0.06941004 -0.23007038 0.24350229 -0.35646346 -0.14901605 0.17825997 0.07901174 0.40317217 -0.32692808 -0.13395105 0.17598988 -0.14426199 -0.23485062 0.124608584
2607 0.3229822 0.107772425 -0.047126435 0.59794927 0.21213175 -0.14912033 0.37218356 0.4697204 -0.35313404 -0.08118377 0.42380473 -0.3526655 0.020205019 0.38714105 0.07082648 0.13191627 -0.18865933 -0.42696553 0.22107072 -0.15264003 0.6850457 -0.3155506 -0.06323828 -0.25537038 -0.30229306 -0.014547473 -0.04354856 -0.46404582 -0.11284006 0.12842162 0.08011183 -0.32478052 0.066785306 -0.5927304 0.26215163 -0.39209503 -0.26414108 0.09581111 0.5947463 -0.36394835 -0.38993713 0.2908325 -0.18121351 -0.18175304 0.25130498 0.23342867 -0.022029996 0.10810934 0.68725896 0.4873084 -0.046650864 -0.019888505 0.13505463 0.19511881 0.5915353 -0.022685682 -0.22988175 0.11304607 -0.05895044 0.19100311 0.119179934 -0.36115906 -0.3399541 0.16446722 -0.00826068 -0.04898396 0.047539186 0.11056218 0.040560108 0.013536307 -0.010623408 -0.2736141 0.5630534 -0.0917114 -0.02027451 0.37712574 0.18730098 0.022195961 0.17425667 -0.49386284 0.111682594 -0.20461419 -0.05496055 -0.7934132 -0.083152115 0.003150032 0.035275742 0.08106209 -0.019785346 0.08155212 -0.163354 0.20015931 -0.28697833 -0.09288447 -0.09331794 0.16338068 0.028392205 0.0849895 -0.34067842 -0.19247276 0.039003514 0.019907393 -0.1383266 -0.061379533 -0.47977826 -0.17346506 0.076008864 0.2290791 0.088280715 -0.101433516 0.6499338 0.36184675 -0.013814098 -0.0041423156 -0.23667982 0.018765746 -0.34508923 -0.106964506 -0.23283711 0.539906 0.010396644 -0.16432387 -0.0886375 -0.11137578 -0.072648905 -0.16752711 -0.48752162 0.32123867
2516 -0.030379735 -0.20157702 -0.26453948 0.8582761 0.33302867 -0.024063366 0.5664481 0.27241498 -0.67501104 -0.09119214 -0.41105583 -0.45122534 0.028566333 -0.18935655 0.068112135 0.04798663 0.27318236 -0.6437484 0.21075824 -0.51637596 0.78888917 0.17162597 0.2648889 -0.35151953 -0.2941052 0.2703533 0.09685403 -0.60810566 0.24298918 0.216382 -0.42626646 -0.36154887 -0.27286714 0.5277184 0.025715893 0.13773774 -0.29517534 0.132878 0.23302469 -0.4198883 0.32209432 0.42292315 0.22519651 0.031150553 0.14448416 -0.40566173 -0.054575056 -0.009182771 0.33617175 -0.6169197 0.29289454 -0.21863283 0.07800662 0.15505847 0.35072887 -0.2117025 -0.17442267 -0.115535915 0.23002875 0.49398118 -0.13181989 0.06039992 0.3875743 -0.23049736 -0.2868169 0.5493167 0.100023 -0.37292394 0.04006262 -0.42558455 0.04938222 0.34838957 -0.14696741 0.3883951 -0.38388777 0.4076863 -0.20740527 -0.7385924 -0.7699033 0.5964368 -0.38183698 0.7787211 -0.45758247 -0.16594237 0.10763489 -0.43059677 -0.3112056 0.08507851 0.13808626 -0.18243259 0.07916235 0.5405026 -0.0103336 -0.21397978 0.35286558 0.6074372 0.42484355 0.18584758 -0.21928932 -0.75236595 -0.051132333 0.39873487 -0.51927865 -0.087102115 -0.6332586 0.6473699 0.42588264 -0.6031759 0.57411623 -0.10569563 0.12875661 0.03741005 0.114423595 0.50865746 -0.32043606 -0.12765451 0.5369676 0.062366333 0.0008458198 0.17766681 0.18409505 -0.48068509 -0.06879096 -0.19437833 0.13903867 -0.5079084 -0.89710885 0.21462868
2735 0.05381235 -0.19025552 0.39142066 0.22949222 0.17984703 0.062572785 0.29213712 0.52825546 -0.16162755 0.17531261 0.0943244 -0.28420642 0.36908755 0.4746944 0.6648488 -0.29821724 0.30008125 -0.093073726 0.33774492 0.24938023 -0.0016892656 -0.28861862 0.054724213 0.100918114 0.13579147 -0.08650057 -0.15778586 0.087977074 -0.3145647 -0.39927608 0.20233984 -0.09709934 0.06849459 0.015498781 -0.30135146 0.2002759 -0.139676 -0.15242635 0.13552286 0.25874516 -0.04868383 -0.06935592 -0.15769123 -0.22606392 0.05728833 -0.29358497 -0.3016844 -0.13791467 -0.306137 0.37335363 0.16547212 0.003098109 0.2077329 -0.47894678 0.41896197 -0.34584135 -0.088806994 -0.25763312 -0.1283782 0.17384681 -0.21121006 0.11660068 0.31796673 0.12254708 -0.1027337 0.010657244 -0.41233936 -0.08582383 0.039839767 -0.09358179 -0.03103176 0.10607579 0.17149772 -0.21166986 -0.22550546 0.09193886 -0.14963698 -0.8105224 -0.17017862 -0.30669585 -0.1033842 0.22716051 0.0804302 -0.36351636 0.5040414 0.32943714 0.09106943 0.1550836 -0.11696229 -0.3508086 -0.2394814 -0.25695616 0.35837898 0.15299682 -0.4391043 -0.15376914 0.13610385 0.11099267 -0.32151476 0.3713963 -0.051032107 0.1283198 0.5304835 0.5882892 0.13111185 0.053260792 0.67701304 -0.05430725 0.11757519 0.28678194 0.13309789 0.23940305 0.05479206 -0.25061575 0.07865014 -0.07056461 0.43780285 -0.16838515 -0.270957 0.11391634 0.07698581 0.05539999 -0.17038351 -0.26405326 0.20428438 -0.3337102 -0.15527435 0.06814993
2914 0.30869186 -0.12724572 -0.13473433 0.3000513 0.12608072 -0.32961088 0.14899491 -0.011265559 -0.017699959 -0.28736404 -0.36791468 -0.21422032 -0.0494645 -0.4053964 0.63821554 -0.21730667 0.33372837 -0.113399975 -0.14842558 0.18988314 -0.5944523 0.2919039 -0.112202235 0.0559958 -0.2225108 0.27976772 0.06388008 -0.2534274 0.14115357 0.27033392 -0.19254674 -0.2623084 -0.37716106 0.30507994 0.26941738 -0.37318543 0.042551063 -0.047506683 0.45788437 0.558909 -0.32545918 0.30664498 0.15066692 -0.03920357 -0.15926896 -0.08123103 -0.015814781 -0.43966398 0.2386097 -0.4460062 0.65373564 0.47664458 0.10314037 -0.22948465 -0.114941604 -0.23996139 -0.36310259 0.0010767173 -0.23500259 -0.034309562 0.012372654 0.010465655 -0.5177218 -0.27632484 0.0834846 -0.16266818 0.20166932 -0.6079117 -0.2729719 0.11058984 0.14971551 -0.06411137 -0.18537839 -0.36095005 0.6924901 0.6171975 0.021548372 -0.06384585 -0.06199494 -0.2973505 -0.5334682 -0.03189125 -0.24862644 0.121762276 0.004808427 0.116011 0.07910186 -0.17597233 -0.0090326285 0.063725315 -0.12180932 0.40084517 0.22257058 0.124802895 0.015874231 0.046328396 0.5192683 0.29202503 -0.662901 0.18404578 0.27770734 -0.008399385 -0.052549634 0.2552088 0.08610608 0.14989045 -0.22798857 0.3446219 0.4657685 -0.6379498 0.2512278 0.40587094 0.07917829 -0.5102953 0.03026292 0.25121978 0.24027325 -0.13488682 -0.054563645 -0.073624946 0.27840376 0.23631673 -0.3404771 -0.5802572 -0.16699676 -0.0069867694 -0.54847056 0.5555824
3072 0.02736977 0.4749088 0.07297273 0.8097672 0.265532 -0.17525154 -0.37733668 0.12495558 0.055070408 -0.00056773535 0.049996786 -0.35169676 0.08623041 0.25000218 -0.082757376 -0.1933968 0.028787976 -0.6034224 0.4595976 0.48699975 0.55032116 -0.08710483 -0.18120219 0.110397674 -0.024158647 -0.4565905 0.44280705 0.1074899 -0.018287702 -0.12759258 -0.22448517 -0.44780952 0.13010177 -0.18617152 -0.1436635 -0.058974463 0.0021985886 0.5763369 0.657711 0.066842854 -0.17811498 -0.25281584 0.09888348 0.08694785 0.24849974 -0.49318662 -0.3351978 -0.23444143 0.14695284 0.5214805 -0.090613775 -0.024080997 0.37687132 0.10991439 0.03222292 -0.24940085 -0.2567515 0.027808173 0.18935463 -0.44653404 -0.27851674 0.104395434 -0.2896795 0.15677154 0.03293563 0.025943287 -0.31561363 0.5785597 -0.09400984 -0.043225028 0.39192578 -0.105284646 0.3303386 -0.17393252 -0.04626066 0.08124032 0.09458034 -0.16891257 -0.25733557 0.067027345 0.5275172 0.07284318 -0.18083148 -0.25712955 0.19675751 -0.22054817 -0.18332037 0.21690273 0.0062854406 -0.28672886 -0.4633718 0.3700044 -0.101468675 0.03748505 -0.081736736 0.42536384 0.3852178 0.08429413 -0.10861106 -0.17916813 0.13196774 0.39271104 -0.45022127 0.18362454 0.0540673 0.121783234 0.63541037 0.37160367 0.19534187 -0.49029088 0.5275708 0.48516202 -0.36361805 0.040819176 -0.12337761 0.34964705 -0.1569742 -0.09314275 -0.23303117 -0.14803688 -0.11638475 -0.113512754 -0.27653736 -0.09699205 0.4697375 0.01994352 -0.55076194 0.03830918
3149 0.21005867 0.4819519 -0.42799902 0.35862923 0.15920466 0.04594416 0.4042911 0.45523116 -0.14638118 0.030486219 0.26223868 -0.21554151 0.46239784 0.2601851 0.40706417 -0.19796476 0.16434842 -0.2279319 0.2582052 0.21298957 0.3027914 -0.44877917 0.35591245 0.11523227 -0.32351354 -0.38908017 0.28692 -0.16263038 0.22374779 0.331915 -0.29309615 -0.2945731 -0.32136923 -0.47547644 -0.16606961 -0.21395044 0.08534077 -0.12683184 -0.0059255133 0.043726623 0.06316949 -0.21450758 -0.10710894 -0.024714774 -0.0060823164 -0.10822484 -0.70748746 -0.09158314 0.0012283529 0.560007 -0.016262611 -0.050625075 0.16093309 0.08295202 -0.19725674 -0.12249004 -0.115059376 0.13946103 -0.0556507 -0.2738725 -0.32503918 -0.12054913 -0.12504472 0.13005917 -0.281121 0.12877168 -0.22892304 0.5039762 -0.21447723 0.16287026 0.22438797 0.008281086 0.12639542 -0.46303135 -0.19773935 0.4806979 0.41469905 -0.27733526 -0.18903098 0.0003009329 -0.00892434 0.09882859 -0.005567757 0.059422508 0.1360353 -0.40551507 0.06671389 -0.07487183 0.30054533 -0.11135011 0.1961654 -0.2137077 -0.3253357 -0.07915694 0.23912257 0.32155094 -0.14714332 0.41047114 -0.44748628 0.31283304 -0.13681608 0.0040013124 -0.27546993 -0.07677722 -0.16957107 0.21816456 0.266423 0.12360986 0.09872283 -0.34213772 0.5915049 0.02264377 0.0017128347 -0.51744944 -0.14444098 0.17423542 -0.031021247 -0.03650941 -0.33521417 0.07128235 -0.006751297 -0.2699894 -0.13882893 -0.58110815 -0.13528389 0.15508798 -0.19212766 -0.11793239
2694 -0.053086124 -0.22553605 0.1370259 0.40544185 0.17030172 -0.23959802 0.058413472 -0.10933678 -0.18193436 -0.025592886 -0.23983291 -0.2554847 0.26070955 -0.13745417 0.26236692 -0.2995415 0.24529848 0.13959755 -0.3721416 0.3184411 -0.28013203 -0.28972396 -0.155438 0.00011969198 -0.16176702 -0.081677586 -0.19951372 -0.7105447 -0.3804509 0.17733935 -0.43266693 -0.3431952 -0.61565804 0.14269216 0.20020609 0.034440335 0.09746284 0.15288582 -0.10214542 -0.062784344 -0.37219307 0.10604371 0.15478994 -0.17064533 0.13711193 -0.015440948 0.007566079 -0.24025647 0.5182632 0.03298344 -0.06931143 0.37529993 0.028052092 -0.6532209 -0.39400917 -0.2327359 -0.6868337 -0.13605843 0.057273712 -0.115109414 -0.18884534 0.1765181 -0.09824793 -0.08431549 0.3570125 0.056982942 0.0363306 -0.057961445 0.04581314 0.24120112 0.27641732 0.3850817 -0.022051428 0.14015982 -0.081727 -0.20901915 -0.11031664 -0.2985149 -0.3584239 -0.12677473 0.25371858 -0.01792525 -0.45284253 -0.10263423 0.18596691 0.12813194 -0.2058963 0.08158074 0.052419834 0.18159243 -0.4505153 0.12654033 -0.04653964 0.10083641 -0.13928407 0.02559463 0.17339659 0.7338913 -0.39086324 0.38542703 0.3601427 0.4414706 0.23858741 0.16693984 0.2558005 0.2042034 -0.039324723 -0.5806612 -0.26332116 -0.31827 -0.08361874 0.11869135 -0.21603945 0.0668732 -0.3478846 0.03717947 0.11527705 -0.555829 -0.180842 -0.14026727 -0.2525608 0.37326747 -0.09573368 -0.42003837 -0.00071278494 -0.29593125 -0.6953478 0.045539565
2604 0.2738874 -0.14309767 0.009369919 0.49473232 0.00023199523 0.073848575 0.19494194 0.6389897 -0.10567026 -0.31150308 0.028318405 -0.38775536 -0.025146626 0.27984563 0.055913087 0.32042453 -0.31329507 -0.6940427 0.35288274 0.06382687 0.33722755 -0.5009044 0.042513255 -0.011863413 -0.2807274 0.5396092 -0.0134294145 -0.2843199 -0.25216573 -0.09936846 -0.022991054 -0.2929026 -0.19982813 -0.21773893 0.15477939 -0.67710805 -0.3246908 0.40739614 0.2905535 -0.43320304 -0.5537941 0.23837197 0.016936142 -0.25831962 0.15464629 0.093433745 -0.0979095 0.054160446 0.30351144 0.18390451 0.09078872 -0.054894097 0.21002999 0.27069008 0.2725181 0.15221122 -0.4817773 0.24919365 0.45105523 -0.14482623 0.07101799 -0.60059726 -0.58683974 0.5332473 -0.037180208 0.14089121 -0.017080013 -0.14077891 0.4013473 -0.2638356 -0.11132651 0.010215509 0.39734688 0.3591669 0.004707763 0.08877392 -0.07126163 -0.1807799 0.25346485 -0.44766778 0.28833985 -0.02081179 -0.0015985423 -0.7160348 0.08823577 0.0462505 -0.041768763 0.08661389 -0.05685363 0.005426784 -0.045728102 0.27118424 -0.046706535 0.01163294 0.07217617 0.30930057 0.031047862 0.17198773 -0.20648687 0.19683681 0.09693585 -0.055548098 -0.3887243 0.10653601 -0.419936 -0.28060082 0.15212995 -0.14407209 0.3507129 0.17683847 0.1071536 0.44533432 0.04651071 -0.013609424 -0.13667946 0.6539049 -0.08155526 -0.35184786 -0.21201597 0.47378188 0.110685654 -0.15082428 0.029462742 -0.25220293 0.07463222 -0.3730738 -0.30582875 -0.3629534
2619 0.01662284 0.44727045 0.0675837 0.58554965 0.380487 -0.22393502 0.096406944 -0.09590925 -0.061812315 -0.1679298 0.216057 -0.31077304 0.37256142 0.19776982 0.2599879 -0.04040067 0.081280634 -0.07543667 0.2079722 0.10989017 0.5962922 -0.27573738 0.30954525 0.19901559 -0.63309705 -0.1918679 -0.0572013 -0.10924612 -0.32851502 0.74523973 -0.0310171 -0.70086026 0.22136632 -0.4697657 0.2178548 0.14187713 -0.31982043 0.099279985 0.7096608 -0.4300341 -0.026789736 0.1412019 0.1021833 -0.028236516 0.27222505 -0.39065942 -0.2691914 -0.0078116315 0.38279173 0.116004094 0.18445125 -0.11591953 0.2132865 0.02329791 0.004234047 -0.009458371 -0.1486085 0.17251845 0.19000918 0.2911921 -0.089872986 -0.16308399 -0.0087610455 -0.16409396 0.24195242 0.1452227 0.45799252 -0.11998411 0.12673433 -0.29049647 0.40005237 -0.1870316 0.3844635 0.19525412 -0.7777497 0.058381658 0.05466103 -0.21334557 -0.16708589 -0.1976282 -0.69022804 -0.10297662 0.23479053 -0.5368549 0.038456123 -0.1205676 -0.05385236 -0.21291061 0.05373025 -0.048809137 0.07308289 0.49701375 -0.18245268 0.20791167 0.5884388 0.29256794 0.04863603 0.13965712 -0.2413214 0.33395836 0.23105852 0.17311494 0.016111622 0.5112613 -0.90107346 0.5276575 -0.033914182 0.08661463 0.07376716 -0.28784943 -0.22910434 -0.07835594 -0.39988872 -0.35958526 -0.31221226 -0.24677607 -0.16684003 0.00046250303 0.17360847 -0.068298794 -0.30110243 -0.23086207 0.21336019 -0.15201476 -0.1360557 0.09310176 -0.34624308 0.087946735
2631 -0.06808088 -0.10801303 0.2621585 0.3485179 0.36965573 0.014114555 0.05725806 0.14583412 0.2619238 -0.12547438 0.2072031 -0.43023437 0.015573885 0.05848929 0.0892049 0.017278794 0.1017205 0.08178846 -0.07747767 0.00026029113 0.04395245 -0.03824367 0.23077822 0.016823234 -0.25944972 0.3887772 -0.4636506 0.20275939 -0.27746913 0.1633169 -0.28899464 -0.027848994 0.13815589 0.24941345 0.4907862 0.32556877 -0.26350975 0.012304841 0.6724825 -0.041739665 0.13365039 -0.20448537 -0.05534282 -0.31383917 -0.011490341 -0.37100467 0.28638074 -0.37116882 1.0240403 -0.3158452 0.27843893 -0.07573115 0.36840668 -0.24915752 -0.11347205 -0.37160298 0.01136809 0.08732945 0.35746995 -0.013514885 -0.49349692 0.36140478 -0.122596085 0.17893492 -0.1649534 -0.28112197 0.7281505 -0.039614096 0.22844641 0.3044714 -0.0042601847 -0.32186964 0.048210837 0.38770732 -0.411171 0.21690379 -0.022641063 -0.3242536 -0.50746197 -0.3173539 -0.5295029 0.1369745 -0.51613456 0.20766957 0.18519323 -0.34151784 -0.23082636 0.3188763 0.10258033 0.06590196 0.088018395 0.06924881 0.008450225 0.13611042 0.10559954 -0.1097178 0.3186999 0.37223566 -0.4584506 -0.2722111 -0.00085496757 0.49846008 0.3969674 0.20772918 -0.8984616 0.587778 0.27385572 0.08412656 0.27426985 0.28580746 -0.027129631 0.15663972 -0.15521012 -0.08835527 -0.3264646 -0.029130952 -0.04197725 -0.5606397 -0.3328995 -0.14482632 0.5063401 0.28168377 -0.015570086 -0.25140187 -0.02593303 0.06927661 -0.421708 0.11947228
2466 -0.04057623 -0.026196718 -0.5905089 0.70424944 0.79023296 -0.2493736 -0.2403186 0.28714648 0.14061874 -0.245607 -0.44206348 -0.04799689 0.30274194 -0.25185502 0.42724192 0.13337764 0.36736658 -0.14819781 0.40570974 -0.03007776 0.29417264 -0.25674176 0.18564571 -0.34071368 -0.120543465 0.25068024 0.21733257 0.39834535 0.029533813 0.017044012 -0.15650329 0.1892093 0.21685353 -0.29918277 -0.05664577 -0.07508178 -0.27517465 -0.1453761 0.40395954 -0.038446415 -0.0889979 -0.0622897 0.44946823 0.03193881 0.18623477 -0.23622324 0.14164813 -0.60476196 0.38904014 0.42653754 -0.18227223 0.43898588 0.14534257 -0.02349979 0.47442055 -0.19265726 0.061908375 0.39744547 -0.1331237 0.37740967 0.01738534 -0.27479786 -0.14206599 -0.8430381 -0.32373646 0.22233413 0.5147907 0.23734157 -0.07841662 -0.0028856066 0.8153548 -0.39176166 -0.037882987 0.277628 -0.1192668 -0.20331892 0.073287375 -0.6989669 -0.33674538 -0.23626922 -0.20391157 0.21649988 -0.058761634 -0.19959076 0.4542569 -0.53118587 0.041467812 0.20122768 0.025912145 -0.107659064 0.13285096 -0.21441671 0.24581718 0.13171837 0.27038497 0.50919235 -0.015534635 -0.061429042 -0.47983935 -0.100055344 -0.46875444 -0.20470858 -0.47716656 0.017900482 0.028993802 0.43725938 0.54284084 -0.13331361 0.062013872 -0.38117832 0.108799204 -0.023343332 0.24265112 0.11892775 -0.48854434 0.5652856 -0.14223237 0.03056552 -0.58476925 -0.6084347 -0.124583304 -0.15920109 0.12464906 -0.45261985 0.36593705 0.23922306 -0.30214903 0.19437058
2556 -0.029017437 0.05690234 0.12457874 0.7630078 0.31514326 0.24730448 0.21774225 0.5002849 0.027936365 -0.46814334 -0.2950891 -0.44599077 0.23060957 0.2511504 -0.1459696 -0.308007 0.22126508 -0.44806868 0.50727963 0.1734882 0.109887466 0.01044269 0.04755555 -0.31008828 0.026136547 -0.08883602 0.5854862 0.080807954 -0.2818763 -0.112260565 0.05156646 -0.24609765 0.22580843 -0.5745806 -0.054135907 -0.3054576 0.36435866 -0.034021527 0.17594065 -0.008215052 -0.12349567 -0.22664523 0.07539936 -0.45994663 0.16862985 -0.031891152 -0.4605015 -0.5968699 0.30780035 0.44353598 -0.13364564 0.0036646607 -0.00015033701 0.38169092 0.06250156 -0.20249271 -0.059017386 0.08777882 -0.12147217 0.2382556 0.38480547 0.078657 -0.45883387 0.036813967 -0.47315592 -0.36570984 0.14789219 0.056956377 0.19024871 -0.06739757 -0.044216864 -0.1978525 -0.3160106 0.15452644 0.26545504 0.38796207 0.2027373 -0.47669804 -0.21119519 -0.46121305 -0.3313682 0.1633429 0.15524788 -0.060930386 -0.27737075 -0.2055394 -0.026742317 0.17360966 -0.38903022 -0.4846728 0.22523105 -0.02751136 -0.46387163 0.09524412 0.38449794 0.20496844 0.12310292 0.31255335 -0.52450025 -0.16325735 -0.1365089 0.07104934 -0.59915185 0.37560847 -0.090159774 0.35091907 0.4739701 -0.17312199 0.11263216 -0.3563584 0.3572299 -0.47958478 -0.33941594 -0.2972191 0.19092627 0.1878065 -0.05890657 0.07313053 -0.7474148 -0.30166948 -0.3753481 -0.32242805 -0.08556577 -0.28105715 0.40959424 -0.26193014 -0.105691984 -0.42773393
2992 -0.08810964 -0.1048539 -0.16488753 0.4079153 0.3135266 -0.24931452 0.38967362 0.51635945 0.10828927 -0.42714816 0.13869499 -0.32338166 0.1146478 -0.2617909 0.003136814 -0.63922685 0.03992526 0.40347332 -0.517374 -0.04915873 -0.20100535 0.04605536 0.04430326 0.24550295 -0.12860976 0.28861907 -0.3143929 -0.018387804 -0.09397343 -0.037485827 0.037113402 -0.16831556 0.19652419 0.19386303 0.01601214 -0.33567485 -0.1159837 0.07698074 0.17062049 -0.15376075 -0.12730998 -0.38344267 0.010882363 -0.054989684 0.31727606 0.27777857 -0.25923064 -0.28206113 0.6380427 0.14518782 0.30201417 0.25299075 0.49046987 -0.19949988 0.41074842 -0.3591527 -0.42335612 -0.10141611 -0.13856664 0.026594218 -0.31657794 0.3660881 -0.33084646 -0.15948457 -0.21364546 0.04588845 0.29694116 -0.22224742 -0.19830567 0.3702575 0.3776354 -0.03315567 0.12442591 0.008166404 0.28369847 0.3747661 -0.0492072 -0.25302926 0.13892876 -0.6178974 0.117813066 0.08301919 -0.75139904 -0.10963018 0.011920481 -0.12817709 0.19533537 0.070640326 0.07493855 -0.21118729 -0.527316 0.37793538 -0.08995263 -0.32838294 -0.0078058518 0.10601126 0.4320556 0.4197128 -0.13390501 0.07437058 0.38273048 0.6505644 0.14796023 0.075225554 -0.11744046 0.352889 -0.13244529 0.12606433 -0.17724288 0.35820803 -0.383942 0.3193137 0.040060334 -0.24540226 -0.2877194 0.0968353 0.45627198 -0.20751742 0.15875095 -0.22471367 0.7127587 0.49703765 -0.124662235 -0.14219594 0.16951887 -0.4765731 -0.065517046 0.064483784
3309 -0.021501897 -0.026134493 0.16042772 0.75233805 0.20213313 -0.22928597 0.42280638 0.39876023 0.06440643 -0.08416572 0.2974114 -0.032414194 0.29547897 -0.010975422 -0.07918237 -0.39625117 0.06315876 -0.6257348 0.19767348 0.29065952 0.35293177 0.0420481 0.20645137 0.17740956 0.040153056 -0.21514843 0.52736264 0.1810377 0.20686947 0.3126485 -0.5814194 0.30437964 0.004175617 -0.30013004 0.1331396 -0.18695271 0.15866953 -0.04879489 -0.024322048 0.28885135 -0.13440521 -0.069982596 0.023373302 0.22318432 -0.18632987 0.16454773 -0.16030139 -0.37081838 -0.060723096 0.52933735 -0.21065916 -0.1111355 -0.02117694 -0.035620287 -0.2663926 0.22244902 -0.36027926 0.0313171 -0.26920354 -0.06610184 -0.018699506 0.027123425 0.46666554 -0.17018129 -0.3271371 0.34944966 0.005221123 0.31463006 -0.28735077 -0.2244972 0.26495478 -0.2574976 0.12643667 -0.11478826 0.18793948 0.21190989 0.32727528 -0.6608568 -0.43689913 0.038348153 0.23898114 0.39949688 -0.41114712 -0.24949804 -0.27558175 0.013915275 -0.11022485 -0.041472714 -0.009882365 -0.32821712 -0.016582223 -0.08108769 -0.1932583 -0.10529201 0.07399235 0.37577695 -0.19954078 0.20077892 -0.04198968 0.6122317 -0.063996606 0.306969 -0.12899007 -0.05106501 -0.21876054 0.36822724 0.4032184 0.37052745 0.07322327 -0.35602346 0.48106408 0.09205054 -0.031683825 -0.28294244 0.25035378 0.2867037 0.18424773 -0.20016265 -0.18583651 0.26215592 -0.037583996 0.012228728 -0.014911574 -0.58215404 -0.32890078 0.14898263 -0.20152533 0.04551916
2552 -0.1475501 -0.08478339 -0.003344732 0.18999359 0.49425623 -0.0028710917 -0.066332765 0.6487834 -0.1632143 -0.18839674 0.06788197 -0.10559765 0.17321269 0.14015108 -0.20295513 -0.046123125 -0.1436054 -0.2668717 0.24082147 -0.02641119 0.40221283 -0.29381946 -0.074965335 -0.74572504 -0.119945236 0.24742484 -0.1494084 0.019394586 -0.20073216 -0.036886018 0.04995954 0.5266488 0.22150975 -0.1973562 -0.02315764 -0.2671689 -0.1712906 0.05725663 0.3733564 -0.051243763 -0.34104228 -0.0405627 -0.14069457 -0.38790762 -0.12082889 -0.09612166 0.17788363 -0.33418313 0.48105887 -0.07101441 -0.2311737 0.15077753 -0.45586646 0.09897263 -0.0317365 0.15027894 -0.1796575 -0.36956108 0.28957468 -0.10574442 -0.05062872 -0.44790223 -0.25435367 0.40827972 0.04202721 0.2053949 0.045876004 0.57752335 0.28451535 0.48366603 0.56322896 -0.1426536 0.12824658 0.103193 0.09349847 0.539917 0.13332762 -0.16111423 0.7110644 0.008441029 -0.024327435 -0.2137658 -0.34004566 -0.46930382 0.23644054 -0.0050988863 0.29257587 -0.023383824 0.1632142 -0.21791524 -0.13645744 0.027038323 -0.03338268 0.4392926 -0.3254535 0.43536276 -0.03710997 0.17069267 -0.09630452 0.19163232 -0.53637975 -0.36323333 -0.16674635 -0.005453897 0.29313642 0.20354696 0.5311547 0.07818135 0.53620946 0.1179275 0.2663971 -0.19537517 -0.13704586 -0.17244662 -0.55248535 -0.35936552 0.13524528 0.1350973 -0.55116904 -0.75385576 0.057339158 -0.74239004 0.1751165 -0.41918415 0.13221788 -0.043680135 -0.4429865 0.20436619
2957 -0.019833233 -0.019886682 -0.23977515 0.55109435 -0.1294413 -0.071033716 -0.78093386 0.5191222 -0.113372445 -0.28845268 -0.14483687 -0.8703944 0.14831397 0.13106969 0.48653165 -0.42378098 0.12362106 -0.506905 -0.046212193 0.35322547 0.071555756 0.37664628 0.35926887 -0.33299854 -0.048073884 0.23752633 -0.01339187 0.20652585 0.44531253 -0.15176065 0.031214422 -0.093111284 0.076093115 -0.3494736 0.08637473 0.042354856 -0.05733821 0.04300346 0.6196424 0.5592415 0.21706794 -0.46278873 0.06833806 -0.42029235 -0.013453337 -0.104066625 -0.48038653 -0.11564446 -0.2095289 0.27755323 0.028469156 -0.22189371 0.05112638 0.18561527 0.048644815 -0.26675588 -0.45806092 0.081709355 -0.114762515 0.00793006 -0.195087 0.2944541 0.1003928 0.14821513 0.39499724 -0.12182953 -0.06916138 0.09151698 -0.07648997 0.53300095 0.1199423 -0.12953569 -0.33476654 -0.065084815 0.09745808 -0.14447664 -0.28032956 -0.11105617 -0.025822148 -0.23956431 0.259056 0.52042913 -0.12008597 -0.33729565 -0.37177333 0.62963706 -0.115216576 -0.45633414 -0.31434384 -0.1761308 0.5174668 0.07665775 -0.23451564 -0.071716204 0.16173418 0.07423248 0.52534837 0.10539414 -0.6579372 0.359269 -0.47400266 -0.43104392 -0.294314 0.02125986 0.19695838 0.48634595 0.76617026 0.18218397 0.20770648 0.1909024 0.50413823 -0.5447467 0.20067269 -0.13481975 0.2632858 -0.060840894 -0.08012374 -0.3130699 -0.53541696 0.06748221 -0.118961096 -0.23218998 -0.07060597 -0.73991007 0.4101706 -0.14039451 0.09446433 -0.26788694
3172 0.45101237 0.037721504 0.21113281 0.030578073 -0.16842556 -0.28206727 0.1031394 0.7584552 -0.10206122 0.22051024 -0.2688042 -0.5835681 0.26217228 0.057561684 0.03276534 0.27986333 0.3818236 0.28108516 -0.22170338 -0.18701851 -0.27032787 0.07444818 -0.12536938 -0.04411846 -0.9996644 0.1269887 -0.18386576 0.050434545 -0.43209636 -0.2547441 -0.29047656 -0.10453131 0.49304593 0.08346785 0.15859483 -0.63564116 -0.7204419 -0.24051724 -0.0985136 -0.14949115 0.11821982 0.2200518 -0.13543087 0.040583216 -0.034816593 0.14762515 -0.12777664 -0.29506886 -0.025477264 -0.031654675 0.105677865 -0.013744014 0.30592978 -0.2506333 -0.17563605 -0.725302 -0.3202571 -0.14979614 0.046615608 0.0798196 -0.009029898 0.0790876 0.14568438 -0.28418654 -0.1869397 0.36379588 0.18559608 0.5428321 0.061280873 -0.046224896 0.05820446 -0.11921519 -0.33678252 -0.17041647 -0.14337583 -0.22279835 -0.5637183 -0.4375452 -0.12086721 -0.2753038 -0.5993695 0.29384634 -0.73843855 -0.3316641 -0.44035354 -0.3273365 -0.5441605 -0.320695 -0.19489412 -0.3629022 -0.35055906 0.4597437 0.47468495 -0.4642089 -8.040538e-05 0.11616276 0.33453888 0.30888698 -0.65605545 -0.3896831 0.20951265 0.23659754 -0.12127437 0.12638351 -0.2011686 0.34545243 0.7301649 -0.007662594 -0.26758236 0.35197204 -0.05509559 -0.026446788 -0.18127485 0.19367363 0.26023805 -0.33711502 0.38498256 -0.73206216 -0.4621173 0.19249715 0.28428483 0.10372527 0.17013212 0.15577546 -0.3790371 -0.052127846 -0.6191411 -0.13674432
2691 0.1590769 0.1576575 0.25387833 0.40547955 0.0957162 -0.1529613 -0.19896497 0.40573624 -0.27714193 -0.56636345 -0.30531847 0.014404027 0.22373487 0.2319562 0.30947086 0.2481485 0.15408687 -0.005770658 0.30216542 -0.09638076 -0.13703135 -0.20022249 0.5283542 -0.27896208 -0.66679734 0.24898285 0.1639856 -0.066534415 -0.12188585 0.12386747 -0.015653715 0.2368301 0.18758787 -0.090861395 -0.0023383682 0.010349804 0.18111898 0.18282312 -0.22376259 0.0060337894 -0.10094564 0.32955596 -0.33605367 0.05904114 0.019490425 0.12323746 0.17382114 -0.22930786 0.5187308 -0.40924126 0.35434392 -0.046602193 -0.33499512 -0.19287151 0.11593779 -0.04202069 -0.049451318 0.40335694 -0.14503099 -0.01637928 -0.18991487 0.047323745 0.5759701 0.71000695 0.07543287 0.47450706 -0.31039885 -0.1447837 -0.09578945 0.01819812 0.36066666 0.23634186 0.0119486125 0.22915131 0.047243234 0.40953866 0.3267044 -0.044976942 -0.12236547 -0.3559242 -0.54000074 -0.39526743 -0.052435216 -0.00978389 0.104091644 0.05616728 0.23453408 -0.29367274 0.35622278 -0.23915204 -0.4920872 0.036890555 -0.36394188 0.040900297 -0.35383198 0.35613686 0.15839797 -0.075655214 -0.4020879 0.30023956 -0.11401859 0.41712373 -0.105492145 0.010229224 -0.23003748 0.3692141 0.138739 0.13609286 -0.038977824 0.441093 -0.21640354 0.18514977 -0.21574955 -0.46878117 0.22136478 0.07553993 -0.3596951 0.2735193 -0.6500677 -0.23940979 -0.3629557 0.22207019 0.25842133 -0.41148672 0.10440641 -0.24003477 -0.3106868 0.43751723
2915 0.6310304 -0.052920368 -0.3291378 0.58004594 -0.34786737 0.39995387 2.3010818e-05 0.15079445 -0.29265693 -0.047547482 0.08730802 -0.53355545 0.0643975 0.23938827 0.6653441 -0.23355772 0.10596832 -0.42150882 0.20539673 -0.003421804 -0.19792733 0.33585277 0.38556772 0.13069242 -0.46703902 0.20135072 -0.4409265 0.022251153 0.23486988 0.62445855 -0.3868074 -0.54347086 -0.13678522 -0.32020578 -0.15351652 -0.8396049 0.14889334 -0.16548204 -0.08369355 -0.15549839 0.39070675 -0.4954726 -0.1622058 0.0030144432 0.19026154 0.1646637 -0.54213005 0.089277044 0.047046915 0.42048836 -0.0049248235 0.2070088 0.38689098 -0.2602071 0.9442572 -0.011920029 0.04966941 -0.18727991 0.16419652 0.46646845 0.0002470146 -0.020285819 -0.18844989 -0.014351701 -0.07311142 0.07586096 -0.2975127 0.41653386 0.5475341 -0.14401272 0.39847055 -0.6404509 -0.243213 0.18374471 0.023173867 0.19512859 0.25615194 0.052133758 -0.08181086 -0.22800872 -0.36762074 -0.12394639 0.35279962 -0.22352733 -0.15910406 0.18015318 -0.0044637374 -0.19547772 0.55815613 -0.108487055 -0.5242495 0.3499249 -0.44499728 0.36428848 0.099738054 0.049618207 -0.09959246 0.08258636 -0.460176 0.47165126 -0.21558343 -0.11170211 0.26998985 0.26293984 -0.5947813 0.17079422 0.13941692 0.2498123 0.12714228 -0.16751981 0.54184943 0.24287485 -0.22531193 0.061184082 -0.51371473 -0.11600436 -0.1889574 -0.04836645 -0.18201266 -0.53313154 0.20446315 0.15538363 -0.084347084 -0.2944368 0.17861053 0.009624593 -0.06571089 -0.058150645
2475 -0.13956983 0.15896925 -0.03186087 0.35932028 -0.06375104 -0.06978255 0.2834461 0.13456292 -0.2415425 -0.4512917 0.063273504 -0.016741643 -0.15081249 0.05586262 -0.31017056 -0.12147435 0.39976656 -0.35725617 0.13027266 0.4117658 0.9747823 -0.33578846 0.14508574 -0.82863206 -0.3059171 0.1060409 -0.026746357 -0.10756418 -0.21118158 0.1841178 -0.29597083 0.18285719 0.41668862 -0.030710364 0.36270764 -0.259175 -0.12318051 -0.21666057 0.20803733 -0.41801587 -0.17431094 -0.009612942 -0.35548496 -0.41601858 -0.07331675 -0.22795698 -0.24250261 -0.05325931 0.16059744 0.1784514 0.14368065 0.3612833 -0.2515707 0.3298799 0.008884995 0.44720352 -0.10780092 -0.12264409 0.47328603 -0.12935327 -0.23651768 0.026508382 -0.020606782 0.44099835 0.029929826 0.08631708 -0.15135604 0.1489694 0.7087744 0.29141554 0.9228565 -0.18369497 0.333856 0.073443495 0.11185423 0.68741757 0.026007654 0.06644602 0.584857 -0.112531036 0.016613156 -0.39492247 0.09052758 -0.8449818 -0.016926259 0.15027054 0.40931764 -0.28229803 0.46350372 -0.3002463 -0.08770525 0.25130358 -0.15914208 0.27104107 -0.19284023 0.65041924 0.19100955 -0.3441379 -0.42660135 0.011781709 -0.009148426 -0.2163986 0.08944116 0.30298862 -0.005295328 0.09493719 0.026090927 0.028191155 0.66187835 0.40332845 -0.17524634 -0.30214372 -0.15502296 -0.2288666 -0.22194068 -0.32710123 0.4532329 -0.030680375 -0.35444728 -0.26324537 0.28064713 0.0155896675 -0.15055999 -0.3875181 0.38974562 0.07277159 -0.4683394 -0.09010367
2769 -0.15319234 0.035529256 -0.38857344 0.10006704 0.33220664 -0.23570842 -0.44722062 0.98101777 0.1781523 0.12099931 0.24700491 -0.70201194 0.15337032 0.5034807 0.1267096 -0.078773975 0.666278 -0.51785845 0.09801983 0.18986362 0.28841892 -0.020007731 0.4226563 0.098760426 -0.11623884 -0.18925977 0.23647246 0.015762096 0.11329984 0.1399925 -0.1005072 -0.1864604 -0.15419492 -0.20402706 -0.45087484 -0.4020971 0.1871489 -0.23503254 0.16799723 0.53834814 -0.21903874 -0.210222 -0.024260325 -0.67802244 0.26799124 0.20053163 0.028897114 -0.4577917 -0.35443977 0.3985986 -0.2128131 -0.14243342 0.0023576787 0.047961544 0.056739178 -0.1856947 -0.17793731 0.01068003 -0.119003296 -0.124299 -0.13095425 -0.16386524 -0.104345374 0.04222863 -0.11056417 0.010302346 0.038843513 0.06110877 -0.16002572 0.20852585 0.61821276 -0.07877534 -0.28637883 -0.2933818 -0.0047892802 0.10168651 -0.22541934 -0.19809192 0.018641708 0.11080674 0.035718776 0.18122719 -0.22325197 -0.4559472 0.034602888 0.48252144 0.100353174 -0.052147236 0.12384313 -0.11507971 -0.016171955 -0.23107839 -0.357896 0.12158835 -0.25476718 0.25769332 -0.18689415 0.16952808 -0.32930523 0.13751055 0.11262058 0.37696645 0.24117377 0.09576157 0.32900003 0.37926525 0.7454547 -0.29784936 -0.2850404 -0.27205917 -0.16895194 -0.21939619 0.32681552 -0.44024113 0.1338582 -0.18485716 -0.254471 -0.28787968 -0.537772 0.44701546 0.3575686 -0.25180918 0.13594095 -0.69843775 -0.03911572 -0.179856 0.34405786 -0.39604542
2455 0.005577689 0.13964583 0.38754523 0.6426863 0.4898019 0.09480342 0.010211838 0.46848062 -0.18999259 -0.7196187 0.014977583 0.17929481 0.00095531903 -0.0017536973 0.89980114 0.25579238 0.006926965 -0.38259625 -0.19817409 -0.09024843 0.6807792 0.28717113 0.44993114 0.02378977 -0.051780686 -0.40823373 0.17626403 -0.082941234 -0.07556089 -0.4626379 -0.68165267 -0.03622318 0.43066493 0.29817542 -0.44856372 0.2743909 -0.17817709 0.072690316 0.42396358 -0.024244219 0.011440796 0.3923467 0.11933682 0.6380412 0.42980245 -0.4586883 -0.31702867 0.10658652 -0.10648923 -0.030100776 -0.28672576 0.09875925 -0.27196237 -0.5611529 -0.11526203 0.4056485 -0.54058343 0.07312332 -0.07772594 -0.35360587 -0.15533057 -0.46421778 0.09041014 0.5152875 -0.30205813 -0.10434856 -0.5808442 -0.15166089 0.05035564 -0.14956193 0.5507699 0.5194352 -0.49250084 0.069992244 0.06236767 0.19511795 0.020563066 -0.000370114 0.24242637 -0.16501907 -0.29548806 -0.4953153 0.102239914 -0.14862779 0.016188003 -0.018103372 -0.23530158 0.59335965 0.19124897 -0.16261691 0.010533157 0.24990685 -0.20112373 0.6588276 -0.33027267 0.5247474 0.18102066 0.5787734 -0.10010216 0.29244882 -0.034438632 -0.15916297 -0.06970747 -0.07667945 0.2339129 0.13935661 0.44899392 -0.35861504 0.13156873 0.27917433 -0.15218063 0.5032277 -0.19698101 -0.43179968 -0.12242798 -0.15728751 0.044844344 -0.062252264 0.088645436 -0.25398037 -0.11173306 -0.0007017026 0.15107055 -0.45579922 -0.31904814 0.20183516 -0.5122828 0.4994532
